svm_type c_svc
kernel_type rbf
gamma 0.5
nr_class 3
total_sv 264
rho -0.249816 1.48842 1.06268
label 1 -1 0
nr_sv 65 33 166
SV
0.009359760188329356 0 1:0.10840745 2:0.099057786 3:0.20929009 4:0.055525362 5:0.20082428 6:0.017902093 7:0.14357266 8:0.12873152 9:0.12175072 10:0.059166245 11:0.042407915 12:0.20080122 13:0.084390596 14:0.28617701 15:0.094052069 16:0.28617701 17:0.20260432 18:0.12222881 19:0.12673286 20:0.012893835 21:0.0194478 22:0.0057378756 23:0.083853222 24:0.011458285 25:0.28617701 26:0.28617701 27:0.28617701 28:0.12630804 29:0.0083908215 30:0.029662138 31:0.012049936 32:0.14494963 33:0.037632365 34:0.28617701 35:0.28617701 36:0.28617701 37:0.056830168 38:0.021622771 39:0.099826001 40:0.047076877 41:0.24021409 42:0.061198987 43:0.28113791 44:0.24553356 45:0.15271957 46:0.032594908 47:0 48:0 49:0 50:0.0089587653 51:0 52:0.084055178 53:0.11163816 54:0.088406436 55:0.17479183 56:0.0046791835 57:0.0162031 58:0.0050783381 59:0.046510469 60:0.018806681 61:0.32909015 62:0.32909015 63:0.32909015 64:0.21229282 65:0 66:0 67:0 68:0.00060917431 69:0 70:0.32909015 71:0.32909015 72:0.32909015 73:0.028239259 74:0 75:0 76:0 77:0 78:0 79:0.060884241 80:0.041211385 81:0.047408558 82:0.0026686981 83:0 84:0 85:0 86:0 87:0 88:0.0004975308 89:0.00061660085 90:0.0026686981 91:0.36945185 92:0 93:0 94:0 95:0 96:0 97:0.36945185 98:0.36945185 99:0.36945185 100:0.18577026 101:0 102:0 103:0 104:0.002115573 105:0 106:0.36945185 107:0.36945185 108:0.36655253 109:0.13704441 110:0 111:0 112:0 113:0.0044685821 114:0 115:0.32776994 116:0.32776994 117:0.32776994 118:0.20628218 119:0 120:0 121:0 122:0.0057453201 123:0 124:0.32776994 125:0.32776994 126:0.32776994 127:0.030767536 128:0 129:0 130:0 131:0 132:0 133:0.065403372 134:0.11678019 135:0.072068997 136:0.10272376 137:0 138:0 139:0 140:0 141:0 142:0.30371109 143:0.32776994 144:0.23760955 145:0.12191718 146:0 147:0 148:0 149:0.0004331216 150:0 151:0.28198838 152:0.28198838 153:0.28198838 154:0.17941613 155:0 156:0 157:0 158:0 159:0 160:0.28198838 161:0.28198838 162:0.28198838 163:0.095444724 164:0 165:0 166:0 167:0 168:0 169:0.25964829 170:0.28198838 171:0.22256126 172:0.16997954 173:0 174:0 175:0 176:0 177:0 178:0.28198838 179:0.28198838 180:0.28198838 181:0.15728052 182:0 183:0 184:0 185:0 186:0 187:0.2771647 188:0.2771647 189:0.2771647 190:0.11644152 191:0 192:0 193:0 194:0.002427954 195:0 196:0.24836354 197:0.2771647 198:0.22808577 199:0.17714344 200:0 201:0 202:0 203:0.0035980658 204:0 205:0.2771647 206:0.2771647 207:0.2771647 208:0.21228498 209:0.0027999326 210:0.0083784657 211:0 212:0.021968763 213:0 214:0.2771647 215:0.2771647 216:0.2771647 
0.05490509654490505 0 1:0.099287666 2:0.075650223 3:0.27258977 4:0.10145603 5:0.15673299 6:0.03754979 7:0.098375991 8:0.10185853 9:0.10629299 10:0.08046753 11:0.055734895 12:0.26833078 13:0.091863409 14:0.27258977 15:0.063621245 16:0.21779551 17:0.23231097 18:0.16320141 19:0.16430566 20:0.0074730846 21:0.025582654 22:0.022763716 23:0.076452166 24:0.039291076 25:0.27258977 26:0.27258977 27:0.27258977 28:0.19543657 29:0.007006323 30:0.035141744 31:0.024602327 32:0.13702519 33:0.055245992 34:0.27258977 35:0.27258977 36:0.27258977 37:0.08180014 38:0.024185147 39:0.14321229 40:0.025909128 41:0.24152106 42:0.026191466 43:0.21891846 44:0.23264946 45:0.20421109 46:0.043729443 47:0 48:0 49:0 50:0.0076974556 51:0 52:0.099761851 53:0.090014689 54:0.12090831 55:0.24622191 56:0.0026050224 57:0.019788351 58:0.0049021919 59:0.042845517 60:0.016548648 61:0.31988817 62:0.31988817 63:0.31988817 64:0.23195164 65:0 66:0 67:0 68:0.0001817507 69:0 70:0.31988817 71:0.31988817 72:0.31988817 73:0.036319822 74:0 75:0 76:0 77:0 78:0 79:0.060349964 80:0.05402226 81:0.067174658 82:0.0034516887 83:0 84:0 85:0 86:0 87:0 88:0.0011322532 89:0.0032956509 90:0.0034516887 91:0.35076323 92:0 93:0 94:0 95:0 96:0 97:0.38321829 98:0.38321829 99:0.38321829 100:0.17319682 101:0 102:0 103:0 104:0 105:0 106:0.31053227 107:0.38321829 108:0.38321829 109:0.17972498 110:0 111:0 112:0 113:0.0025087644 114:0.0051595033 115:0.31182513 116:0.31182513 117:0.31182513 118:0.26635849 119:0 120:0 121:0 122:0.0021400254 123:0.0066336473 124:0.31182513 125:0.31182513 126:0.31182513 127:0.04148503 128:0 129:0 130:0 131:0 132:0 133:0.096018761 134:0.086967796 135:0.11625961 136:0.1203438 137:0 138:0 139:0 140:0 141:0 142:0.26300678 143:0.31182513 144:0.31182513 145:0.15623158 146:0 147:0 148:0 149:7.8857141e-05 150:0.00053273368 151:0.28204933 152:0.28204933 153:0.28204933 154:0.17373346 155:0 156:0 157:0 158:0.00048051946 159:0 160:0.28204933 161:0.28204933 162:0.28204933 163:0.099285357 164:0 165:0 166:0 167:0 168:0 169:0.21102461 170:0.28204933 171:0.25790808 172:0.16174765 173:0 174:0 175:0 176:0.0010571429 177:0.0014710713 178:0.28204933 179:0.28204933 180:0.28204933 181:0.12121798 182:0 183:0 184:0 185:0.0012494838 186:0 187:0.2762576 188:0.2762576 189:0.2762576 190:0.12523842 191:0 192:0 193:0 194:0.00056794717 195:0 196:0.23670699 197:0.2762576 198:0.26124203 199:0.16757631 200:0 201:0 202:0 203:0.006368611 204:0.0038251933 205:0.2762576 206:0.2762576 207:0.2762576 208:0.22406599 209:0.0026133305 210:0.007322026 211:0.00027462878 212:0.031506993 213:0.0017387242 214:0.2762576 215:0.2762576 216:0.2762576 
0.1850250665468644 0.9118307525244487 1:0.11435251 2:0.11062144 3:0.1536856 4:0.061339647 5:0.21572247 6:0.026906835 7:0.084120505 8:0.055839807 9:0.086670071 10:0.21283768 11:0.036635466 12:0.098501869 13:0.085416734 14:0.24466573 15:0.17650181 16:0.24466573 17:0.15602109 18:0.23621497 19:0.16023484 20:0.012628254 21:0.049005438 22:0.0079038115 23:0.17115255 24:0.08323092 25:0.24466573 26:0.24466573 27:0.23683318 28:0.21237662 29:0.0078507811 30:0.01151286 31:0.017336415 32:0.24466573 33:0.24466573 34:0.24466573 35:0.24466573 36:0.24466573 37:0.13045609 38:0.010715737 39:0.077438056 40:0.037253324 41:0.18386626 42:0.19295363 43:0.23296745 44:0.17107685 45:0.2343014 46:0.033920735 47:0.00032057127 48:0.0026278219 49:0 50:0.010796156 51:0.038092505 52:0.060065355 53:0.085358754 54:0.070423618 55:0.21347392 56:0.0045721666 57:0.022999873 58:0.0094233574 59:0.12646195 60:0.2925494 61:0.2925494 62:0.2925494 63:0.2925494 64:0.1898798 65:0.0048085693 66:0.03941733 67:0 68:0.072077602 69:0.20094508 70:0.2925494 71:0.2925494 72:0.2925494 73:0.016166167 74:0.0001688655 75:0.0013842427 76:0 77:0.00024083804 78:0.0015530352 79:0.016069364 80:0.0368549 81:0.027927255 82:0 83:0 84:0 85:0 86:0 87:0 88:0.00016583866 89:0.00085403409 90:0 91:0.31545991 92:0.0025329825 93:0.020763639 94:0 95:0.31545991 96:0.1702493 97:0.31545991 98:0.31545991 99:0.31545991 100:0.30629733 101:0 102:0 103:0 104:0.31545991 105:0.06220362 106:0.31545991 107:0.26637492 108:0.31545991 109:0.18731491 110:0.0047227894 111:0.038713951 112:0.00048460512 113:0.1801614 114:0.11645237 115:0.27628788 116:0.27628788 117:0.27628788 118:0.22348048 119:0.014209164 120:0.0067444001 121:0.007269077 122:0.25485396 123:0.27628788 124:0.27628788 125:0.27628788 126:0.27628788 127:0.048175897 128:0.00023768735 129:0.0019483822 130:0.00037691512 131:0.044794425 132:0.028924281 133:0.10016029 134:0.094156295 135:0.06510561 136:0.12385695 137:0.017265938 138:0.00044962671 139:0.0056537269 140:0.090190381 141:0.16568056 142:0.26945579 143:0.27628788 144:0.19123657 145:0.12183385 146:0.015570471 147:0.01028522 148:0.009595002 149:0.057817604 150:0.14957273 151:0.25774524 152:0.25774524 153:0.24428882 154:0.18176392 155:0.0053347554 156:0.019852083 157:0.0085644322 158:0.11428245 159:0.10493682 160:0.25774524 161:0.25774524 162:0.25774524 163:0.10781792 164:0.018882103 165:0.0066783074 166:0.016936522 167:0.055284869 168:0.084985211 169:0.212742 170:0.25774524 171:0.20912635 172:0.24205388 173:0.0043574083 174:0.0085863955 175:0.018841751 176:0.25774524 177:0.064759068 178:0.25774524 179:0.25774524 180:0.25774524 181:0.1846976 182:0.00036853683 183:0.0034693992 184:0.0009839324 185:0.20606036 186:0.058287352 187:0.2385377 188:0.23615736 189:0.22172798 190:0.15645047 191:0 192:0 193:0 194:0.20772147 195:0.053829212 196:0.2385377 197:0.23773819 198:0.20449698 199:0.21561548 200:0 201:0.00098645559 202:0.0021646514 203:0.2385377 204:0.056668166 205:0.2385377 206:0.2385377 207:0.2385377 208:0.18514301 209:0.0016510474 210:0 211:0 212:0.20036693 213:0.087178372 214:0.2385377 215:0.2385377 216:0.2385377 
0 0.2543193326890318 1:0.14113925 2:0.13516988 3:0.2633892 4:0.03626205 5:0.13809481 6:0.016076343 7:0.029245488 8:0.024455588 9:0.12047989 10:0.16260351 11:0.13625988 12:0.2325498 13:0.021047382 14:0.2034681 15:0.016661951 16:0.064340077 17:0.053802293 18:0.15780513 19:0.2633892 20:0.22169366 21:0.2633892 22:0.10028552 23:0.2633892 24:0.04632964 25:0.028847994 26:0.020666527 27:0.22639652 28:0.2633892 29:0.2633892 30:0.2633892 31:0.06924133 32:0.2633892 33:0.050749894 34:0.049244244 35:0.037355341 36:0.2633892 37:0.11061335 38:0.11677955 39:0.24264067 40:0.017634023 41:0.1437615 42:0.0092460774 43:0.012938005 44:0.010818985 45:0.075219788 46:0.17689323 47:0.28757799 48:0.29234794 49:0.068112023 50:0.18696915 51:0.016521275 52:0.0068786312 53:0 54:0.12165588 55:0.23209909 56:0.29234794 57:0.29234794 58:0.079308562 59:0.22027223 60:0.025656719 61:0.010175909 62:0.0066092289 63:0.15328076 64:0.28349078 65:0.29234794 66:0.29234794 67:0.084283277 68:0.20114428 69:0.025681252 70:0.009629311 71:0 72:0.16618328 73:0.22372963 74:0.28616247 75:0.28616247 76:0.075694755 77:0.059513025 78:0.021758329 79:0.011438936 80:0.00040406428 81:0.087291703 82:0.26446781 83:0.28616247 84:0.28616247 85:0.14016597 86:0.076897547 87:0.011169701 88:0.012310562 89:0.006060964 90:0.097201988 91:0.25913656 92:0.28616247 93:0.28616247 94:0.069205761 95:0.044712096 96:0.010697152 97:0.0055199834 98:0 99:0.092469312 100:0.21369812 101:0.28616247 102:0.28616247 103:0.16871521 104:0.073987313 105:0.0011587274 106:0.00059793086 107:0 108:0.083489209 109:0.20968093 110:0.13478273 111:0.10801803 112:0.054718256 113:0.28718445 114:0.026437219 115:0.016914878 116:0.016367435 117:0.13950261 118:0.24683398 119:0.28718445 120:0.28718445 121:0.10070143 122:0.19420449 123:0.040925104 124:0.021747701 125:0.021466054 126:0.18085425 127:0.23252787 128:0.28718445 129:0.28718445 130:0.064947046 131:0.10754782 132:0.0054446743 133:0.0011838379 134:0.0087593002 135:0.066860728 136:0.2387677 137:0.28718445 138:0.28718445 139:0.17515586 140:0.078372292 141:0.023547189 142:0.0014498467 143:0.004719256 144:0.096720181 145:0.25002533 146:0.29504567 147:0.29504567 148:0.13613228 149:0.22602476 150:0.02262444 151:0.0069362535 152:0.0031301249 153:0.17670923 154:0.27128083 155:0.29504567 156:0.29504567 157:0.10553087 158:0.13324361 159:0.034386512 160:0.0167246 161:0 162:0.14057967 163:0.17058083 164:0.29504567 165:0.29504567 166:0.1463131 167:0.16380224 168:0.015811881 169:0.0010957746 170:0.00066765107 171:0.11511449 172:0.097200543 173:0.14557405 174:0.23283879 175:0.030544093 176:0.083363518 177:0.0074793524 178:0.003859523 179:0 180:0.058796704 181:0.39408553 182:0.39408553 183:0.39408553 184:0.14479277 185:0.01910433 186:0.039843187 187:0.020560026 188:0 189:0.22259212 190:0.2490682 191:0.39408553 192:0.39408553 193:0.14743005 194:0.042904507 195:0 196:0 197:0 198:0.12540136 199:0.08688169 200:0.13030785 201:0.13683467 202:0.017157976 203:0.0034116844 204:0.0091945808 205:0.0047446219 206:0 207:0.036627803 208:0.0103576 209:0.011753471 210:0.0040871887 211:0 212:0 213:0 214:0 215:0 216:0.0072543719 
0.6715667181246514 0.2853717988956964 1:0.23603022 2:0.070192412 3:0.093564183 4:0.041284185 5:0.30993351 6:0.010771482 7:0.027717138 8:0.012668209 9:0.20868954 10:0.17933856 11:0.054296568 12:0.056905571 13:0.050526582 14:0.30993351 15:0.022323618 16:0.013548445 17:0.0092455912 18:0.14313374 19:0.24994665 20:0.014861731 21:0.061443519 22:0.011425316 23:0.30993351 24:0.026879268 25:0.049443934 26:0.016523292 27:0.26748997 28:0.30993351 29:0.1590634 30:0.24487479 31:0.038325664 32:0.30993351 33:0.025997363 34:0.11126567 35:0.036351241 36:0.30993351 37:0.13714887 38:0.10320281 39:0.05823053 40:0.020176543 41:0.088156946 42:0.012654433 43:0.0055746958 44:0.0014441395 45:0.11341797 46:0.28044045 47:0.17871311 48:0.14346711 49:0.019054526 50:0.057731442 51:0.019999187 52:0.0097772563 53:0 54:0.17925444 55:0.28926644 56:0.28926644 57:0.28926644 58:0.061279047 59:0.28926644 60:0.029689314 61:0.043745033 62:0.0097682923 63:0.28926644 64:0.28926644 65:0.28926644 66:0.28926644 67:0.048407264 68:0.098909266 69:0.054520272 70:0.026654027 71:0 72:0.28926644 73:0.23230262 74:0.15693787 75:0.23230262 76:0.054890141 77:0.18979082 78:0.0069322921 79:0.0033890763 80:0 81:0.18265215 82:0.23230262 83:0.23230262 84:0.23230262 85:0.13214274 86:0.19071344 87:0.04169184 88:0.030633656 89:0.036460899 90:0.23230262 91:0.23230262 92:0.23230262 93:0.23230262 94:0.067533776 95:0.22437184 96:0.015251044 97:0.0074559678 98:0 99:0.23230262 100:0.23230262 101:0.18004921 102:0.23230262 103:0.096518502 104:0.23230262 105:0.027260456 106:0.019934051 107:0.013790308 108:0.20726839 109:0.24072741 110:0.004131143 111:0.020503635 112:0.012392227 113:0.26752076 114:0.025109448 115:0.076151758 116:0.025448579 117:0.2590639 118:0.26752076 119:0.12254553 120:0.26752076 121:0.017764144 122:0.26752076 123:0.022414254 124:0.16894412 125:0.055986866 126:0.26752076 127:0.21648028 128:0.15635414 129:0.050784923 130:0.03760818 131:0.22309127 132:0 133:0.006497853 134:0.016554687 135:0.23524855 136:0.26752076 137:0.24452817 138:0.25321534 139:0.095120646 140:0.045877248 141:0 142:0.014471803 143:0.010258364 144:0.26752076 145:0.25588152 146:0.13716526 147:0.19993186 148:0.020714579 149:0.1633876 150:0.009327895 151:0.030277349 152:0.0085942019 153:0.22421467 154:0.25588152 155:0.22032298 156:0.13819228 157:0.019803004 158:0.038403485 159:0.013424815 160:0.031130966 161:0.020809805 162:0.20075093 163:0.25588152 164:0.1878811 165:0.25525138 166:0.090580374 167:0.14174296 168:0 169:0.0078910552 170:0.012776781 171:0.25588152 172:0.25588152 173:0.25588152 174:0.25588152 175:0.1547524 176:0.24340847 177:0 178:0.062345129 179:0.094509616 180:0.25588152 181:0.25864866 182:0.15869644 183:0.12341426 184:0.019531328 185:0.037280194 186:0.0041110027 187:0.029904718 188:0.024440516 189:0.20541218 190:0.26518276 191:0.16926108 192:0.2061587 193:0.06391041 194:0.16723804 195:0.038111866 196:0.0067771771 197:0.0075280592 198:0.22987922 199:0.26518276 200:0.26518276 201:0.26518276 202:0.085211217 203:0.055444162 204:0 205:0.067085572 206:0.09874633 207:0.26518276 208:0.26518276 209:0.26518276 210:0.26518276 211:0.089187428 212:0.13696727 213:0.046298992 214:0.015290906 215:0.019560209 216:0.26518276 
0.5594557303046258 5.349771044499131 1:0.30257404 2:0.30257404 3:0.12556271 4:0.05144592 5:0.30257404 6:0.19667841 7:0.30257404 8:0.10045677 9:0.23724039 10:0.30257404 11:0.30257404 12:0.21327548 13:0 14:0.025496248 15:0.036324617 16:0.046678998 17:0.02016696 18:0.30257404 19:0.14932866 20:0.079956539 21:0.060202707 22:0.029280579 23:0.29966551 24:0.018823989 25:0.07507775 26:0.054277837 27:0.091741681 28:0.14179973 29:0.11828435 30:0.036231689 31:0 32:0.00047768277 33:0.0023313235 34:0.00477674 35:0.0090860929 36:0.082212679 37:0.39256245 38:0.39256245 39:0.21697454 40:0 41:0.0012699068 42:0 43:0 44:0 45:0.39256245 46:0.39256245 47:0.39256245 48:0.087150894 49:0 50:0.011641118 51:0 52:0 53:0 54:0.39256245 55:0.086653441 56:0.062573083 57:0.025778551 58:0 59:0 60:0 61:0 62:0 63:0.05712701 64:0.030267064 65:0.0079626655 66:0.00016758396 67:0 68:0 69:0 70:0 71:0 72:0.017449817 73:0.30175731 74:0.30175731 75:0.19809562 76:0 77:0.041647784 78:0 79:0 80:0 81:0.30175731 82:0.30175731 83:0.18269913 84:0.22469005 85:0.050694063 86:0.30175731 87:0.23576678 88:0.26727086 89:0.10366332 90:0.30175731 91:0.0061995364 92:0.00087924959 93:0 94:0 95:0 96:0 97:0 98:0 99:0.0045016576 100:0.049489211 101:0.029473558 102:0.1993999 103:0.094768442 104:0.30175731 105:0.043463796 106:0.19371364 107:0.020588497 108:0.049489211 109:0.0046579065 110:0 111:0 112:0.0026756513 113:0.35295603 114:0 115:0.0047439388 116:0.0049609574 117:0.0046579065 118:0.006712629 119:0.0013796703 120:0 121:0 122:0 123:0 124:0 125:0 126:0.004162095 127:0.35295603 128:0.20117283 129:0.15808122 130:0 131:0.35295603 132:0.017676366 133:0.045339257 134:0.057261299 135:0.35295603 136:0.35295603 137:0.35295603 138:0.22382562 139:0 140:0.055324901 141:0 142:0 143:0 144:0.35295603 145:0.025382495 146:0.007614525 147:0.00076768768 148:0 149:0 150:0 151:0 152:0 153:0.013654411 154:0.10336045 155:0.059712455 156:0.038105838 157:0 158:0 159:0 160:0 161:0 162:0.061786298 163:0.37181523 164:0.37181523 165:0.089752749 166:0 167:0.0097207986 168:0 169:0 170:0 171:0.37181523 172:0.37181523 173:0.37181523 174:0.37181523 175:0 176:0.0011549984 177:0 178:0 179:0 180:0.37181523 181:0.12612656 182:0.11682427 183:0.030381532 184:0 185:0 186:0 187:0 188:0 189:0.07156194 190:0.25830683 191:0.26410618 192:0.1693736 193:0.011941683 194:0.081826761 195:0.01127022 196:0.035920799 197:0.0019130354 198:0.1443622 199:0.32668191 200:0.32668191 201:0.20445789 202:0 203:0 204:0 205:0 206:0 207:0.32668191 208:0.32668191 209:0.32668191 210:0.29095769 211:0.0028213542 212:0.0088947639 213:0.00075134804 214:0.0010066942 215:0 216:0.32668191 
0.1660551920436646 0.2816891910361418 1:0.15936315 2:0.15532091 3:0.19521244 4:0.064608194 5:0.32141623 6:0 7:0 8:0.025268598 9:0.12451063 10:0.11686311 11:0.091163978 12:0.14155284 13:0.030403366 14:0.32141623 15:0 16:0 17:0.032488193 18:0.11082026 19:0.23568262 20:0.18276247 21:0.11791624 22:0.13868417 23:0.32141623 24:0.055410173 25:0.042475373 26:0.091298111 27:0.19323446 28:0.32141623 29:0.10901297 30:0.072287276 31:0.079089612 32:0.32141623 33:0.043096803 34:0.033036403 35:0.11738328 36:0.32141623 37:0.056536913 38:0.017788664 39:0.035954352 40:0.0026484083 41:0.18697421 42:0 43:0 44:0.0064406986 45:0.056992561 46:0.087092914 47:0.0048624282 48:0.014550238 49:0 50:0.013547515 51:0 52:0 53:0 54:0.087092914 55:0.39083996 56:0.037744574 57:0.075744823 58:0.011476438 59:0.11321252 60:0 61:0 62:0.023270926 63:0.39083996 64:0.39083996 65:0.13077708 66:0.39083996 67:0 68:0.36866003 69:0 70:0 71:0 72:0.39083996 73:0.1303243 74:0.0040095993 75:0.0055083386 76:0 77:0.0088808453 78:0 79:0 80:0 81:0.12896964 82:0.14508486 83:0.05045636 84:0.015688501 85:0 86:0.0065627997 87:0 88:0.010263321 89:0.021986637 90:0.1311738 91:0.42454028 92:0.073111974 93:0.19065553 94:0 95:0.19584668 96:0 97:0 98:0 99:0.42454028 100:0.42454028 101:0.22564179 102:0.13439222 103:0 104:0.13498887 105:0 106:0.087918602 107:0.15627079 108:0.42454028 109:0.30701235 110:0.097258516 111:0.084434226 112:0.081709683 113:0.32922646 114:0.090720318 115:0.06954281 116:0.090662897 117:0.28296754 118:0.32922646 119:0.034507915 120:0.0096508898 121:0.039478414 122:0.18544617 123:0.070560247 124:0.054088853 125:0.11656659 126:0.32922646 127:0.2501722 128:0.031656835 129:0.025173243 130:0.020883525 131:0.17488746 132:0.0060480209 133:0.0046361871 134:0.015832055 135:0.25024229 136:0.32922646 137:0.050491665 138:0.043203101 139:0.018452033 140:0.11912946 141:0.0047040163 142:0.0036059234 143:0 144:0.32922646 145:0.32571343 146:0.01464923 147:0.036871962 148:0.0036461987 149:0.051579408 150:0 151:0 152:0.012189732 153:0.32571343 154:0.32571343 155:0.088158354 156:0.26380283 157:0 158:0.24933176 159:0 160:0 161:0 162:0.32571343 163:0.32084408 164:0.017584885 165:0.012945224 166:0.0086478088 167:0.048700988 168:0.0009650187 169:0 170:0 171:0.3184706 172:0.32571343 173:0.063354366 174:0.09914992 175:0.018341763 176:0.015194247 177:0.014475279 178:0 179:0 180:0.31695852 181:0.32708749 182:0.05250049 183:0.14745462 184:0 185:0.13373572 186:0 187:0 188:0 189:0.32708749 190:0.32708749 191:0.079587296 192:0.067181483 193:0.0021242755 194:0.18264668 195:0 196:0.043751482 197:0.088287026 198:0.32708749 199:0.32708749 200:0.058914874 201:0.12017475 202:0.020377971 203:0.0095274057 204:0.0097543774 205:0 206:0 207:0.32708749 208:0.32708749 209:0.054083373 210:0.046532866 211:0.041598942 212:0.13817267 213:0 214:0 215:0.010498862 216:0.32708749 
0.007768798445069456 0.6623150981063806 1:0.31016409 2:0.050521035 3:0.11820982 4:0.10754924 5:0.31016409 6:0 7:0.0057239654 8:0.020126833 9:0.13911663 10:0.17484306 11:0.06099271 12:0.13350858 13:0.047199763 14:0.31016409 15:0 16:0.0073593836 17:0.025877355 18:0.08370205 19:0.31016409 20:0.084132522 21:0.10114073 22:0.077144191 23:0.31016409 24:0.043015826 25:0.047975235 26:0.10022026 27:0.21682173 28:0.31016409 29:0.069708206 30:0.08531893 31:0.039324492 32:0.31016409 33:0.03345675 34:0.038152963 35:0.12885462 36:0.31016409 37:0.090354308 38:0.020431459 39:0.035874702 40:0.01017745 41:0.20055066 42:0 43:0.0019664322 44:0.0069144457 45:0.065095916 46:0.055792451 47:0 48:0 49:0 50:0 51:0 52:0 53:0 54:0.055792451 55:0.48054248 56:0.027832074 57:0.013803702 58:0.0095058819 59:0.092561483 60:0 61:0.00056738808 62:0.034430034 63:0.48054248 64:0.48054248 65:0 66:0 67:0 68:0 69:0 70:0 71:0 72:0.48054248 73:0.041979756 74:0.0011836819 75:0.0035420277 76:0 77:0.00095273543 78:0 79:0 80:0 81:0.041979756 82:0.082147203 83:0.0051292884 84:0.015348787 85:0 86:0.019463379 87:0.001493715 88:0.0039788056 89:0 90:0.082147203 91:0.39394048 92:0.021822901 93:0.065302394 94:0 95:0.054566573 96:0 97:0 98:0 99:0.39394048 100:0.39394048 101:0.1379544 102:0.39394048 103:0 104:0.39394048 105:0.022405725 106:0.090058118 107:0.10896394 108:0.39394048 109:0.31588367 110:0.089260049 111:0.040310554 112:0.045109697 113:0.32091787 114:0.078141227 115:0.085969843 116:0.13437174 117:0.29929757 118:0.32091787 119:0.079863705 120:0.022256827 121:0.02456169 122:0.20988941 123:0.060776506 124:0.067789733 125:0.17276368 126:0.32091787 127:0.2496417 128:0.018689668 129:0.0092272712 130:0 131:0.17547078 132:0.0052094148 133:0.0059315949 134:0.02579421 135:0.2548424 136:0.32091787 137:0.014329004 138:0 139:0 140:0.0076660295 141:0.0040517668 142:0.0043633403 143:0.011240923 144:0.32091787 145:0.37466532 146:0.020683607 147:0.0013548069 148:0.002658366 149:0.024314685 150:0 151:0.00026160726 152:0.019317672 153:0.37466532 154:0.37466532 155:0 156:0 157:0 158:0 159:0 160:0 161:0 162:0.37466532 163:0.2950491 164:0.01574683 165:0.02538811 166:0.0052850102 167:0.032391734 168:0 169:0 170:0.0012569106 171:0.26131946 172:0.37466532 173:0.01464632 174:0.055853847 175:0.015080799 176:0.088729903 177:0 178:0 179:0 180:0.35247359 181:0.31223425 182:0.011570424 183:0.034623083 184:0 185:0.038168497 186:0 187:0 188:0 189:0.31223425 190:0.31223425 191:0.083974935 192:0.25128451 193:0 194:0.31223425 195:0.010597951 196:0.054658491 197:0.09711393 198:0.31223425 199:0.31223425 200:0.0019846673 201:0.01178159 202:0.0039186454 203:0.026211843 204:0 205:0 206:0 207:0.31223425 208:0.31223425 209:0.026798289 210:0.0094922958 211:0 212:0.17931023 213:0.0021483579 214:0.0029046959 215:0.011536854 216:0.31223425 
0 0.5151683867806149 1:0.17486978 2:0.23011577 3:0.2595228 4:0.024499921 5:0.2595228 6:0.0076763113 7:0.0034063049 8:0.011281218 9:0.12352081 10:0.22515777 11:0.2204814 12:0.2595228 13:0.0036729807 14:0.2595228 15:0.011748061 16:0.0043795346 17:0.011094044 18:0.16304348 19:0.17881753 20:0.10912436 21:0.24387562 22:0.017603466 23:0.2595228 24:0.0015980449 25:0.041363921 26:0.016489012 27:0.11311708 28:0.2595228 29:0.2595228 30:0.2595228 31:0.002442908 32:0.25207159 33:0.0035156994 34:0.032171935 35:0.01580734 36:0.22253841 37:0.27743191 38:0.2151268 39:0.27743191 40:0.00015833003 41:0.039823987 42:0.0020410202 43:0.00060888793 44:0.00082253705 45:0.11436153 46:0.27743191 47:0.27743191 48:0.27743191 49:3.6537695e-05 50:0 51:0 52:0 53:0 54:0.13262653 55:0.27743191 56:0.27743191 57:0.27743191 58:0.00034832602 59:0.011899219 60:0.00080587616 61:0 62:0.0010575476 63:0.18600112 64:0.27743191 65:0.27743191 66:0.27743191 67:8.0382932e-05 68:0 69:0 70:0 71:0 72:0.19312085 73:0.27446386 74:0.27446386 75:0.27446386 76:0.00038019216 77:0.0039957399 78:0 79:0 80:0 81:0.10669742 82:0.27446386 83:0.27446386 84:0.27446386 85:0.0033469414 86:0.046609942 87:0.0098586725 88:0.0028331834 89:0 90:0.11809385 91:0.27446386 92:0.27446386 93:0.27446386 94:0.00060955604 95:1.8383018e-05 96:0 97:0 98:0 99:0.15240505 100:0.27446386 101:0.27446386 102:0.27446386 103:0.0046314443 104:0.0052055297 105:0 106:0 107:0 108:0.20586546 109:0.17130268 110:0.10861454 111:0.16046216 112:0.010699521 113:0.28109547 114:0 115:0.049905136 116:0.015019302 117:0.099160418 118:0.28109547 119:0.28109547 120:0.28109547 121:5.5363333e-05 122:0.10214952 123:0 124:0.038815107 125:0.012168673 126:0.19882965 127:0.28109547 128:0.28109547 129:0.28109547 130:0.0064533013 131:0.089666039 132:0 133:0.003327009 134:0.00097845914 135:0.16316557 136:0.28109547 137:0.28109547 138:0.28109547 139:0 140:0.0069392743 141:0 142:0.0025876737 143:0.00076102372 144:0.20272326 145:0.27382699 146:0.27382699 147:0.27382699 148:8.0111342e-05 149:0 150:0 151:0 152:0.00014752337 153:0.16391934 154:0.27382699 155:0.27382699 156:0.27382699 157:1.8487233e-05 158:0 159:0 160:0 161:0 162:0.19821674 163:0.27382699 164:0.27382699 165:0.27382699 166:0 167:0 168:0 169:0 170:0 171:0.14123324 172:0.27382699 173:0.27254462 174:0.27382699 175:0 176:0 177:0 178:0 179:0 180:0.10992418 181:0.31792372 182:0.31792372 183:0.31792372 184:0.00049669173 185:5.6760946e-05 186:0 187:0 188:0 189:0.25960883 190:0.31792372 191:0.31792372 192:0.31792372 193:0.0061288574 194:0.0010387467 195:0 196:0 197:0 198:0.26248258 199:0.29431885 200:0.19202682 201:0.31330678 202:8.6030632e-05 203:1.309868e-05 204:0 205:0 206:0 207:0.087329842 208:0.096983835 209:0.052901179 210:0.10637596 211:0.0012904594 212:0.00020896902 213:0 214:0 215:0 216:0.035073761 
0 0.05131142623529954 1:0.075687245 2:0.15783948 3:0.28515443 4:0.079953566 5:0.28515443 6:0.014787831 7:0.011534814 8:0.00018793061 9:0.045018286 10:0.10971615 11:0.14953688 12:0.28515443 13:0.14529665 14:0.28515443 15:0.047551684 16:0.027163301 17:0.00081436592 18:0.1048605 19:0.058919523 20:0.1618849 21:0.28515443 22:0.10301488 23:0.28515443 24:0.060356572 25:0.046620544 26:0.04038867 27:0.077818453 28:0.28515443 29:0.076609515 30:0.2330147 31:0.12727048 32:0.28515443 33:0.135776 34:0.059940696 35:0.065040827 36:0.28515443 37:0.13192794 38:0.084468417 39:0.13855807 40:0.068076625 41:0.30582997 42:0.022372236 43:0.010427097 44:0.027825924 45:0.14044704 46:0.100911 47:0 48:0 49:0 50:0.0048537212 51:0 52:0.0011274605 53:0.044929367 54:0.11234893 55:0.39546472 56:0.026117975 57:0.071639501 58:0.045468271 59:0.085531995 60:0.052948091 61:0.015690319 62:0.22212338 63:0.39546472 64:0.39546472 65:0 66:0 67:0 68:3.5147244e-05 69:0 70:0.0070253839 71:0.33909068 72:0.39546472 73:0.1048652 74:0 75:0 76:0 77:0 78:0 79:0.00030815613 80:0.0099618835 81:0.10781216 82:0.10303506 83:0 84:0 85:0 86:0 87:0 88:0.0073361853 89:0.0087333694 90:0.10561464 91:0.4680818 92:0 93:0 94:0 95:0 96:0 97:0.001690058 98:0.075669304 99:0.4680818 100:0.4680818 101:0 102:0 103:0 104:0 105:0.0034769964 106:0.11014302 107:0.23754957 108:0.4680818 109:0.1043564 110:0.093368009 111:0.164257 112:0.10739566 113:0.33649087 114:0.05207229 115:0.071006708 116:0.075300872 117:0.13744031 118:0.33649087 119:0.015251098 120:0.051468994 121:0.046435885 122:0.15309915 123:0.093953855 124:0.091294341 125:0.1210421 126:0.33649087 127:0.33649087 128:0.0040975222 129:0.010193524 130:0.052429583 131:0.13807659 132:0 133:0.081538402 134:0.075426273 135:0.33649087 136:0.33649087 137:0 138:0 139:0 140:0.038943771 141:0 142:0.09043809 143:0.09675239 144:0.33649087 145:0.33311671 146:0.0016309847 147:0.0057014511 148:0.0072159357 149:0.005119361 150:0.015527143 151:0.012631442 152:0.17240979 153:0.33311671 154:0.33311671 155:0 156:0 157:0 158:0 159:0 160:0.0050978875 161:0.26104242 162:0.33311671 163:0.33311671 164:0 165:0 166:0 167:0.0050142552 168:0 169:0.012901583 170:0.037380844 171:0.33311671 172:0.33311671 173:0.0098064039 174:0 175:0 176:0 177:0 178:0.002078898 179:0.094020627 180:0.33311671 181:0.35493746 182:0 183:0 184:0 185:0 186:0 187:0.00083266938 188:0.047530111 189:0.35493746 190:0.35493746 191:0 192:0 193:0 194:0.020305095 195:0.012058061 196:0.051994707 197:0.20956396 198:0.35493746 199:0.2795397 200:0.01600812 201:0 202:0 203:0 204:0 205:0.000884843 206:0.062847294 207:0.35493746 208:0.31753588 209:0.010160111 210:0.0068394165 211:0 212:0.068650752 213:0.009378491 214:0.0002703646 215:0.054798275 216:0.35493746 
0.1549688876890382 0 1:0.24222131 2:0.02289715 3:0.047753509 4:0.021251727 5:0.30689684 6:0.0061799116 7:0.011401673 8:0.0038102486 9:0.23291726 10:0.22244726 11:0.022178801 12:0.056466356 13:0.016529122 14:0.30689684 15:0.0079456 16:0.014659293 17:0.0048988913 18:0.19944678 19:0.30689684 20:0.020563386 21:0.062175717 22:0.027323652 23:0.30689684 24:0 25:0.15689354 26:0.044956908 27:0.27136907 28:0.30689684 29:0.011314445 30:0.019032717 31:0.021251727 32:0.29785785 33:0 34:0.15624212 35:0.050551921 36:0.30689684 37:0.15317309 38:0.006157394 39:0.016870098 40:0 41:0.17260149 42:0.0018337512 43:0.0033831932 44:0.0011306066 45:0.14772551 46:0.12980634 47:0 48:0 49:0 50:0 51:0 52:0 53:0 54:0.12980634 55:0.4700141 56:0.0032756603 57:0.0063807168 58:0 59:0.044771865 60:0 61:0.019987129 62:0.0091047445 63:0.4700141 64:0.4700141 65:0 66:0 67:0 68:0 69:0 70:0 71:0 72:0.4700141 73:0.11839991 74:0 75:0 76:0 77:0 78:0 79:0 80:0 81:0.11839991 82:0.13173279 83:0 84:0 85:0 86:0 87:0 88:0.0026523247 89:0.0012075135 90:0.13173279 91:0.48231706 92:0 93:0 94:0 95:0 96:0 97:0 98:0 99:0.48231706 100:0.48231706 101:0 102:0 103:0 104:0 105:0 106:0.039784867 107:0.0181127 108:0.48231706 109:0.25481716 110:0.015822601 111:0.060562365 112:0.0056599765 113:0.32137635 114:0 115:0.2418806 116:0.077508248 117:0.24102317 118:0.32137635 119:0.0016919298 120:0 121:0.004402204 122:0.14191966 123:0 124:0.2252702 125:0.0831732 126:0.32137635 127:0.32137635 128:0.0033033011 129:0.0098846992 130:0 131:0.039945468 132:0 133:0.034932408 134:0.015956024 135:0.32137635 136:0.32137635 137:0 138:0 139:0 140:0.0034915551 141:0 142:0.032479633 143:0.015732298 144:0.32137635 145:0.35290328 146:0.00018167551 147:0 148:0 149:0.0020423834 150:0 151:0.010094877 152:0.0062212264 153:0.35290328 154:0.35290328 155:0 156:0 157:0 158:0 159:0 160:0 161:0 162:0.35290328 163:0.35290328 164:0 165:0 166:0 167:0 168:0 169:0.0014432528 170:0.0011394694 171:0.35290328 172:0.35290328 173:0 174:0 175:0 176:0 177:0 178:0 179:0 180:0.35290328 181:0.35283551 182:0 183:0 184:0 185:0 186:0 187:0 188:0 189:0.35283551 190:0.35283551 191:0 192:0 193:0 194:0 195:0 196:0.016508579 197:0.0075157969 198:0.35283551 199:0.35283551 200:0 201:0 202:0 203:0 204:0 205:0 206:0 207:0.35283551 208:0.35283551 209:0 210:0 211:0 212:0 213:0 214:0.01116766 215:0.0088170152 216:0.35283551 
0 0.4864920507656713 1:0.18442492 2:0.061918449 3:0.10043755 4:0.065715395 5:0.25382286 6:0.039945651 7:0.056133356 8:0.079120316 9:0.13939209 10:0.23668432 11:0.003192107 12:0.093871877 13:0.083333805 14:0.25382286 15:0.052282918 16:0.14162509 17:0.125211 18:0.19166465 19:0.1711743 20:0.02206422 21:0.029072342 22:0.0070762909 23:0.25382286 24:0.1422905 25:0.23046038 26:0.25382286 27:0.2431179 28:0.25382286 29:0.0014045781 30:0.013767461 31:0.0099168215 32:0.25382286 33:0.15656184 34:0.25382286 35:0.25382286 36:0.25382286 37:0.14122762 38:0.0014320727 39:0.057379454 40:0.042605508 41:0.21507458 42:0.023643069 43:0.13647872 44:0.093482979 45:0.14706029 46:0.014277515 47:0.00016186511 48:0.0013268584 49:0 50:0.0018273585 51:0.0014921488 52:0.012897625 53:0.028685691 54:0.025044093 55:0.30210546 56:0.0054703089 57:0.04687918 58:0.0055199862 59:0.30210546 60:0.16751489 61:0.30210546 62:0.30210546 63:0.30210546 64:0.25478283 65:0.0024279766 66:0.019902878 67:0 68:0.17832182 69:0.12928431 70:0.30210546 71:0.30210546 72:0.30210546 73:0.0039810971 74:0 75:0 76:0 77:0 78:0 79:0.0037209522 80:0.0075742532 81:0.0039810971 82:0 83:0 84:0 85:0 86:0 87:0 88:0 89:0 90:0 91:0.36804244 92:0 93:0 94:0 95:0.36804244 96:0.23808651 97:0.36804244 98:0.36804244 99:0.36804244 100:0.15961957 101:0 102:0 103:0 104:0.14971779 105:0.029109411 106:0.34474707 107:0.17960224 108:0.24981992 109:0.19094014 110:0.0028097429 111:0.023032162 112:0.00041181035 113:0.18688399 114:0.18510754 115:0.26906383 116:0.26906383 117:0.26906383 118:0.26906383 119:0.0010198192 120:0.0083597619 121:0.0061771548 122:0.26906383 123:0.23921274 124:0.26906383 125:0.26906383 126:0.26906383 127:0.056951143 128:0.0001873162 129:0.0015354773 130:0.00032029694 131:0.052377634 132:0.044370923 133:0.07238204 134:0.10287392 135:0.073013358 136:0.12920129 137:1.2487745e-05 138:0.00010236517 139:0.0048044543 140:0.14121687 141:0.10021915 142:0.26159912 143:0.26906383 144:0.19490129 145:0.16229029 146:0.0015739426 147:0.015599092 148:0.0085240742 149:0.1217246 150:0.098582692 151:0.25422749 152:0.25422749 153:0.25422749 154:0.20847358 155:0.0007154285 156:0.0093321577 157:0.0076091415 158:0.1786557 159:0.11526321 160:0.25422749 161:0.25422749 162:0.25422749 163:0.10929858 164:0 165:0.0059333974 166:0.015046862 167:0.054281287 168:0.063085705 169:0.21867552 170:0.25422749 171:0.22868212 172:0.17169119 173:0 174:0.0076286541 175:0.021314785 176:0.1661046 177:0.18523294 178:0.25422749 179:0.25422749 180:0.25422749 181:0.15830339 182:0 183:0.00049774151 184:0.0010922303 185:0.21186267 186:0.091857307 187:0.26730502 188:0.24534407 189:0.25936183 190:0.07227654 191:0.0059136199 192:0 193:0 194:0.059122026 195:0.053597994 196:0.23642792 197:0.2348845 198:0.17272231 199:0.15566562 200:0 201:0.0010950312 202:0.016781786 203:0.19136789 204:0.16679201 205:0.26730502 206:0.26730502 207:0.26730502 208:0.14747946 209:0.022351686 210:0.0018688814 211:0.016988494 212:0.10943257 213:0.12375624 214:0.26730502 215:0.26730502 216:0.26730502 
0.3604410081218155 0.5248386961554468 1:0.019614207 2:0.12958595 3:0.27665669 4:0.12304562 5:0.27665669 6:0.14288199 7:0.19333491 8:0.079910196 9:0.019273149 10:0.074984878 11:0.0041342271 12:0.037849143 13:0.023821276 14:0.27665669 15:0.27665669 16:0.27665669 17:0.19718818 18:0.071044646 19:0.053006746 20:0.060926929 21:0.14928411 22:0.08373253 23:0.14591552 24:0.074478477 25:0.15728691 26:0.082567222 27:0.083811238 28:0.19615681 29:0.00098954071 30:0.016851854 31:0.010150023 32:0.25112253 33:0.18253623 34:0.27665669 35:0.27665669 36:0.27665669 37:0.12139624 38:0.0053683026 39:0.0034874659 40:0.0076013473 41:0.25217575 42:0.083381563 43:0.23925641 44:0.12106074 45:0.11831394 46:0.12197133 47:0.022557581 48:0.0012564061 49:0 50:0.0060214377 51:0.0010208334 52:0.041263919 53:0.042072318 54:0.1175558 55:0.32167789 56:0.026483592 57:0.055284247 58:0.0040881261 59:0.12666658 60:0.078490138 61:0.32167789 62:0.32167789 63:0.32167789 64:0.32167789 65:0.1041863 66:0.074714884 67:0 68:0.016426144 69:0.061437458 70:0.21129969 71:0.28429192 72:0.32167789 73:0.089709669 74:0.012217836 75:0 76:0 77:0.0067019369 78:0 79:0.037461698 80:0.033601973 81:0.099387951 82:0.036018979 83:0 84:0 85:0 86:0.00044679578 87:0 88:0.010772515 89:0.0097139552 90:0.036540959 91:0.34230885 92:0.078191645 93:0.043827377 94:0 95:0.041654676 96:0.10156916 97:0.34230885 98:0.34230885 99:0.34230885 100:0.34230885 101:0.10104086 102:0.058309276 103:0 104:0.03588688 105:0.026425403 106:0.34230885 107:0.34230885 108:0.34230885 109:0.17604032 110:0.038701203 111:0.040628366 112:0.028722735 113:0.063252136 114:0.013763019 115:0.22676732 116:0.25415543 117:0.25932938 118:0.21944803 119:0.0031575493 120:0.0073937532 121:0.00024001031 122:0.015702926 123:0.059195306 124:0.2412409 125:0.25105673 126:0.25932938 127:0.25932938 128:0.039794501 129:0.048056822 130:0.0078321751 131:0.056602877 132:0.0064600911 133:0.22614837 134:0.25932938 135:0.25932938 136:0.25932938 137:0.012337815 138:0.0022030654 139:0 140:0.0089862924 141:0.07204327 142:0.25932938 143:0.25932938 144:0.25932938 145:0.27442998 146:0.015335159 147:0.027978398 148:8.6645916e-05 149:0.00886105 150:0.047057711 151:0.20515689 152:0.1790175 153:0.2768037 154:0.2768037 155:0.041841932 156:0.057101905 157:0 158:0.0039506285 159:0.047802914 160:0.11218867 161:0.1665346 162:0.2768037 163:0.2768037 164:0.072545387 165:0.016187068 166:0.0075164787 167:0.020219587 168:0.075976424 169:0.27558494 170:0.15832318 171:0.2768037 172:0.2768037 173:0.13752784 174:0.083459273 175:0.033717435 176:0.033763051 177:0.051113158 178:0.20083705 179:0.2768037 180:0.2768037 181:0.25925931 182:0.022440175 183:0.022994302 184:0 185:0.022821754 186:0.063422136 187:0.17790212 188:0.2459864 189:0.25925931 190:0.25925931 191:0.097318985 192:0.025422039 193:0 194:0.03528763 195:0.026628606 196:0.24418591 197:0.25925931 198:0.25925931 199:0.25925931 200:0.037383325 201:0.03378085 202:0.01225102 203:0.022366943 204:0.02621183 205:0.19312994 206:0.25925931 207:0.25925931 208:0.23538917 209:0.081904754 210:0.0066472199 211:0.0086859278 212:0.068738885 213:0.018123135 214:0.21761908 215:0.25925931 216:0.25925931 
1.638291858153937 2.580242936599139 1:0.057815701 2:0.035882883 3:0.042869903 4:0.008065084 5:0.062023912 6:0 7:0.030805428 8:0.01029465 9:0.046710338 10:0.068731703 11:0.090108044 12:0.062564209 13:0.019023906 14:0.08146327 15:0 16:0.033269245 17:0.011118018 18:0.058615003 19:0.2987816 20:0.26715475 21:0.2987816 22:0.14993982 23:0.2987816 24:0.014132223 25:0.094390422 26:0.032974333 27:0.24613285 28:0.2987816 29:0.2987816 30:0.2987816 31:0.25492185 32:0.2987816 33:0.031090891 34:0.093895607 35:0.03757789 36:0.2987816 37:0.040863726 38:0.15054192 39:0.15068538 40:0.034869134 41:0.025744738 42:0 43:0.0020806764 44:0.0006953273 45:0.027005827 46:0.17433774 47:0.31243667 48:0.31243667 49:0.1249543 50:0.06522125 51:0.023763331 52:0.012598058 53:0.00068622851 54:0.078213565 55:0.25551695 56:0.31243667 57:0.31243667 58:0.16046961 59:0.25564489 60:0.0045261094 61:0.0045774877 62:0.0030177161 63:0.16994119 64:0.24460082 65:0.31243667 66:0.31243667 67:0.19689827 68:0.09736339 69:0.02195788 70:0.011640903 71:4.5748566e-05 72:0.10200034 73:0.24011517 74:0.24011517 75:0.22048554 76:0.16662414 77:0.22997521 78:0.03408432 79:0.018069698 80:0.0042087324 81:0.17213359 82:0.24011517 83:0.24011517 84:0.24011517 85:0.17361069 86:0.24011517 87:0.011918888 88:0.014642839 89:0.011196997 90:0.24011517 91:0.24011517 92:0.24011517 93:0.24011517 94:0.15892412 95:0.14479142 96:0.036233306 97:0.019208975 98:0.002239112 99:0.12272254 100:0.2321088 101:0.15821989 102:0.12122127 103:0.10596661 104:0.20275368 105:0.015021156 106:0.0079634199 107:0.0027907437 108:0.14427865 109:0.19639492 110:0.16730514 111:0.22877893 112:0.083297446 113:0.24831156 114:0.018322298 115:0.019489784 116:0.0067391018 117:0.1567948 118:0.24831156 119:0.19950432 120:0.1651165 121:0.18686372 122:0.24831156 123:0.041820597 124:0.022089891 125:0.011791002 126:0.24831156 127:0.18495336 128:0.24831156 129:0.24831156 130:0.11305678 131:0.13907686 132:0.020143956 133:0.0089938939 134:0.00029496377 135:0.10885527 136:0.24831156 137:0.24611497 138:0.23666778 139:0.16043952 140:0.23367731 141:0.039692726 142:0.01733518 143:0.0038229513 144:0.1813111 145:0.2931025 146:0.2931025 147:0.2931025 148:0.22099049 149:0.2931025 150:0.014999187 151:0.0040389895 152:0.0049227304 153:0.2931025 154:0.1762652 155:0.2931025 156:0.2931025 157:0.1493123 158:0.076451235 159:0.0063450029 160:0.0033637839 161:0 162:0.086168602 163:0.27877447 164:0.18713094 165:0.14360175 166:0.11797445 167:0.26643851 168:0.014873114 169:0.0066677313 170:0.0033256614 171:0.1832477 172:0.049291708 173:0.12285222 174:0.088594072 175:0.02919451 176:0.025159441 177:0 178:0 179:0 180:0.030743279 181:0.41276962 182:0.41276962 183:0.41276962 184:0.35650161 185:0.21562788 186:0.070994392 187:0.037637454 188:0.0023587584 189:0.23959014 190:0.33838215 191:0.19178492 192:0.1084099 193:0.11438175 194:0.14116654 195:0.029346455 196:0.015557934 197:0.0030326892 198:0.17970023 199:0.015416417 200:0.11249583 201:0.067156449 202:0.014636386 203:0.0030781582 204:0 205:0 206:0 207:0.014347725 208:0.00068901957 209:0 210:0 211:0 212:0 213:0 214:0 215:0 216:0.00068901957 
0.5487571885640329 0.8137608294702005 1:0.094669394 2:0.087349869 3:0.18223898 4:0.039425388 5:0.14197336 6:0.021858936 7:0.026444193 8:0.031578068 9:0.090280883 10:0.073184438 11:0.15380315 12:0.13581379 13:0.022792395 14:0.21155469 15:0.029255245 16:0.035886221 17:0.040600371 18:0.069941111 19:0.24400173 20:0.27039599 21:0.29292211 22:0.19311371 23:0.29292211 24:0.048252244 25:0.11914779 26:0.02456072 27:0.20502855 28:0.29292211 29:0.29292211 30:0.29292211 31:0.15907127 32:0.29292211 33:0.078680672 34:0.13423638 35:0.031578068 36:0.13920926 37:0.066521794 38:0.25659394 39:0.20933005 40:0.00958867 41:0.045197502 42:0.0034921749 43:0.00436706 44:0.004566038 45:0.032844439 46:0.21761419 47:0.29968402 48:0.29968402 49:0.071765333 50:0.11648611 51:0 52:0 53:0 54:0.14161973 55:0.20479475 56:0.29968402 57:0.29968402 58:0.12138157 59:0.12410385 60:0.0118411 61:0.01715832 62:0.003551363 63:0.054717369 64:0.29968402 65:0.29968402 66:0.29968402 67:0.15152033 68:0.19972317 69:0 70:0 71:0 72:0.16274217 73:0.19281755 74:0.28890786 75:0.28890786 76:0.11111587 77:0.098180793 78:0 79:0 80:0 81:0.10487609 82:0.25739291 83:0.28890786 84:0.28890786 85:0.083979048 86:0.1924516 87:0 88:0 89:0 90:0.15075056 91:0.22190779 92:0.28890786 93:0.28890786 94:0.096132413 95:0.11261366 96:0 97:0 98:0 99:0.10999538 100:0.18172233 101:0.28890786 102:0.28890786 103:0.0682244 104:0.026020361 105:0 106:0 107:0 108:0.067233048 109:0.11880273 110:0.16733395 111:0.26048893 112:0.10823984 113:0.26048893 114:0.011120185 115:0.11127473 116:0 117:0.095212989 118:0.23914403 119:0.24808203 120:0.2473224 121:0.1217534 122:0.26048893 123:0.020302547 124:0.086158343 125:0 126:0.10358953 127:0.15643609 128:0.26048893 129:0.26048893 130:0.075430922 131:0.26048893 132:0.0011280255 133:0.066348821 134:0 135:0.070001662 136:0.22184171 137:0.26048893 138:0.26048893 139:0.077222884 140:0.23872483 141:0.0010029264 142:0.04507139 143:0 144:0.11045929 145:0.27467144 146:0.3012937 147:0.3012937 148:0.18996592 149:0.10809749 150:0.0062502339 151:0.0097485259 152:0 153:0.074656084 154:0.2341006 155:0.3012937 156:0.3012937 157:0.093816608 158:0.067587107 159:0 160:0 161:0 162:0.086269788 163:0.24911903 164:0.3012937 165:0.3012937 166:0.10342626 167:0.05274938 168:0.00023128353 169:0.00034694653 170:0 171:0.090778999 172:0.08432164 173:0.3012937 174:0.25587103 175:0.0099301618 176:0.0018305137 177:0 178:0 179:0 180:0.023278654 181:0.40592185 182:0.40592185 183:0.40592185 184:0.056434993 185:0.09309198 186:0 187:0 188:0 189:0.19393337 190:0.14888744 191:0.40592185 192:0.40592185 193:0.012303196 194:0.0025483365 195:0 196:0 197:0 198:0.052790847 199:0.066240057 200:0.27284834 201:0.13049902 202:0 203:0 204:0 205:0 206:0 207:0.034671929 208:0.0031807092 209:0.019174296 210:0.0077250744 211:0 212:0 213:0 214:0 215:0 216:0.0022995581 
0.1930978260911392 0.6534439498505703 1:0.26840651 2:0.011896914 3:0.038355932 4:0 5:0.28732911 6:0 7:0.02401196 8:0.0089574978 9:0.27315477 10:0.26930836 11:0.0054338938 12:0.0070273676 13:0 14:0.28732911 15:0 16:0.061170842 17:0.026833652 18:0.27192906 19:0.21216629 20:0.016899226 21:0.014440167 22:0.01536419 23:0.28732911 24:0 25:0.072037451 26:0.080984861 27:0.22656131 28:0.28732911 29:0.092173412 30:0 31:0 32:0.28732911 33:0 34:0.12331797 35:0.26328015 36:0.28732911 37:0.14503671 38:0.01357804 39:0 40:0 41:0.2018743 42:0 43:0.024532091 44:0.022902291 45:0.14525992 46:0.08119715 47:0.013139769 48:0 49:0 50:0 51:0 52:0.0024801923 53:0.01542833 54:0.081401289 55:0.33808705 56:0.32326907 57:0 58:0 59:0.089274511 60:0 61:0.035306185 62:0.33808705 63:0.33808705 64:0.33808705 65:0.31283468 66:0 67:0 68:0 69:0 70:0.037202884 71:0.33808705 72:0.33808705 73:0.079239815 74:0.0082411896 75:0 76:0 77:0 78:0 79:0.0088329073 80:0.0093441159 81:0.078312226 82:0.065996461 83:0.011077279 84:0 85:0 86:0 87:0 88:0.0040149577 89:0.012375973 90:0.065984249 91:0.44689965 92:0.15052824 93:0 94:0 95:0 96:0 97:0.1324936 98:0.25960702 99:0.44689965 100:0.44689965 101:0.16615918 102:0 103:0 104:0 105:0 106:0.060224365 107:0.19017734 108:0.44689965 109:0.16914597 110:0.025776561 111:0.043217912 112:0.028552108 113:0.30710188 114:0 115:0.094428793 116:0.17319787 117:0.21278661 118:0.30710188 119:0.16993861 120:0 121:0 122:0.2543889 123:0 124:0.14239542 125:0.30710188 126:0.30710188 127:0.30710188 128:0.0039369031 129:0.012934034 130:0.0019034739 131:0.0554788 132:0 133:0.016638229 134:0.038119745 135:0.30710188 136:0.30710188 137:0.024111314 138:0 139:0 140:0.0043569957 141:0 142:0.0061263684 143:0.082384296 144:0.30710188 145:0.29123089 146:0.26873371 147:0 148:0 149:0.010199792 150:0 151:0.01628349 152:0.29123089 153:0.29123089 154:0.29123089 155:0.2600596 156:0 157:0 158:0 159:0 160:0.018907301 161:0.29123089 162:0.29123089 163:0.29123089 164:0.038128611 165:0 166:0 167:0 168:0 169:0.0005695424 170:0.047237955 171:0.29123089 172:0.29123089 173:0.036897905 174:0 175:0 176:0 177:0 178:0 179:0.057559744 180:0.29123089 181:0.34434107 182:0.076421514 183:0 184:0 185:0 186:0 187:0.051458418 188:0.18053947 189:0.34434107 190:0.34434107 191:0.064533606 192:0 193:0 194:0 195:0 196:0.023390191 197:0.076890148 198:0.34434107 199:0.34434107 200:0.0065562231 201:0 202:0 203:0 204:0 205:0.017565634 206:0.03824399 207:0.34434107 208:0.33593139 209:0 210:0 211:0 212:0 213:0 214:0.051883645 215:0.028112208 216:0.33953243 
0 0.2026361114983083 1:0.20894574 2:0.14135186 3:0.070923932 4:0.13213737 5:0.29416242 6:0.01801013 7:0.017169833 8:0.033043414 9:0.14930066 10:0.23195995 11:0.23717596 12:0.056848738 13:0.059977416 14:0.29416242 15:0.014007878 16:0.013896422 17:0.031762142 18:0.16633299 19:0.24356508 20:0.16460256 21:0.0039289696 22:0.073029913 23:0.29416242 24:0.03329571 25:0.018958991 26:0.046566375 27:0.14405797 28:0.29416242 29:0.29416242 30:0.12823607 31:0.039045181 32:0.29416242 33:0.025896661 34:0.015938517 35:0.059871048 36:0.28836554 37:0.21844813 38:0.31704721 39:0.099136636 40:0.0079036411 41:0.053242046 42:0 43:0.00018817498 44:0.0037319544 45:0.14332604 46:0.31704721 47:0.31704721 48:0.051784024 49:0 50:0 51:0 52:0 53:0 54:0.20519796 55:0.31704721 56:0.31704721 57:0.19997978 58:0.0053329691 59:0.010954677 60:0 61:0.00041398499 62:0.0082102986 63:0.26156485 64:0.31704721 65:0.31704721 66:0.083142459 67:0 68:0 69:0 70:0 71:0 72:0.22775868 73:0.31293684 74:0.31293684 75:0.038839679 76:0 77:0 78:0 79:0 80:0 81:0.20614934 82:0.31293684 83:0.31293684 84:0.16317283 85:0 86:0.055042375 87:0.022445502 88:0 89:0.0080051487 90:0.28424883 91:0.28638685 92:0.31293684 93:0.016804362 94:0 95:0 96:0 97:0 98:0 99:0.16464414 100:0.31293684 101:0.31293684 102:0.069126733 103:0 104:0.063660912 105:0.0059752986 106:0 107:0 108:0.19510531 109:0.19191679 110:0.17635569 111:0.010249296 112:0.033140752 113:0.29815194 114:0.043253191 115:0.022259299 116:0.013497724 117:0.12717836 118:0.29815194 119:0.29815194 120:0.092495345 121:0.0027032692 122:0.15263997 123:0.033641368 124:0.017658483 125:0.017354216 126:0.23439008 127:0.29633796 128:0.29815194 129:0.071130723 130:0.011419209 131:0.11400414 132:0.0028835461 133:0.0065891766 134:0.0020448465 135:0.17486586 136:0.29815194 137:0.29815194 138:0.24739729 139:0 140:0.022478526 141:0.0022427579 142:0.0011188961 143:0 144:0.29815194 145:0.23487487 146:0.29482847 147:0.11159243 148:0.00027622332 149:0.00054721272 150:0 151:8.9413203e-05 152:0.0017732749 153:0.15634158 154:0.27052388 155:0.29482847 156:0.090553939 157:0 158:0 159:0 160:0 161:0 162:0.16973597 163:0.29482847 164:0.29482847 165:0.2308858 166:0 167:0.00065085472 168:0 169:0 170:0 171:0.29482847 172:0.29482847 173:0.29482847 174:0.21469963 175:0 176:0 177:0 178:0 179:0 180:0.29482847 181:0.29286647 182:0.32516673 183:0.035025559 184:0 185:0 186:0 187:0 188:0 189:0.17148852 190:0.32516673 191:0.32516673 192:0.060199376 193:0 194:0.010341233 195:0 196:0 197:0 198:0.23631331 199:0.32516673 200:0.32516673 201:0.063792259 202:0 203:0 204:0 205:0 206:0 207:0.21467888 208:0.32516673 209:0.32516673 210:0.035804715 211:0 212:0 213:0 214:0 215:0 216:0.17087422 
0 0.1109783136232598 1:0.078348555 2:0.23475163 3:0.26280677 4:0.21286941 5:0.26628089 6:0.017630266 7:0.018563328 8:0.010403682 9:0.035267718 10:0.074761249 11:0.11972572 12:0.22252101 13:0.066625342 14:0.26628089 15:0.025400475 16:0.029473299 17:0.013376162 18:0.060493484 19:0.11906371 20:0.21066128 21:0.25295565 22:0.20444342 23:0.26628089 24:0.074903093 25:0.10870793 26:0.008901624 27:0.039482579 28:0.26628089 29:0.22007038 30:0.2388266 31:0.093700193 32:0.26628089 33:0.077217259 34:0.10627486 35:0.011444945 36:0.26628089 37:0.096139215 38:0.059954606 39:0.049749382 40:0.017163284 41:0.2033321 42:0.0071218251 43:0.0091711888 44:0.0032093422 45:0.084459037 46:0.16004822 47:0.049511462 48:0.0010056047 49:0 50:0 51:0 52:0 53:0 54:0.13894379 55:0.40908375 56:0.28847229 57:0.068944946 58:0.025129763 59:0.071015701 60:0.01157388 61:0.01319363 62:0.0027459853 63:0.40908375 64:0.40908375 65:0.34771565 66:0.0068265027 67:0 68:0 69:0 70:0 71:0 72:0.40908375 73:0.19046666 74:0.036249038 75:0.00012348441 76:0 77:0 78:0 79:0 80:0 81:0.12059211 82:0.27560073 83:0.032772593 84:0 85:0 86:0 87:0 88:0 89:0.00093855738 90:0.20114864 91:0.42679712 92:0.23378599 93:0.00083826832 94:0 95:0 96:0 97:0 98:0 99:0.42679712 100:0.42679712 101:0.20623712 102:0 103:0 104:0.006369431 105:0 106:0 107:0.016031293 108:0.42679712 109:0.17545815 110:0.16702776 111:0.19474934 112:0.12223694 113:0.29264832 114:0.14347629 115:0.21812584 116:0.039455798 117:0.10398924 118:0.29264832 119:0.26335263 120:0.16533771 121:0.037674408 122:0.19167218 123:0.1252977 124:0.20592019 125:0.050728884 126:0.29264832 127:0.27941766 128:0.10081371 129:0.060986456 130:0.023858096 131:0.13706622 132:0.046447869 133:0.04792932 134:0.0248251 135:0.21301194 136:0.29264832 137:0.11604459 138:0.050485928 139:0 140:0.017481029 141:0.028885992 142:0.042458955 143:0.023058582 144:0.29264832 145:0.33335507 146:0.18604748 147:0.035581466 148:0.0045668958 149:0.010724433 150:0.0038692518 151:0.010195255 152:0.0056339037 153:0.33335507 154:0.33335507 155:0.21889275 156:0.0042822659 157:0 158:0 159:0 160:0 161:0 162:0.33335507 163:0.33335507 164:0.10745903 165:0.034249216 166:0 167:0.0012284011 168:0 169:0.0024312602 170:0.0025608651 171:0.33335507 172:0.33335507 173:0.10227507 174:0.019261502 175:0 176:0 177:0 178:0 179:0 180:0.33335507 181:0.33021834 182:0.15930507 183:0.00059525308 184:0 185:0 186:0 187:0 188:0 189:0.33021834 190:0.33021834 191:0.14624119 192:0.002214015 193:0 194:0.029862221 195:0 196:0 197:0.018131884 198:0.33021834 199:0.33021834 200:0.09247537 201:0.038223643 202:0 203:0.013471127 204:0 205:0 206:0 207:0.33021834 208:0.33021834 209:0.23501101 210:0.087893046 211:0 212:0.056500461 213:0 214:0 215:0.0038892785 216:0.33021834 
0.2447928450050292 0 1:0.12850016 2:0.22055678 3:0.1773748 4:0.18085273 5:0.28678876 6:0.0099036247 7:0.019170234 8:0.012782242 9:0.078839883 10:0.13749728 11:0.12833422 12:0.17083187 13:0.083187982 14:0.28678876 15:0.011865639 16:0.020848796 17:0.016438829 18:0.10859293 19:0.19854861 20:0.097130321 21:0.13707484 22:0.098912448 23:0.28678876 24:0.032805916 25:0.12821935 26:0.079000734 27:0.11397024 28:0.28678876 29:0.2343346 30:0.28678876 31:0.08825323 32:0.28678876 33:0.034673911 34:0.13822065 35:0.11336313 36:0.27078217 37:0.21556744 38:0.087656878 39:0.16456157 40:0.05447194 41:0.099288285 42:0.026930034 43:0.010922281 44:0.0041035153 45:0.14670622 46:0.26304668 47:0.19324367 48:0.26304668 49:0.087013535 50:0.14723632 51:0.085614711 52:0.017045889 53:0 54:0.22027233 55:0.26304668 56:0.26304668 57:0.26304668 58:0.10773435 59:0.10263522 60:0.050331257 61:0.031918246 62:0.023859393 63:0.26304668 64:0.26304668 65:0.2503098 66:0.26304668 67:0.10645833 68:0.15829489 69:0.098640896 70:0.020375611 71:0 72:0.26304668 73:0.25324896 74:0.23759182 75:0.25324896 76:0.12496547 77:0.081563741 78:0.05935343 79:0.040329617 80:0.012120342 81:0.25028163 82:0.25324896 83:0.25324896 84:0.25324896 85:0.1056444 86:0.080031455 87:0.019860476 88:0.042010702 89:0.026664753 90:0.25324896 91:0.25324896 92:0.15386809 93:0.21474119 94:0.096853517 95:0.091019914 96:0.051733229 97:0.015295865 98:0.0029629162 99:0.20284064 100:0.25324896 101:0.23477723 102:0.25324896 103:0.10013424 104:0.097021513 105:0.02955273 106:0.012417063 107:0.0086421156 108:0.21443263 109:0.18334624 110:0.07041467 111:0.088819116 112:0.058184791 113:0.28656933 114:0.043928057 115:0.11221917 116:0.068053812 117:0.1126579 118:0.28656933 119:0.15200724 120:0.28656933 121:0.033956129 122:0.077826463 123:0.036902528 124:0.11643838 125:0.091353744 126:0.24660201 127:0.28656933 128:0.22726271 129:0.21442819 130:0.087546967 131:0.16911206 132:0.031999797 133:0.033953223 134:0.026599752 135:0.23051208 136:0.28656933 137:0.17456448 138:0.28656933 139:0.06546741 140:0.0015042062 141:0.0035577614 142:0.020682815 143:0.032886438 144:0.28656933 145:0.27648067 146:0.11427487 147:0.20905524 148:0.050613552 149:0.019918168 150:0.011898643 151:0.018086247 152:0.017697427 153:0.18443522 154:0.27648067 155:0.14707215 156:0.23801516 157:0.093616158 158:0.077389561 159:0.050624542 160:0.022948947 161:0.0062195431 162:0.22813047 163:0.27648067 164:0.13263224 165:0.27648067 166:0.075247914 167:0.00030626642 168:0.003557449 169:0.026016496 170:0.03753905 171:0.27648067 172:0.27648067 173:0.27648067 174:0.27648067 175:0.16382934 176:0.073387712 177:0.068950817 178:0.057701997 179:0.029585987 180:0.27648067 181:0.25272354 182:0.19307655 183:0.23154713 184:0.084072687 185:0.13967484 186:0.076575704 187:0.0083306152 188:0.0012553403 189:0.22450516 190:0.25272354 191:0.25272354 192:0.25272354 193:0.14909436 194:0.11760072 195:0.078597359 196:0 197:0.0067911609 198:0.25272354 199:0.25272354 200:0.24706298 201:0.25272354 202:0.10529403 203:0.13931197 204:0.08718238 205:0.020361982 206:0.0036837098 207:0.25272354 208:0.25272354 209:0.14255832 210:0.19549477 211:0.087840796 212:0.088654906 213:0.05101965 214:0 215:0.003086891 216:0.17397866 
0.2029159684130303 0 1:0.26779827 2:0.11313043 3:0.078047216 4:0.14627089 5:0.27451304 6:0.02442148 7:0.0032892497 8:0.010644596 9:0.18270145 10:0.21512033 11:0.087360442 12:0.069719143 13:0.083696142 14:0.27451304 15:0.025821878 16:0.0032863065 17:0.018746696 18:0.14424163 19:0.27451304 20:0.077458866 21:0.01734779 22:0.15077221 23:0.27451304 24:0.082278684 25:0.068020351 26:0.066648036 27:0.24379867 28:0.27451304 29:0.22567806 30:0.089884609 31:0.20292221 32:0.27451304 33:0.072576493 34:0.10152841 35:0.12638289 36:0.27451304 37:0.14669149 38:0.038284339 39:0.026307689 40:0.0175029 41:0.1805868 42:0.004449775 43:0.00079728325 44:0.0057075438 45:0.12419434 46:0.1752477 47:0.082784869 48:0.040454216 49:0.022069711 50:0.023462275 51:0 52:0.0055688401 53:0.0014455565 54:0.13064742 55:0.34953997 56:0.24006128 57:0.14681877 58:0.17178027 59:0.21958826 60:0.0046529672 61:0.026452452 62:0.040676307 63:0.34953997 64:0.34953997 65:0.27857074 66:0.29658151 67:0.097254418 68:0.20845039 69:0 70:0.024131641 71:0.0062640784 72:0.34953997 73:0.25139838 74:0.092952944 75:0.032235466 76:0.014311329 77:0.0075782086 78:0 79:0.0059260461 80:0.0015382799 81:0.18843271 82:0.33950427 83:0.075367495 84:0.028579401 85:0.0016847353 86:0 87:0.0011815709 88:0.027118726 89:0.0088969739 90:0.31345204 91:0.35833314 92:0.25489756 93:0.15645142 94:0.062649556 95:0.057502616 96:0 97:0.025679532 98:0.0066658799 99:0.35833314 100:0.35833314 101:0.17127807 102:0.10033704 103:0.0073005203 104:0.057439443 105:0.0056872368 106:0.11376542 107:0.013213297 108:0.35833314 109:0.27150956 110:0.059481695 111:0.022196649 112:0.12927696 113:0.27150956 114:0.10454258 115:0.11035352 116:0.062582582 117:0.25557747 118:0.27150956 119:0.24670088 120:0.1145492 121:0.21804416 122:0.26168728 123:0.096594833 124:0.15708537 125:0.12441918 126:0.27150956 127:0.24159144 128:0.13593891 129:0.063180275 130:0.051226959 131:0.20453459 132:0.013326857 133:0.011651905 134:0.015446912 135:0.23416896 136:0.27150956 137:0.12905686 138:0.063854761 139:0.0083855558 140:0.021978058 141:0.016486138 142:0.012694799 143:0 144:0.27150956 145:0.31068948 146:0.15904717 147:0.10176805 148:0.12203884 149:0.11910158 150:0.0047491435 151:0.022196362 152:0.023696164 153:0.31068948 154:0.31068948 155:0.09666191 156:0.15719028 157:0.037071999 158:0.1148463 159:0 160:0.009061032 161:0.002352058 162:0.31068948 163:0.31068948 164:0.13856681 165:0.073517732 166:0.029322345 167:0.0091091543 168:0.021056451 169:0.0034373289 170:0 171:0.31068948 172:0.31068948 173:0.19704014 174:0.1518026 175:0.11209851 176:0.097250134 177:0.016130989 178:0.0019064451 179:0 180:0.31068948 181:0.29395553 182:0.060527526 183:0.060565382 184:0.017614022 185:0.027007233 186:0 187:0.0071538179 188:0.0018569845 189:0.20463759 190:0.29395553 191:0.076884203 192:0.060673993 193:0.013478246 194:0.12076898 195:0.0062169833 196:0.035307448 197:0.00166626 198:0.29004386 199:0.29395553 200:0.1135299 201:0.19007507 202:0.032558586 203:0.18987407 204:0 205:0 206:0 207:0.29395553 208:0.29395553 209:0.23798528 210:0.29395553 211:0.050627284 212:0.29395553 213:0.019450201 214:0 215:0 216:0.29395553 
0 0.8633138411932082 1:0.14820737 2:0.16163005 3:0.25095269 4:0.12292411 5:0.25657901 6:0.054102596 7:0.085044004 8:0.09173654 9:0.11814774 10:0.13423738 11:0.067388132 12:0.16666254 13:0.079794392 14:0.25657901 15:0.24834482 16:0.25657901 17:0.25657901 18:0.24021667 19:0.12421256 20:0.04034926 21:0.070927694 22:0.045288526 23:0.17092654 24:0.055505484 25:0.086885773 26:0.072686084 27:0.10577232 28:0.12767425 29:0.040124662 30:0.078552239 31:0.018004762 32:0.17640203 33:0.25657901 34:0.25657901 35:0.25657901 36:0.25657901 37:0.093765363 38:0.056561571 39:0.051954228 40:0.027137704 41:0.23842134 42:0.14592145 43:0.14598572 44:0.1797518 45:0.14637148 46:0.049327254 47:0.033281259 48:0.0071849772 49:0.0012704561 50:0.022375347 51:0.026980069 52:0.068206966 53:0.092266954 54:0.06973847 55:0.25297326 56:0.13049433 57:0.13687779 58:0.028410044 59:0.16227181 60:0.26439223 61:0.26439223 62:0.26439223 63:0.26439223 64:0.26439223 65:0.11569671 66:0.099894919 67:0.019056842 68:0.16167367 69:0.26439223 70:0.26439223 71:0.26439223 72:0.26439223 73:0.02582581 74:0.00083736255 75:0.00022908759 76:0 77:0 78:0.01103707 79:0.03557083 80:0.057159327 81:0.041678146 82:0.009052258 83:0 84:0 85:0 86:0 87:0 88:3.9484999e-05 89:0.0010763792 90:0.009052258 91:0.33409294 92:0.012560437 93:0.0034363139 94:0.0024502899 95:0.33352357 96:0.23281126 97:0.33409294 98:0.33409294 99:0.33409294 100:0.33409294 101:0.0064760065 102:0 103:0.036754347 104:0.14632122 105:0.1099465 106:0.30675989 107:0.15849914 108:0.33409294 109:0.17124261 110:0.018261122 111:0.0032952137 112:0.029044628 113:0.08718323 114:0.14071757 115:0.12973541 116:0.16354728 117:0.26523587 118:0.19124039 119:0.023022005 120:0.013596578 121:0.0072461534 122:0.099407367 123:0.19059685 124:0.14673273 125:0.20120513 126:0.26523587 127:0.24200852 128:0.03278847 129:0.00011954625 130:0.029124087 131:0.10195453 132:0.22491392 133:0.11285251 134:0.17907412 135:0.26523587 136:0.26523587 137:0.042156603 138:0 139:0.005416485 140:0.26523587 141:0.21343148 142:0.210255 143:0.26523587 144:0.26523587 145:0.2051761 146:0.040715326 147:0.065718308 148:0.014098248 149:0.065431625 150:0.1254489 151:0.17051537 152:0.16485678 153:0.24069655 154:0.25288108 155:0.040425789 156:0.054050475 157:0.01199849 158:0.1124889 159:0.16014133 160:0.26519427 161:0.26519427 162:0.26519427 163:0.26519427 164:0.0058990098 165:0 166:0.010896897 167:0.1798944 168:0.051814809 169:0.19859949 170:0.16764173 171:0.26519427 172:0.26519427 173:0.026600963 174:0.0050698654 175:0.023973174 176:0.056987863 177:0.09615577 178:0.16956253 179:0.26519427 180:0.26519427 181:0.2549808 182:0.0036848765 183:0.0010072044 184:0.0023093417 185:0.18170461 186:0.094328016 187:0.23979661 188:0.21818414 189:0.2549808 190:0.2549808 191:0.014025586 192:0 193:0.02928384 194:0.10346064 195:0.088047788 196:0.2549808 197:0.16689722 198:0.2549808 199:0.2549808 200:0.031593312 201:0.013799733 202:0.0058068042 203:0.043014772 204:0.089500032 205:0.13831186 206:0.2549808 207:0.2549808 208:0.2549808 209:0.043644641 210:0.033984415 211:0.0067578093 212:0.16254029 213:0.065380141 214:0.20383984 215:0.21755521 216:0.2549808 
1.954654556693775 1.715694174619163 1:0.098009206 2:0.057780445 3:0.11374355 4:0.027364766 5:0.098010495 6:0.014236098 7:0.044686019 8:0.00632683 9:0.050972413 10:0.077760056 11:0.044513989 12:0.073378071 13:0.023774972 14:0.089320309 15:0.011072521 16:0.05332059 17:0.0081344945 18:0.045257121 19:0.26229131 20:0.308503 21:0.308503 22:0.13155648 23:0.308503 24:0.063385829 25:0.11566723 26:0.013919027 27:0.1817292 28:0.308503 29:0.308503 30:0.308503 31:0.25075102 32:0.308503 33:0.073421963 34:0.13080597 35:0.017895889 36:0.20042707 37:0.049157087 38:0.087530106 39:0.10249579 40:0.04548398 41:0.049595207 42:0 43:0.0038740211 44:0.00067060563 45:0.031450544 46:0.14789376 47:0.28161553 48:0.2829228 49:0.14531307 50:0.1854534 51:0 52:0 53:0 54:0.10444933 55:0.20580676 56:0.2829228 57:0.2829228 58:0.23540616 59:0.17507231 60:0.011137899 61:0.0095221587 62:0.0014753324 63:0.10533015 64:0.2829228 65:0.2829228 66:0.2829228 67:0.2829228 68:0.27394557 69:0.0075322692 70:0.0043303519 71:0 72:0.16818142 73:0.17963186 74:0.25264049 75:0.25264049 76:0.16950236 77:0.20543148 78:0 79:0 80:0 81:0.11293148 82:0.21933238 83:0.25264049 84:0.25264049 85:0.21366163 86:0.21907106 87:0.0044228672 88:0 89:0 90:0.1236715 91:0.20047285 92:0.25264049 93:0.25264049 94:0.20573419 95:0.24193797 96:0.0022983795 97:0.0013213536 98:0 99:0.12794517 100:0.13249354 101:0.23437928 102:0.25264049 103:0.12710837 104:0.15306802 105:0 106:0 107:0 108:0.090358742 109:0.16324845 110:0.21295176 111:0.26241466 112:0.054699022 113:0.26241466 114:0.013496106 115:0.017104968 116:0.0017185237 117:0.12847012 118:0.25542623 119:0.26241466 120:0.26241466 121:0.16673978 122:0.26241466 123:0.023844458 124:0.018346524 125:0.0022095304 126:0.13780579 127:0.18347165 128:0.26241466 129:0.26241466 130:0.10380317 131:0.20597763 132:6.2566345e-05 133:0 134:0.0010469473 135:0.11975271 136:0.1928867 137:0.26241466 138:0.26241466 139:0.11932316 140:0.11429316 141:0.00093849527 142:0 143:0 144:0.083630867 145:0.29701903 146:0.29701903 147:0.29701903 148:0.29701903 149:0.16035134 150:0.015459682 151:0.0040266826 152:0.0004569256 153:0.12641686 154:0.24433154 155:0.29701903 156:0.29701903 157:0.29701903 158:0.13507251 159:0.010454977 160:0.0060106362 161:0 162:0.10148637 163:0.14827368 164:0.29701903 165:0.29701903 166:0.12664717 167:0.049221136 168:0.0010306454 169:9.2471339e-05 170:0 171:0.058718033 172:0.053290166 173:0.12322628 174:0.088023387 175:0.050294973 176:0.014763934 177:0.0006969985 178:0.00040070908 179:0 180:0.017196547 181:0.36234125 182:0.36234125 183:0.36234125 184:0.36234125 185:0.36234125 186:0.016791964 187:0.0096538113 188:0 189:0.29354534 190:0.15959793 191:0.26377112 192:0.30977029 193:0.10980568 194:0.15269753 195:0 196:0 197:0 198:0.13480076 199:0.050197475 200:0.064619705 201:0.034588389 202:0.028354084 203:0.004084093 204:0.0011194643 205:0.0006435875 206:0 207:0.010712694 208:9.4865078e-05 209:0.0012701942 210:0 211:0 212:0 213:0 214:0 215:0 216:0 
0 0.9032675764256038 1:0.27737814 2:0.12028621 3:0.057024904 4:0.15850203 5:0.27807069 6:0.022377703 7:0.011989119 8:0.016166033 9:0.18121676 10:0.27807069 11:0.11788443 12:0.14539024 13:0.074597031 14:0.27807069 15:0.028883541 16:0.023173667 17:0.033681124 18:0.21571389 19:0.24183638 20:0.07355351 21:0.034042634 22:0.10207658 23:0.27807069 24:0.023368439 25:0.03535695 26:0.0017888288 27:0.17009035 28:0.27807069 29:0.21518303 30:0.24697724 31:0.094333671 32:0.24859852 33:0.039040748 34:0.060595077 35:0.026736494 36:0.27807069 37:0.2498031 38:0.13525492 39:0.24368694 40:0.059281662 41:0.14350274 42:0.005567593 43:0.030062614 44:0.033063237 45:0.21373804 46:0.2498031 47:0.2498031 48:0.2498031 49:0.16108972 50:0 51:0 52:0.066253379 53:0.043861467 54:0.2498031 55:0.2498031 56:0.2498031 57:0.2498031 58:0.059253685 59:0.034834798 60:0.0077167046 61:0.042041764 62:0.04735063 63:0.2498031 64:0.2498031 65:0.2498031 66:0.24575514 67:0.082646325 68:0 69:0 70:0.053618655 71:0.034535278 72:0.22189908 73:0.254953 74:0.254953 75:0.254953 76:0.18500538 77:0.0093480116 78:0.037578873 79:0.045396313 80:0.03033012 81:0.254953 82:0.254953 83:0.254953 84:0.254953 85:0.14107974 86:0.12355295 87:0.20802166 88:0.077340394 89:0.078798823 90:0.254953 91:0.254953 92:0.23424947 93:0.12808637 94:0.061712056 95:0.00062320079 96:0.0078081125 97:0.024796272 98:0.015813446 99:0.13600966 100:0.25072834 101:0.22636561 102:0.20986311 103:0.031555429 104:0.091897398 105:0.040597785 106:0.021905091 107:0.020576606 108:0.13583076 109:0.14385298 110:0.048208427 111:0.034361169 112:0.033383135 113:0.26846915 114:0.010903162 115:0.022479545 116:0.00068981759 117:0.097018473 118:0.29137805 119:0.12668814 120:0.11868012 121:0.033963535 122:0.071671464 123:0.019068703 124:0.034333196 125:0.0094706211 126:0.22072639 127:0.29137805 128:0.18145584 129:0.23231673 130:0.088992923 131:0.29137805 132:0.078906521 133:0 134:0.015335745 135:0.19969936 136:0.29137805 137:0.29137805 138:0.29137805 139:0.11197169 140:0.16120738 141:0.16998018 142:0.00010011629 143:0 144:0.29137805 145:0.20681746 146:0.1198078 147:0.1052019 148:0.012730226 149:0.00666602 150:0.013273298 151:0.010882723 152:0.0091129467 153:0.13391623 154:0.25348273 155:0.23249517 156:0.15434963 157:0.040909056 158:0.0022535096 159:0.023446523 160:0.030593203 161:0.0078849774 162:0.14296234 163:0.28188995 164:0.28188995 165:0.28188995 166:0.1309237 167:0.066634893 168:0.13244428 169:0.012764221 170:0 171:0.28188995 172:0.28188995 173:0.28188995 174:0.28188995 175:0.22478205 176:0.032660984 177:0.11158963 178:0.074932791 179:0.0057052202 180:0.28188995 181:0.25492221 182:0.25492221 183:0.19042911 184:0.054838199 185:0.00065165991 186:0.010054187 187:0.034102149 188:0.0266381 189:0.15662789 190:0.25492221 191:0.25492221 192:0.25492221 193:0.077229075 194:0.0175406 195:0.00048923306 196:0.026382016 197:0.049538083 198:0.22824432 199:0.25492221 200:0.25492221 201:0.25492221 202:0.14517941 203:0.0047296751 204:0.027912684 205:0.062932722 206:0.030131904 207:0.25492221 208:0.25492221 209:0.25047526 210:0.25492221 211:0.088063523 212:0 213:0.0010763127 214:0.026289847 215:0.045851137 216:0.23512682 
0.02951450449791322 0 1:0.27050981 2:0.19724979 3:0.12854171 4:0.25667202 5:0.27050981 6:0.025814041 7:0.014037634 8:0.015111617 9:0.11218166 10:0.21877743 11:0.12322138 12:0.042402185 13:0.16638209 14:0.27050981 15:0.032780029 16:0.022398772 17:0.021806559 18:0.11810053 19:0.2005298 20:0.1491653 21:0.14305474 22:0.1502984 23:0.27050981 24:0.027835887 25:0.12179403 26:0.099436678 27:0.13561583 28:0.27050981 29:0.086924858 30:0.057586007 31:0.096751332 32:0.24796806 33:0.016561093 34:0.24066372 35:0.15940325 36:0.27050981 37:0.11093447 38:0.034325901 39:0.0091276858 40:0.041194573 41:0.25599644 42:0.009867426 43:0.0096816393 44:0.0082942778 45:0.069568522 46:0.034034993 47:0 48:0 49:0 50:0 51:0 52:0 53:0 54:0.034034993 55:0.46928391 56:0.014906982 57:0.015425583 58:0.018878017 59:0.054690924 60:0 61:0.12935865 62:0.075141869 63:0.46928391 64:0.46928391 65:0 66:0 67:0 68:0 69:0 70:0 71:0 72:0.46928391 73:0.031846724 74:0 75:0 76:0 77:0 78:0 79:0 80:0 81:0.031846724 82:0.020414036 83:0 84:0 85:0 86:0 87:0 88:0 89:0 90:0.020414036 91:0.4137775 92:0.040637746 93:0.020132897 94:0 95:0 96:0 97:0.12233108 98:0.098843172 99:0.4137775 100:0.4137775 101:0.18903977 102:0.087242566 103:0 104:0 105:0.0072613489 106:0.25836802 107:0.4137775 108:0.4137775 109:0.16461466 110:0.066796906 111:0.063906021 112:0.055051651 113:0.30348787 114:0.036211528 115:0.13446526 116:0.14043958 117:0.18031102 118:0.30348787 119:0.017267434 120:0.018952904 121:0.016726503 122:0.10339712 123:0.020179404 124:0.29151532 125:0.23324057 126:0.30348787 127:0.30348787 128:0.0042482647 129:0.0015679713 130:0.010983792 131:0.20593843 132:0.032275163 133:0.0802674 134:0.1023213 135:0.30348787 136:0.30348787 137:0 138:0 139:0.0036432294 140:0.070123807 141:0.029193588 142:0.1302276 143:0.085237764 144:0.30348787 145:0.35178727 146:0.00066479482 147:0.0019671689 148:0.0010958096 149:0.0016615276 150:0 151:0.061725989 152:0.042200625 153:0.35178727 154:0.35178727 155:0 156:0 157:0 158:0 159:0 160:0 161:0 162:0.35178727 163:0.35178727 164:0 165:0 166:0.0011175695 167:0.0091291247 168:0.0028193211 169:0.024682881 170:0.012246505 171:0.35178727 172:0.35178727 173:0 174:0 175:0 176:0 177:0 178:0 179:0 180:0.35178727 181:0.30454996 182:0.032815531 183:0.01138903 184:0 185:0 186:0 187:0.077241421 188:0.07711643 189:0.30454996 190:0.30454996 191:0.15272829 192:0.049352463 193:0 194:0.048560373 195:0.016055083 196:0.16861586 197:0.30454996 198:0.30454996 199:0.30454996 200:0.0097757075 201:0.0014976207 202:0 203:0.0039588488 204:0.00019673938 205:0.015513137 206:0.022027288 207:0.30454996 208:0.30454996 209:0.066919923 210:0.037832938 211:0.0047147307 212:0.2531569 213:0.016378731 214:0.045525894 215:0.1381004 216:0.30454996 
0 1.29902029051107 1:0.21167675 2:0.18967132 3:0.15400916 4:0.15827139 5:0.30515298 6:0.037238803 7:0.047636997 8:0.0504991 9:0.090340286 10:0.071480662 11:0.077981584 12:0.0058933944 13:0.063647941 14:0.30515298 15:0.12310352 16:0.061786514 17:0.10401224 18:0.14183158 19:0.13331813 20:0.08564198 21:0.10092463 22:0.065600745 23:0.30515298 24:0.07477051 25:0.0461151 26:0.034334879 27:0.11145288 28:0.30515298 29:0.13445187 30:0.00010366952 31:0.022787107 32:0.30515298 33:0.28026739 34:0.2275271 35:0.13895577 36:0.30515298 37:0.051559314 38:0.023388753 39:0 40:0.03020796 41:0.27794608 42:0.059356667 43:0.014130446 44:0.03818268 45:0.094932377 46:0.045469139 47:0 48:0 49:0 50:0.0013178384 51:0 52:0 53:0 54:0.045577668 55:0.40438238 56:0.070181839 57:0 58:0.011342168 59:0.40438238 60:0.16089672 61:0.13975751 62:0.072619021 63:0.40438238 64:0.40438238 65:0 66:0.029606862 67:0.020372691 68:0.10591059 69:0.026694471 70:0.075555794 71:0.062816016 72:0.40438238 73:0.038108356 74:0 75:0 76:0 77:0 78:0 79:0 80:0 81:0.038108356 82:0.049088936 83:0 84:0 85:0 86:0 87:0 88:0 89:0 90:0.049088936 91:0.40232798 92:0.074140504 93:0.18545218 94:0.10832819 95:0.3182295 96:0.057549704 97:0.16985054 98:0.17886397 99:0.40232798 100:0.40232798 101:0.095323503 102:0.15847442 103:0.084255256 104:0.2601473 105:0.056524433 106:0.052068722 107:0.094102547 108:0.40232798 109:0.088180929 110:0.049757224 111:0.044220868 112:0.05893511 113:0.28465137 114:0.055222549 115:0.071337879 116:0.023610113 117:0.083888575 118:0.28465137 119:0.088338137 120:0 121:0 122:0.28465137 123:0.23243853 124:0.28465137 125:0.098853581 126:0.28465137 127:0.18760629 128:0.06862814 129:0.061552174 130:0.032856606 131:0.28465137 132:0.07572525 133:0.20002599 134:0.20655859 135:0.23309737 136:0.28465137 137:0.030511305 138:0.088123299 139:0.027698122 140:0.20574677 141:0.0061045852 142:0.053849094 143:0.060619794 144:0.28465137 145:0.3430115 146:0.021240704 147:0 148:0 149:0.16468406 150:0.06688118 151:0.094615482 152:0.023608679 153:0.3430115 154:0.3430115 155:0 156:0.024981499 157:0.025054555 158:0.098578699 159:0.024823928 160:0.095596649 161:0.063236333 162:0.3430115 163:0.29336843 164:0.034152199 165:0.011169943 166:0.018859517 167:0.12684421 168:0.016117856 169:0.057821818 170:0.0047436222 171:0.29139233 172:0.30195099 173:0.046210747 174:0.0016654333 175:0.035378195 176:0.2179689 177:0.079220884 178:0.095808603 179:0.050682366 180:0.32746327 181:0.29595718 182:0.077720806 183:0.12947291 184:0.10038949 185:0.23569074 186:0.042180493 187:0.15493453 188:0.12881036 189:0.29595718 190:0.29595718 191:0.099926747 192:0.11562236 193:0.090230435 194:0.2295441 195:0.066187061 196:0.044669554 197:0.071969055 198:0.29595718 199:0.23310228 200:0.032467309 201:0.013452225 202:0.028508555 203:0.17311887 204:0.073084615 205:0.057840858 206:0.086677723 207:0.29595718 208:0.2911742 209:0.057023726 210:0.01411368 211:0.07507138 212:0.20848259 213:0.056341242 214:0.018000584 215:0.039527908 216:0.29595718 
0 0.1270464730741671 1:0.20901348 2:0.20468111 3:0.10752387 4:0.17702354 5:0.28321609 6:0.019480539 7:0.0067797801 8:0.010765467 9:0.093933307 10:0.20947555 11:0.19856639 12:0.102097 13:0.12378476 14:0.28321609 15:0.024257362 16:0.018164715 17:0.029116709 18:0.16114856 19:0.17304088 20:0.17931262 21:0.14129555 22:0.14254832 23:0.28321609 24:0.0089083286 25:0.042067513 26:0.056601364 27:0.073966496 28:0.28321609 29:0.28321609 30:0.16557111 31:0.063299976 32:0.28321609 33:0.011453565 34:0.057289898 35:0.11540061 36:0.28321609 37:0.18041325 38:0.096177734 39:0.031502951 40:0.037340205 41:0.15472716 42:0.0065605687 43:0.0057298844 44:0.0092600845 45:0.15965721 46:0.25790775 47:0.15145113 48:0 49:0 50:0 51:0 52:0 53:0 54:0.20262575 55:0.35664558 56:0.35664558 57:0.055270344 58:0.01496634 59:0.068304546 60:0.0017733559 61:0.0096443426 62:0.030502154 63:0.35664558 64:0.35664558 65:0.35664558 66:0 67:0 68:0 69:0 70:0 71:0 72:0.35664558 73:0.2652818 74:0.14448904 75:0.013569221 76:0 77:0 78:0 79:0 80:0 81:0.19626354 82:0.32694176 83:0.1330782 84:0.017446142 85:0 86:0 87:0 88:0 89:0 90:0.32694176 91:0.32694176 92:0.32694176 93:0.017446142 94:0 95:0 96:0 97:0 98:0 99:0.32694176 100:0.32694176 101:0.31578493 102:0.022430755 103:0 104:0 105:0 106:0 107:0 108:0.32694176 109:0.17240526 110:0.18636253 111:0.092861518 112:0.085864872 113:0.29177591 114:0.015440428 115:0.06907542 116:0.085856825 117:0.09812922 118:0.29177591 119:0.29177591 120:0.081314407 121:0.0079746088 122:0.25610414 123:0.019851977 124:0.090853646 125:0.13328417 126:0.29177591 127:0.29177591 128:0.17578876 129:0.020702133 130:0.0092142774 131:0.15815456 132:0.011302533 133:0.010250124 134:0.023448866 135:0.2349283 136:0.29177591 137:0.29177591 138:0 139:0 140:0.045400634 141:0.0013234651 142:0.0057292772 143:0.019543568 144:0.29177591 145:0.30022779 146:0.24240513 147:0.018147426 148:0.0012626568 149:0.008852086 150:0.0019064815 151:0.0090312865 152:0.016791802 153:0.30022779 154:0.30022779 155:0.30022779 156:0 157:0 158:0 159:0 160:0 161:0 162:0.30022779 163:0.30022779 164:0.1885542 165:0.00030531047 166:0 167:0.022621866 168:0.00012709874 169:0.00055021007 170:0.001876863 171:0.30022779 172:0.30022779 173:0.30022779 174:0.0045796572 175:0 176:0.0026103994 177:0 178:0 179:0 180:0.30022779 181:0.31304836 182:0.20026755 183:0.0028197384 184:0 185:0 186:0 187:0 188:0 189:0.26840732 190:0.31304836 191:0.17459153 192:0.0084516602 193:0.0085573187 194:0.0086309826 195:0 196:0 197:0 198:0.28542829 199:0.31304836 200:0.2807678 201:0.0060488307 202:0 203:0 204:0 205:0 206:0 207:0.31304836 208:0.31304836 209:0.31304836 210:0.084877148 211:0.018826099 212:0.011096978 213:0 214:0 215:0 216:0.31304836 
0.189359048829854 0.6696590898770554 1:0.1342191 2:0.13760938 3:0.28939974 4:0.19132462 5:0.28939974 6:0.014322698 7:0.040287416 8:0.052664321 9:0.11316884 10:0.11207613 11:0.091543205 12:0.28939974 13:0.03009641 14:0.28939974 15:0.040977385 16:0.13365562 17:0.038655963 18:0.10782041 19:0.013944161 20:0.092924409 21:0.24079531 22:0.18196519 23:0.28939974 24:0.021521308 25:0.074559443 26:0.041648883 27:0.016433405 28:0.24641187 29:0.13233964 30:0.14906804 31:0.088035949 32:0.28939974 33:0.092318572 34:0.26617944 35:0.10724266 36:0.20516042 37:0.071392477 38:0.035842642 39:0.13872117 40:0.010686287 41:0.29680231 42:0.019157119 43:0.073072247 44:0.013281925 45:0.064219303 46:0.12300663 47:0.024009492 48:0.078089923 49:0.023705062 50:0.057181235 51:0 52:0.04672388 53:0.036313359 54:0.10517319 55:0.29680231 56:0.29680231 57:0.16388562 58:0.046557494 59:0.28756684 60:0.052110828 61:0.15251155 62:0.068264797 63:0.29680231 64:0.29680231 65:0.19976288 66:0.28196919 67:0.065340899 68:0.14821203 69:0 70:0.22701044 71:0.23021771 72:0.29680231 73:0.22774673 74:0.023556797 75:0.065643094 76:0.021826001 77:0.046115343 78:0.0011588165 79:0.032439247 80:0.019797236 81:0.20505607 82:0.23283587 83:0.019260643 84:0.019385152 85:0.02315977 86:0.023017567 87:0.017382249 88:0.10271519 89:0.023196986 90:0.29523265 91:0.29523265 92:0.11100785 93:0.21141149 94:0.057802778 95:0.16560049 96:0.0049028741 97:0.20117098 98:0.17396948 99:0.29523265 100:0.29523265 101:0.23037672 102:0.13662545 103:0.090244271 104:0.11898518 105:0.074986421 106:0.29523265 107:0.21359971 108:0.29523265 109:0.031981032 110:0.047620121 111:0.17824115 112:0.15357545 113:0.27243215 114:0.053661488 115:0.10426302 116:0.066236496 117:0.048636299 118:0.27243215 119:0.27243215 120:0.085966788 121:0.10114975 122:0.27243215 123:0.14840017 124:0.27243215 125:0.18102881 126:0.27243215 127:0.27243215 128:0.060281359 129:0.069859616 130:0.063792452 131:0.19924529 132:0.052826881 133:0.061596107 134:0.052611481 135:0.25457734 136:0.27243215 137:0.17233029 138:0.059848297 139:0.015716631 140:0.033407487 141:0.053387906 142:0.072162792 143:0.092706405 144:0.27243215 145:0.29033545 146:0.29033545 147:0.06925609 148:0.028368661 149:0.080766097 150:0.031188589 151:0.079005867 152:0.053716838 153:0.29033545 154:0.29033545 155:0.19330539 156:0.10766763 157:0.02010012 158:0.049042974 159:0 160:0.18267214 161:0.2211729 162:0.29033545 163:0.26490009 164:0.14249305 165:0.099951074 166:0.0081922924 167:0.031523675 168:0.0037030685 169:0.022782335 170:0.0627883 171:0.29033545 172:0.29033545 173:0.10108045 174:0.10877944 175:0.0032173865 176:0.062992692 177:0 178:0.086597279 179:0.16410857 180:0.29033545 181:0.24647216 182:0.12822968 183:0.078297973 184:0.017317237 185:0.061164204 186:0.0020850596 187:0.18519816 188:0.22025025 189:0.24647216 190:0.24647216 191:0.24647216 192:0.13868621 193:0.070263088 194:0.083633974 195:0.034906771 196:0.14966249 197:0.20167848 198:0.24647216 199:0.24647216 200:0.22395848 201:0.094066598 202:0.00091400358 203:0.043550428 204:0.00064432848 205:0.059854034 206:0.14652225 207:0.24647216 208:0.24647216 209:0.24647216 210:0.14997005 211:0.016311655 212:0.11008578 213:0.019878725 214:0.081285805 215:0.23944487 216:0.24647216 
0.5678615087924506 2.11102414535728 1:0.11347258 2:0.23133925 3:0.20497648 4:0.0060525304 5:0.077805117 6:0.043043137 7:0.054661438 8:0.0077077034 9:0.073775046 10:0.13598233 11:0.24588189 12:0.13886367 13:0.0064004031 14:0.11475558 15:0.085746169 16:0.098288476 17:0.025032183 18:0.073897421 19:0.20478772 20:0.28951302 21:0.28951302 22:0.095733501 23:0.28951302 24:0.066351503 25:0.10949163 26:0.058613174 27:0.10331038 28:0.28951302 29:0.28951302 30:0.28951302 31:0.05730268 32:0.28951302 33:0.10705733 34:0.16877744 35:0.093327574 36:0.1321156 37:0.11089502 38:0.2365171 39:0.18969803 40:0.0025362319 41:0.018601 42:0.013604226 43:0.016027447 44:0.0067694234 45:0.039986104 46:0.19920498 47:0.34047219 48:0.34047219 49:0.0071494714 50:0.0012614292 51:0.00064372306 52:0.0019359082 53:0.00079608936 54:0.077036887 55:0.22597469 56:0.34047219 57:0.34047219 58:0.014454099 59:0.033079866 60:0.016810074 61:0.034284282 62:0.021493565 63:0.079223976 64:0.28067735 65:0.34047219 66:0.34047219 67:0.017546963 68:0.0016338573 69:0.0027894669 70:0.013373475 71:0.007909392 72:0.093964994 73:0.17428975 74:0.31540775 75:0.31540775 76:0.0081649749 77:0.002297983 78:0.00020590596 79:0.0043903245 80:0.0012690639 81:0.06635002 82:0.2204981 83:0.31540775 84:0.31540775 85:0.033933416 86:0.024983207 87:0 88:0.014512013 89:0.0050440514 90:0.079140581 91:0.22574446 92:0.31540775 93:0.31540775 94:0.0063402723 95:0.0010227726 96:0.00089225918 97:0.0048112082 98:0.001788007 99:0.068262942 100:0.22269055 101:0.31540775 102:0.31540775 103:0.0077783354 104:0.0032416538 105:0 106:0.003341388 107:0.0010212491 108:0.062149294 109:0.12183248 110:0.27386323 111:0.29132891 112:0.080929503 113:0.26172015 114:0.030227145 115:0.037355796 116:0.039306153 117:0.053500496 118:0.23136975 119:0.29132891 120:0.29132891 121:0.024120815 122:0.15323462 123:0.037799452 124:0.050358091 125:0.048502825 126:0.080288127 127:0.20551026 128:0.29132891 129:0.29132891 130:0.033327248 131:0.12954412 132:0.0076379878 133:0.0060583525 134:0.010111734 135:0.066748805 136:0.262871 137:0.29132891 138:0.29132891 139:0.00083864381 140:0.026373325 141:0.0090592187 142:0.010685989 143:0.013000801 144:0.07793092 145:0.24914339 146:0.33167717 147:0.33167717 148:0.0084452676 149:0.013889116 150:0.0095423628 151:0.018953018 152:0.012683317 153:0.066749588 154:0.28292587 155:0.33167717 156:0.33167717 157:0.0068891551 158:0.00051063782 159:0.0012022796 160:0.0088945609 161:0.0054638088 162:0.069390103 163:0.20359881 164:0.33167717 165:0.33167717 166:0.00034355797 167:0.0013357329 168:0.0027115142 169:0.0036215782 170:0.0021680621 171:0.055725835 172:0.12779494 173:0.28760257 174:0.19976762 175:2.2903867e-05 176:0 177:0 178:0 179:0 180:0.025789876 181:0.39052907 182:0.39052907 183:0.39052907 184:0.0045747282 185:0.00056723331 186:0.0013355318 187:0.0036347851 188:0.0022327995 189:0.14949545 190:0.32680976 191:0.39052907 192:0.39052907 193:0 194:0.00099481596 195:0 196:0 197:0 198:0.082065657 199:0.13411972 200:0.22565633 201:0.16384067 202:0 203:0 204:0 205:0 206:0 207:0.030929396 208:0.016204989 209:0.014673474 210:0.01879333 211:0 212:0 213:0 214:0 215:0 216:0.007936391 
0 0.07971356342739809 1:0.16827001 2:0.1093597 3:0.25823477 4:0.029522052 5:0.29006097 6:0 7:0 8:0.010016789 9:0.13550703 10:0.17934975 11:0.078467913 12:0.094407141 13:0.019022375 14:0.29006097 15:0 16:0 17:0.012878727 18:0.16582249 19:0.1282118 20:0.18984123 21:0.29006097 22:0.042829659 23:0.29006097 24:0.042270277 25:0.029714951 26:0.05453679 27:0.12411503 28:0.29006097 29:0.29006097 30:0.19691099 31:0.049485784 32:0.29006097 33:0.032876879 34:0.02311163 35:0.0653098 36:0.29006097 37:0.15730199 38:0.052710909 39:0.011945661 40:0.0039837318 41:0.17160136 42:0 43:0 44:0.0025507899 45:0.14304738 46:0.21280915 47:0.10043809 48:0.027352072 49:0 50:0 51:0 52:0 53:0 54:0.18797527 55:0.36896944 56:0.36892828 57:0.056578953 58:0.010392598 59:0.05827618 60:0 61:0 62:0.011476941 63:0.36896944 64:0.36896944 65:0.36896944 66:0.060174555 67:0 68:0 69:0 70:0 71:0 72:0.36896944 73:0.22118452 74:0.096454941 75:0.043077115 76:0 77:0 78:0 79:0 80:0 81:0.18215944 82:0.33862358 83:0.089785568 84:0.051482826 85:0 86:0 87:0 88:0 89:0 90:0.33184195 91:0.33862358 92:0.33862358 93:0.11462535 94:0 95:0 96:0 97:0 98:0 99:0.33862358 100:0.33862358 101:0.25438768 102:0.12912917 103:0 104:0 105:0 106:0 107:0 108:0.33862358 109:0.18498905 110:0.14960176 111:0.21110937 112:0.023902537 113:0.28949291 114:0.069775239 115:0.079387747 116:0.091852479 117:0.193128 118:0.28949291 119:0.28949291 120:0.17106329 121:0.027255787 122:0.16342002 123:0.05426963 124:0.061746031 125:0.10500839 126:0.28949291 127:0.28949291 128:0.13850994 129:0.08379133 130:0.0018781312 131:0.14436153 132:0.010366058 133:0.026409965 134:0.017700646 135:0.27997714 136:0.28949291 137:0.19737661 138:0.099196248 139:0 140:0.039393373 141:0.0036179752 142:0.013957416 143:0.014464313 144:0.28949291 145:0.31092244 146:0.23337603 147:0.043677017 148:0.002962529 149:0.0058398922 150:0 151:0 152:0.0092354659 153:0.31092244 154:0.31092244 155:0.31092244 156:0.017918518 157:0 158:0 159:0 160:0 161:0 162:0.31092244 163:0.31092244 164:0.13334987 165:0.071853414 166:0 167:0.019497039 168:0 169:0 170:0.0010695 171:0.31092244 172:0.31092244 173:0.19036759 174:0.10221429 175:0 176:0.0017498812 177:0 178:0 179:0 180:0.31092244 181:0.31435838 182:0.19885561 183:0.05241596 184:0 185:0 186:0 187:0 188:0 189:0.31435838 190:0.31435838 191:0.12389046 192:0.09901613 193:0 194:0.0020595905 195:0 196:0 197:0 198:0.31435838 199:0.31435838 200:0.15971194 201:0.11926366 202:0 203:0 204:0 205:0 206:0 207:0.31435838 208:0.31435838 209:0.17257774 210:0.26328525 211:0 212:0.0026480451 213:0 214:0 215:0 216:0.31435838 
0 0.4064122385740621 1:0.23588061 2:0.100074 3:0.19660911 4:0.096720934 5:0.29638568 6:0.021178083 7:0.018108672 8:0.0082146227 9:0.11468861 10:0.18745783 11:0.0417688 12:0.041531421 13:0.088870838 14:0.29638568 15:0.039223954 16:0.0405249 17:0.021917788 18:0.13061912 19:0.16227756 20:0.044242382 21:0.041567445 22:0.093716078 23:0.29638568 24:0.049892351 25:0.11867413 26:0.092004895 27:0.15639031 28:0.24748783 29:0.0081884786 30:0.019326527 31:0.046828028 32:0.29638568 33:0.1872254 34:0.29638568 35:0.29638568 36:0.29638568 37:0.078357719 38:0.0095555186 39:0.0060330969 40:0.029789137 41:0.14559639 42:0.016612461 43:0.018418571 44:0.0268116 45:0.084916271 46:0.01879254 47:0 48:0 49:0 50:0.0012996189 51:0.00030992381 52:0.0002791078 53:0.0071773813 54:0.022351578 55:0.28967777 56:0.019044792 57:0.14593372 58:0.046514198 59:0.28967777 60:0.24722469 61:0.28967777 62:0.28967777 63:0.28967777 64:0.28967777 65:0.096643962 66:0.22643265 67:0.077547371 68:0.21115324 69:0.13482726 70:0.27140909 71:0.28967777 72:0.28967777 73:0.018257271 74:0 75:0 76:0 77:0 78:0 79:0 80:0 81:0.018257271 82:0.0033019315 83:0 84:0 85:0 86:0 87:0 88:0 89:0 90:0.0033019315 91:0.35011873 92:0.12067755 93:0.11742081 94:0.11443393 95:0.19093522 96:0.13799585 97:0.32132488 98:0.33653742 99:0.35011873 100:0.35011873 101:0.099378251 102:0.060949724 103:0.044551902 104:0.16234326 105:0.16780795 106:0.30573058 107:0.1687219 108:0.35011873 109:0.093503661 110:0.034649521 111:0.0026367931 112:0.021489788 113:0.19793436 114:0.026141504 115:0.065049313 116:0.07852266 117:0.10518949 118:0.23268354 119:0.025681762 120:0.029398089 121:0.013831003 122:0.24968052 123:0.11634761 124:0.24968052 125:0.24968052 126:0.24968052 127:0.24968052 128:0.086583763 129:0.039014131 130:0.03717668 131:0.24968052 132:0.13062447 133:0.13573888 134:0.096992329 135:0.24968052 136:0.24968052 137:0.12271944 138:0.11094385 139:0.06930913 140:0.22920738 141:0.17500564 142:0.24968052 143:0.24968052 144:0.24968052 145:0.22542731 146:0.01255235 147:0.10811782 148:0.030063363 149:0.23814663 150:0.11667334 151:0.2397242 152:0.2397242 153:0.2397242 154:0.2397242 155:0.076726742 156:0.14478889 157:0.051539343 158:0.1791549 159:0.084625013 160:0.19532779 161:0.15392981 162:0.2397242 163:0.22185998 164:0.032476559 165:0.080444276 166:0.047194216 167:0.087780178 168:0.066969834 169:0.2397242 170:0.2397242 171:0.2397242 172:0.2397242 173:0.1014214 174:0.099015966 175:0.070791826 176:0.069432043 177:0.054007787 178:0.16153818 179:0.16828659 180:0.2397242 181:0.27168226 182:0.073743872 183:0.051168587 184:0.048203059 185:0.12067184 186:0.067025408 187:0.19284433 188:0.15026574 189:0.27168226 190:0.27168226 191:0.076954477 192:0.038019586 193:0.035301886 194:0.15440892 195:0.14436015 196:0.2212729 197:0.09575399 198:0.27168226 199:0.27168226 200:0.10099207 201:0.039316777 202:0.053664267 203:0.054148287 204:0.04191843 205:0.14972028 206:0.14620601 207:0.27168226 208:0.27168226 209:0.063908264 210:0.038063481 211:0.024828013 212:0.27168226 213:0.086174056 214:0.1996187 215:0.12579784 216:0.27168226 
0.1634402670405112 1.070144643668161 1:0.24907306 2:0.10518902 3:0.16499817 4:0.10547516 5:0.27278244 6:0.070340134 7:0.042251594 8:0.16551457 9:0.13553309 10:0.27278244 11:0.058575619 12:0.17174836 13:0.0029398922 14:0.27278244 15:0.12533748 16:0.10472825 17:0.21814531 18:0.13043636 19:0.16900486 20:0.055914726 21:0.075797364 22:0.072989404 23:0.27278244 24:0.027172651 25:0.084844954 26:0.051486954 27:0.10238142 28:0.27278244 29:0.020346729 30:0.038803179 31:0.00067843671 32:0.27278244 33:0.12266798 34:0.27278244 35:0.18173654 36:0.27278244 37:0.17686377 38:0.025911819 39:0.05292616 40:0.0044584307 41:0.25439233 42:0.035806894 43:0.047396734 44:0.078971051 45:0.10018864 46:0.065116651 47:0.0016268489 48:0 49:0.0098085469 50:0.01896688 51:0.0030031595 52:0.015570411 53:0.0068298941 54:0.064478673 55:0.31110427 56:0.062825821 57:0.023792984 58:0.087943994 59:0.31110427 60:0.11105338 61:0.1865454 62:0.21022795 63:0.31110427 64:0.31110427 65:0.077736378 66:0.020924211 67:0.24710633 68:0.31110427 69:0.072784632 70:0.26703861 71:0.20001389 72:0.31110427 73:0.042162132 74:0.00041516425 75:0 76:0.0041269069 77:0.008101874 78:0.0011230217 79:0.014858598 80:0 81:0.041999318 82:0.0080432575 83:0 84:0 85:0 86:0 87:0 88:0 89:0 90:0.0080432575 91:0.35992295 92:0.027423222 93:0.021605738 94:0.16681759 95:0.35992295 96:0.079647675 97:0.35992295 98:0.26189893 99:0.35992295 100:0.35992295 101:0.08718887 102:0.030289106 103:0.022387668 104:0.073292933 105:0.069130443 106:0.17115282 107:0.25042874 108:0.35992295 109:0.10218369 110:0.05267537 111:0.035411857 112:0.020866925 113:0.28841335 114:0.027085604 115:0.071610332 116:0.060900748 117:0.073482022 118:0.28841335 119:0 120:0 121:0 122:0.26821968 123:0.13946991 124:0.26575288 125:0.18800561 126:0.28841335 127:0.28841335 128:0.0075960658 129:0.013537982 130:0.027691633 131:0.17175306 132:0.03965158 133:0.16268229 134:0.27062812 135:0.28841335 136:0.28841335 137:0.1099919 138:0.0031241495 139:0.006390376 140:0.092459932 141:0.049216539 142:0.12790261 143:0.12782282 144:0.28841335 145:0.27912259 146:0.050653432 147:0.017247114 148:0.079827823 149:0.25674674 150:0.091506913 151:0.081145518 152:0.12439211 153:0.27912259 154:0.27912259 155:0.074939497 156:0.03794365 157:0.23460695 158:0.27912259 159:0.079982191 160:0.21247625 161:0.22820744 162:0.27912259 163:0.23798971 164:0.08905454 165:0.010661705 166:0.012875368 167:0.068945497 168:0.050529342 169:0.095277764 170:0.072117724 171:0.27912259 172:0.21486309 173:0.11889748 174:0.02349926 175:0.0272248 176:0.11528264 177:0.0426629 178:0.12478949 179:0.17601943 180:0.2208021 181:0.2673865 182:0.016868124 183:0.018836666 184:0.086664885 185:0.24717797 186:0.059250455 187:0.24328579 188:0.22773989 189:0.2673865 190:0.2673865 191:0.088873692 192:0.034228772 193:0.019518379 194:0.10898548 195:0.06502419 196:0.1256004 197:0.2673865 198:0.2673865 199:0.18358991 200:0.10771889 201:0.021621576 202:0.010048861 203:0.14425905 204:0.028983794 205:0.057846244 206:0.17951432 207:0.18051589 208:0.2673865 209:0.11699798 210:0.052896515 211:0.022162886 212:0.2673865 213:0.03877382 214:0.047218904 215:0.23561212 216:0.24455327 
0.02962500008504334 0 1:0.18985201 2:0.20500275 3:0.078699097 4:0.18320039 5:0.30471674 6:0.0085781133 7:0.01896604 8:0.026531467 9:0.126094 10:0.11580617 11:0.13593426 12:0.04434995 13:0.097100168 14:0.30471674 15:0.011941006 16:0.032011572 17:0.03411188 18:0.094279848 19:0.30471674 20:0.11686869 21:0.012611602 22:0.14099495 23:0.30471674 24:0.020049632 25:0.16575356 26:0.0037320319 27:0.24951993 28:0.30471674 29:0.075805992 30:0.012102226 31:0.028438142 32:0.30471674 33:0.0257781 34:0.16248129 35:0.002902691 36:0.30471674 37:0.073368438 38:0.039619129 39:0.015203224 40:0.032203801 41:0.18329096 42:0.0045270799 43:0.011559964 44:0.0089790951 45:0.065898456 46:0.05589021 47:0 48:0 49:0 50:0 51:0 52:0 53:0 54:0.05589021 55:0.48357949 56:0.0091428747 57:0.0049470356 58:0.011017418 59:0.079729788 60:0.0067854361 61:0.022361862 62:0 63:0.48357949 64:0.48357949 65:0 66:0 67:0 68:0 69:0 70:0 71:0 72:0.48357949 73:0.048452891 74:0.0037639863 75:0 76:0 77:0 78:0 79:0 80:0 81:0.047868662 82:0.053072903 83:0.016310608 84:0 85:0 86:0 87:0 88:0 89:0.012934729 90:0.052548926 91:0.44728133 92:0.056459796 93:0 94:0 95:0.024046436 96:0 97:0 98:0 99:0.44728133 100:0.44728133 101:0.24465908 102:0 103:0 104:0.26837108 105:0 106:0 107:0.22131011 108:0.44728133 109:0.30945113 110:0.059636358 111:0.0074250288 112:0.051804472 113:0.30945113 114:0.019395981 115:0.20342115 116:0.0054321745 117:0.29197106 118:0.30945113 119:0.026420601 120:0 121:0 122:0.15694997 123:0.024937691 124:0.18784615 125:0.0042250245 126:0.30945113 127:0.30891648 128:0.014716838 129:0.0047171838 130:0.0070618349 131:0.20216323 132:0.0018677369 133:0.015103307 134:0.017585436 135:0.30092832 136:0.30945113 137:0 138:0 139:0 140:0.0043432675 141:0.00036932941 142:0.007523065 143:0.0002816683 144:0.30945113 145:0.35382837 146:0 147:0 148:0 149:0.010661033 150:0.0031111129 151:0.0093566794 152:0 153:0.35382837 154:0.35382837 155:0 156:0 157:0 158:0 159:0 160:0 161:0 162:0.35382837 163:0.35006174 164:0 165:0 166:0 167:0.0003744167 168:4.607586e-05 169:0 170:0 171:0.35006174 172:0.35382837 173:0 174:0 175:0 176:0.00032319044 177:0 178:0 179:0 180:0.35382837 181:0.32400542 182:0.021951502 183:0 184:0 185:0.015414267 186:0 187:0 188:0 189:0.32400542 190:0.32400542 191:0.095123172 192:0 193:0 194:0.24411288 195:0 196:0 197:0.10427606 198:0.32400542 199:0.31831428 200:0.038389232 201:0.048802458 202:0.019899311 203:0.033045661 204:0.0057463618 205:0.00079366041 206:0.0025712443 207:0.31369275 208:0.32400542 209:0.11161692 210:0.086004265 211:0.060398377 212:0.23176238 213:0.046242252 214:0.011904907 215:0.045224272 216:0.32400542 
0.2993927596595388 6.95304950246982 1:0.082776278 2:0.087232754 3:0.19972776 4:0.053554047 5:0.2517184 6:0.042916458 7:0.18844101 8:0.18242371 9:0.14308682 10:0.059817225 11:0.027635891 12:0.10535528 13:0.064303838 14:0.28517231 15:0.075822592 16:0.21677543 17:0.24698748 18:0.13033891 19:0.092769928 20:0.01924818 21:0.020579213 22:0.010357269 23:0.093341976 24:0.035828803 25:0.28517231 26:0.28517231 27:0.28517231 28:0.096981682 29:0.020369146 30:0.02466261 31:0.0097573251 32:0.15004878 33:0.11554253 34:0.28517231 35:0.28517231 36:0.28517231 37:0.073729485 38:0.011226108 39:0.049887903 40:0.019258518 41:0.22000507 42:0.028826367 43:0.21192689 44:0.26736411 45:0.17540221 46:0.041357663 47:0 48:0 49:0 50:0 51:0 52:0.098742753 53:0.1008494 54:0.077612273 55:0.17224225 56:0.0054794536 57:0.0092083933 58:0.0012839013 59:0.062071104 60:0.10823977 61:0.33848807 62:0.33848807 63:0.33848807 64:0.17419754 65:0 66:0 67:0 68:0.0055089747 69:0.031192737 70:0.33848807 71:0.33848807 72:0.33848807 73:0.022669185 74:0 75:0 76:0 77:0 78:0 79:0.056519855 80:0.05373738 81:0.058360048 82:0.00057756761 83:0 84:0 85:0 86:0 87:0 88:0.00035038401 89:0.0009570393 90:0.00057756761 91:0.24024604 92:0 93:0 94:0 95:0 96:0 97:0.41139188 98:0.41139188 99:0.41139188 100:0.13353589 101:0 102:0 103:0 104:0 105:0 106:0.36921635 107:0.41139188 108:0.31151691 109:0.09659303 110:0.0057434998 111:0.0034434469 112:0.0020511004 113:0.0058826627 114:0.016568653 115:0.35377428 116:0.35377428 117:0.3474735 118:0.15939419 119:0.0073844995 120:0.0036945636 121:0.0015953003 122:0.037344351 123:0.098710828 124:0.35377428 125:0.35377428 126:0.35377428 127:0.016299268 128:0 129:0 130:0 131:0 132:0 133:0.033130437 134:0.071530893 135:0.039817542 136:0.067370847 137:0 138:0 139:0 140:0.00041251141 141:0.0036567005 142:0.19287072 143:0.35377428 144:0.16931991 145:0.085551396 146:0.00045851688 147:0.00015973594 148:0 149:0.015230174 150:0.056764964 151:0.3002356 152:0.3002356 153:0.27510494 154:0.11415605 155:0 156:0 157:0.0021909617 158:0.0058789095 159:0.031495299 160:0.3002356 161:0.3002356 162:0.3002356 163:0.053269442 164:0 165:0 166:0 167:0.00051446242 168:0.0066739372 169:0.20151411 170:0.3002356 171:0.1584574 172:0.12807295 173:0 174:0 175:0.0028169507 176:0.0032825482 177:0.01369441 178:0.3002356 179:0.3002356 180:0.3002356 181:0.082501337 182:0 183:0 184:0.0034514507 185:0.0037354014 186:0.013063106 187:0.29742596 188:0.29742596 189:0.23918243 190:0.07923194 191:0 192:0 193:0.0007964886 194:0.00086201564 195:0.011163431 196:0.2576181 197:0.29742596 198:0.19354191 199:0.12254177 200:0 201:0 202:0.0044375793 203:0.006280507 204:0.029017422 205:0.29742596 206:0.29742596 207:0.28456146 208:0.12084508 209:0.0037888789 210:0 211:0.0010240567 212:0.017985983 213:0.055268612 214:0.29742596 215:0.29742596 216:0.29742596 
0.1136893264387775 0.6575104890597709 1:0.1071591 2:0.13649113 3:0.10505851 4:0.12571621 5:0.20101705 6:0.0086003533 7:0.11142722 8:0.048835993 9:0.094487704 10:0.25845695 11:0.066943526 12:0.01169192 13:0.090269558 14:0.25845695 15:0.024181658 16:0.25845695 17:0.15225922 18:0.24224871 19:0.12470784 20:0.020914242 21:0.014000496 22:0.015152782 23:0.15717304 24:0.10383462 25:0.25845695 26:0.25845695 27:0.22700235 28:0.25845695 29:0.027506489 30:0.0026026971 31:0.019777436 32:0.25845695 33:0.091914006 34:0.25845695 35:0.25845695 36:0.25845695 37:0.19667184 38:0.026969731 39:0.0042163646 40:0.023638189 41:0.26534745 42:0.029806562 43:0.25007498 44:0.11551291 45:0.19561957 46:0.047068834 47:0.00031775553 48:0.0026047404 49:0 50:0.022669431 51:0.018350776 52:0.053991359 53:0.05936132 54:0.068870746 55:0.28704813 56:0.014359831 57:0.018459376 58:0.0055526546 59:0.28704813 60:0.13302231 61:0.28704813 62:0.28704813 63:0.28704813 64:0.20740728 65:0.008034532 66:0.065861344 67:0 68:0.083177015 69:0.16019742 70:0.28704813 71:0.28704813 72:0.28704813 73:0.02291555 74:0.00016777161 75:0.0013752757 76:0 77:0 78:0.00079649192 79:0.010498318 80:0.040989216 81:0.034600448 82:0.001581717 83:0 84:0 85:0 86:0 87:0 88:0.00016476437 89:0.00084850175 90:0.001581717 91:0.31319222 92:0.010250062 93:0.084022455 94:0 95:0.185091 96:0.31319222 97:0.31319222 98:0.31319222 99:0.31319222 100:0.2517792 101:0.00051556586 102:0.0042262217 103:0 104:0.2379829 105:0.22546586 106:0.30727682 107:0.31319222 108:0.31319222 109:0.17475066 110:0 111:0 112:0.001561049 113:0.12994474 114:0.24867785 115:0.26244041 116:0.26244041 117:0.26244041 118:0.24097684 119:0 120:0.0011653294 121:0.0093217129 122:0.19728823 123:0.22702667 124:0.26244041 125:0.26244041 126:0.26244041 127:0.076670796 128:0 129:0 130:0.0012141493 131:0.04787932 132:0.10466841 133:0.11797325 134:0.13586716 135:0.14351048 136:0.14352204 137:0 138:0.002563725 139:0.010887082 140:0.082065225 141:0.14621124 142:0.2599088 143:0.26244041 144:0.26244041 145:0.14913487 146:0.00088714663 147:0.011066829 148:0.010134894 149:0.090721123 150:0.083682105 151:0.25376558 152:0.25376558 153:0.25376558 154:0.14905506 155:0.0041581481 156:0.037036855 157:0.0064763981 158:0.078335099 159:0.10372867 160:0.25376558 161:0.25376558 162:0.25376558 163:0.12107614 164:0 165:0.0083481511 166:0.019725252 167:0.076742902 168:0.072025776 169:0.24319921 170:0.25376558 171:0.25376558 172:0.23158307 173:0.00014709504 174:0.0076987813 175:0.019369492 176:0.25376558 177:0.083959632 178:0.25376558 179:0.25376558 180:0.25376558 181:0.13654914 182:0.0024492799 183:0.020077379 184:0 185:0.12933877 186:0.14690752 187:0.22975476 188:0.2386854 189:0.2276146 190:0.15638077 191:0.0084201675 192:0.0011178561 193:0 194:0.17949401 195:0.15185989 196:0.2386854 197:0.2386854 198:0.2386854 199:0.19481952 200:0.00013636968 201:0.0011178561 202:0.013552189 203:0.2386854 204:0.081263252 205:0.2386854 206:0.2386854 207:0.2386854 208:0.19497399 209:0.01065969 210:7.4523741e-05 211:0.019824991 212:0.17722701 213:0.12039496 214:0.2386854 215:0.2386854 216:0.2386854 
