svm_type c_svc
kernel_type rbf
gamma 1
nr_class 3
total_sv 865
rho -0.192342 1.54014 1.06486
label 1 -1 0
nr_sv 222 100 543
SV
0.03028248212811667 1.650179837554083 1:0.15422346 2:0.095718823 3:0.079686046 4:0.10334921 5:0.21141212 6:0.20555028 7:0.06572102 8:0.094621636 9:0.10687485 10:0.15740214 11:0.034289405 12:0.049088746 13:0.050088644 14:0.095825315 15:0.070921637 16:0.021339988 17:0.034525078 18:0.11235808 19:0.26681253 20:0.14998969 21:0.26681253 22:0.26681253 23:0.26681253 24:0.17629932 25:0.081676155 26:0.18414678 27:0.22696306 28:0.26681253 29:0.14833024 30:0.26617491 31:0.26681253 32:0.12688442 33:0.077461995 34:0.049477238 35:0.12234473 36:0.26681253 37:0.21251348 38:0.058223613 39:0.090799943 40:0.096057825 41:0.044991974 42:0.0050119106 43:0.013429936 44:0.0039310637 45:0.13022177 46:0.264725 47:0.13877216 48:0.16120897 49:0.20597142 50:0.11687249 51:0.025471278 52:0.014412885 53:0.0057964474 54:0.264725 55:0.264725 56:0.18646556 57:0.22803576 58:0.264725 59:0.061429843 60:0.018335184 61:0.04619455 62:0.052804753 63:0.264725 64:0.264725 65:0.25429475 66:0.264725 67:0.264725 68:0.098497473 69:0.036231536 70:0.052647624 71:0.070289619 72:0.264725 73:0.24806122 74:0.13180131 75:0.13147773 76:0.19518216 77:0.11568496 78:0.030466642 79:0.0038233413 80:0.013843207 81:0.24806122 82:0.24806122 83:0.19529991 84:0.1307793 85:0.24806122 86:0.16298582 87:0.059100024 88:0.0038486631 89:0.040189967 90:0.24806122 91:0.24806122 92:0.18678452 93:0.18917602 94:0.24806122 95:0.072591655 96:0.041543588 97:0.015572666 98:0.06201344 99:0.24806122 100:0.24806122 101:0.19474497 102:0.16140421 103:0.21668704 104:0.10045157 105:0.053611409 106:0.0018616619 107:0.048117854 108:0.24806122 109:0.18978661 110:0.069116555 111:0.23789394 112:0.24321206 113:0.24321206 114:0.042232946 115:0.019039612 116:0.05168182 117:0.12619175 118:0.24321206 119:0.11537115 120:0.2289972 121:0.2063605 122:0.076925486 123:0.026472801 124:0.01657572 125:0.04135903 126:0.24321206 127:0.24321206 128:0.11724554 129:0.16450962 130:0.22524109 131:0.24321206 132:0.042209931 133:0.0039585256 134:0.052688695 135:0.24321206 136:0.24321206 137:0.15166713 138:0.18990089 139:0.23121908 140:0.14012922 141:0.040387377 142:0.0019345199 143:0.014674206 144:0.24321206 145:0.25383887 146:0.1944416 147:0.24205123 148:0.25383887 149:0.090289786 150:0.028097421 151:0.033701893 152:0.04524393 153:0.25383887 154:0.25383887 155:0.23140135 156:0.25383887 157:0.25383887 158:0.084987588 159:0.030102802 160:0.05077764 161:0.059404299 162:0.24462973 163:0.25383887 164:0.15536262 165:0.1769968 166:0.20167518 167:0.13739322 168:0.029588988 169:0.0082313288 170:0.0061606597 171:0.25383887 172:0.25383887 173:0.087635845 174:0.12844618 175:0.13015491 176:0.073918499 177:0.01072108 178:0.015039395 179:0.0041589239 180:0.13590732 181:0.3087033 182:0.3087033 183:0.3087033 184:0.3087033 185:0.12730642 186:0.083998188 187:0.049959294 188:0.1321394 189:0.3087033 190:0.3087033 191:0.29523686 192:0.18815961 193:0.23839524 194:0.10071158 195:0.063491821 196:0.0024579167 197:0.058129877 198:0.3087033 199:0.20694844 200:0.085985266 201:0.10324827 202:0.10608785 203:0.063334778 204:0.0077033918 205:0.010145304 206:0.0057189618 207:0.10257468 208:0.037928227 209:0.020073017 210:0.0046762261 211:0.011160471 212:0.010636786 213:0 214:0.00012017416 215:0.00026589484 216:0.026203411 
0.1469491208335257 1.870014040528934 1:0.10658298 2:0.19842845 3:0.094586015 4:0.14372791 5:0.25734332 6:0.1388922 7:0.083495565 8:0.17454727 9:0.11208145 10:0.14650261 11:0.076405212 12:0.019949447 13:0.092820659 14:0.24526112 15:0.10435732 16:0.055659108 17:0.11962491 18:0.14313896 19:0.13539058 20:0.16158128 21:0.10866383 22:0.14678577 23:0.25734332 24:0.13690469 25:0.12340959 26:0.13128105 27:0.12625556 28:0.25734332 29:0.23145758 30:0.13509232 31:0.25581607 32:0.25734332 33:0.15237768 34:0.17705677 35:0.18612489 36:0.25734332 37:0.23330475 38:0.082536936 39:0.044795774 40:0.093553662 41:0.081381992 42:0.024268448 43:0.0063860887 44:0.015118381 45:0.20625007 46:0.26164171 47:0.1687222 48:0.11285433 49:0.15588556 50:0.18966199 51:0.046774138 52:0.0049773515 53:0.01547887 54:0.26164171 55:0.26164171 56:0.20216241 57:0.19638415 58:0.21308739 59:0.094171554 60:0.07482817 61:0.07160864 62:0.069717847 63:0.26164171 64:0.26164171 65:0.26164171 66:0.20386572 67:0.26164171 68:0.12574194 69:0.064399347 70:0.091967098 71:0.067142256 72:0.26164171 73:0.24573271 74:0.17488192 75:0.10372035 76:0.16734526 77:0.18761869 78:0.045259714 79:0.0043123332 80:0.018087756 81:0.24573271 82:0.24573271 83:0.23290572 84:0.13335314 85:0.23737206 86:0.24573271 87:0.054988399 88:0.011534447 89:0.034831766 90:0.24573271 91:0.24573271 92:0.2096436 93:0.10824478 94:0.21508282 95:0.097153552 96:0.030609278 97:0.056737367 98:0.057296339 99:0.24573271 100:0.24573271 101:0.15364538 102:0.16099028 103:0.15356241 104:0.13559571 105:0.055418774 106:0.014931283 107:0.028396109 108:0.24573271 109:0.18516648 110:0.10607419 111:0.06860856 112:0.092903055 113:0.26268753 114:0.039406803 115:0.062771842 116:0.057159942 117:0.17331274 118:0.26268753 119:0.19550391 120:0.15965019 121:0.17916729 122:0.19950375 123:0.083526932 124:0.098705858 125:0.092637502 126:0.26268753 127:0.26268753 128:0.15866119 129:0.11668625 130:0.15161787 131:0.24311087 132:0.04062511 133:0.0030395237 134:0.018056523 135:0.26268753 136:0.26268753 137:0.1809247 138:0.1330239 139:0.15639573 140:0.23545139 141:0.04756625 142:0.0048653213 143:0.016603786 144:0.26268753 145:0.26645112 146:0.24958037 147:0.24611039 148:0.25912267 149:0.1267962 150:0.091203146 151:0.074908853 152:0.075090498 153:0.26645112 154:0.26645112 155:0.26645112 156:0.15974228 157:0.26645112 158:0.087871604 159:0.038546812 160:0.1018561 161:0.078869991 162:0.26645112 163:0.26645112 164:0.15068971 165:0.09016864 166:0.15624276 167:0.15341051 168:0.039005671 169:0.0061067832 170:0.018504707 171:0.26645112 172:0.17445439 173:0.083796255 174:0.021573253 175:0.10335629 176:0.057091136 177:0.010339675 178:0.0058907722 179:0.015673859 180:0.13950263 181:0.33657485 182:0.33657485 183:0.24658509 184:0.33657485 185:0.17011975 186:0.021556092 187:0.18529887 188:0.12194455 189:0.33657485 190:0.33657485 191:0.18593064 192:0.2121124 193:0.16698238 194:0.13593312 195:0.045303863 196:0.03288034 197:0.038444959 198:0.33657485 199:0.14349142 200:0.070516229 201:0.0083787143 202:0.076187573 203:0.046726245 204:0 205:0.0046357755 206:0.0090280548 207:0.11271401 208:0.016395263 209:0.0061450959 210:0.0015680923 211:0.0055603506 212:0.0083619161 213:0 214:0 215:0 216:0.012388273 
0 0.5064242794960281 1:0.2530652 2:0.13584733 3:0.068319976 4:0.10500515 5:0.2026982 6:0.097927526 7:0.072850466 8:0.12854654 9:0.2530652 10:0.2530652 11:0.048835266 12:0.037965816 13:0.045293853 14:0.19879109 15:0.12754896 16:0.11106455 17:0.14355324 18:0.2530652 19:0.25133905 20:0.15548241 21:0.10416581 22:0.1603559 23:0.2530652 24:0.1371579 25:0.095311917 26:0.11682656 27:0.22132468 28:0.2530652 29:0.091065384 30:0.060802974 31:0.09158881 32:0.15762159 33:0.19921522 34:0.15065135 35:0.16083471 36:0.2530652 37:0.25985244 38:0.092705801 39:0.081605412 40:0.086513519 41:0.099737898 42:0.043619443 43:0.017089115 44:0.025799727 45:0.24447902 46:0.28352511 47:0.15251088 48:0.097441055 49:0.17632326 50:0.19914681 51:0.02084 52:0 53:0.0035482876 54:0.28352511 55:0.28352511 56:0.14129852 57:0.11289066 58:0.18554206 59:0.10754875 60:0.063528359 61:0.024046687 62:0.049582645 63:0.28352511 64:0.28352511 65:0.20493007 66:0.13933444 67:0.26877496 68:0.16182183 69:0.036509622 70:0.017556958 71:0.028372705 72:0.28352511 73:0.26226023 74:0.13223881 75:0.085544817 76:0.1549716 77:0.17490402 78:0.014086592 79:0.0040706545 80:0.0030399598 81:0.26226023 82:0.26226023 83:0.17464827 84:0.15826593 85:0.16123877 86:0.17424814 87:0.046574414 88:0.018684287 89:0.025315566 90:0.26226023 91:0.26226023 92:0.20742191 93:0.18322305 94:0.19305806 95:0.10038415 96:0.025693862 97:0.06133977 98:0.039724018 99:0.26226023 100:0.26226023 101:0.20843591 102:0.19947824 103:0.17004713 104:0.061982453 105:0.026425952 106:0.061053887 107:0.0454388 108:0.26226023 109:0.14448738 110:0.089511767 111:0.078536436 112:0.083795816 113:0.17797795 114:0.034812141 115:0.017987728 116:0.019082094 117:0.13182373 118:0.29990831 119:0.099588536 120:0.051623128 121:0.10919502 122:0.13479277 123:0.054029156 124:0.029055558 125:0.038143422 126:0.29990831 127:0.29990831 128:0.17809027 129:0.12677783 130:0.17860454 131:0.23721649 132:0.05059763 133:0.0048048026 134:0.016909987 135:0.29990831 136:0.29990831 137:0.18374443 138:0.10790066 139:0.23113048 140:0.28034857 141:0.012507809 142:0 143:0.00081167981 144:0.29990831 145:0.28410733 146:0.12256633 147:0.074294761 148:0.17373873 149:0.12894896 150:0.026852386 151:0.0049312585 152:0.016661322 153:0.28410733 154:0.28410733 155:0.21306941 156:0.18292667 157:0.23597209 158:0.10264561 159:0.060680404 160:0.025772307 161:0.048503332 162:0.28410733 163:0.28410733 164:0.1388239 165:0.08578141 166:0.15943769 167:0.18706468 168:0.01637866 169:0 170:0.0011666495 171:0.28410733 172:0.28410733 173:0.11964438 174:0.10976018 175:0.098191373 176:0.077928968 177:0.039143238 178:0.0045343768 179:0.018040873 180:0.28410733 181:0.29246852 182:0.29246852 183:0.29246852 184:0.29246852 185:0.10968236 186:0.085540153 187:0.13857467 188:0.11295187 189:0.29246852 190:0.29246852 191:0.25596124 192:0.24715231 193:0.23811902 194:0.059292775 195:0.0310326 196:0.091996878 197:0.059853651 198:0.29246852 199:0.25783026 200:0.10915746 201:0.13770951 202:0.091552623 203:0.055857919 204:0.034869488 205:0.015912415 206:0.02377066 207:0.17378367 208:0.060091373 209:0.018269014 210:0.021744099 211:0.023457834 212:0.014547845 213:0.0023674513 214:0.0043589431 215:0.0013151222 216:0.029667841 
0 1.28522099104658 1:0.18440777 2:0.08909557 3:0.2065753 4:0.15175386 5:0.30208904 6:0.04205218 7:0.0402341 8:0.043540265 9:0.12696092 10:0.30208904 11:0.11377572 12:0.092114292 13:0.13775972 14:0.30208904 15:0.07245928 16:0.044407353 17:0.095102474 18:0.30208904 19:0.104237 20:0.090251178 21:0.10326275 22:0.082448907 23:0.30208904 24:0.025233107 25:0.022783194 26:0.031630229 27:0.076011233 28:0.28769743 29:0.082283787 30:0.082230389 31:0.12644453 32:0.30208904 33:0.080495842 34:0.052842516 35:0.080532491 36:0.30208904 37:0.27203357 38:0.16200486 39:0.1968984 40:0.14114523 41:0.24153508 42:0.063446634 43:0.026152136 44:0.06970343 45:0.27203357 46:0.27203357 47:0.19466409 48:0.24798939 49:0.15040745 50:0.054535873 51:0.075636432 52:0.026709322 53:0.067409523 54:0.27203357 55:0.27203357 56:0.13417727 57:0.11991261 58:0.11711235 59:0.10981931 60:0.053635269 61:0.019529184 62:0.038744114 63:0.27203357 64:0.27203357 65:0.11225845 66:0.12577805 67:0.12579733 68:0.090846136 69:0.017923428 70:0.0078110192 71:0.025541171 72:0.27203357 73:0.26039287 74:0.14875913 75:0.11342604 76:0.16947114 77:0.10070042 78:0.041322973 79:0.0095027005 80:0.017882349 81:0.26039287 82:0.26039287 83:0.15258589 84:0.096827596 85:0.1417805 86:0.26039287 87:0.035948586 88:0.034681305 89:0.059750531 90:0.26039287 91:0.26039287 92:0.13933501 93:0.12858413 94:0.16150604 95:0.078460999 96:0.018475233 97:0.033750389 98:0.018675892 99:0.26039287 100:0.26039287 101:0.26039287 102:0.23053275 103:0.21341352 104:0.067611881 105:0.030806266 106:0.09868937 107:0.024221897 108:0.26039287 109:0.07842271 110:0.051067606 111:0.04113505 112:0.057428803 113:0.15753907 114:0.0081476187 115:0.0064411829 116:0.0058047576 117:0.057679575 118:0.27883029 119:0.066126987 120:0.10920615 121:0.077387758 122:0.063781887 123:0.031056277 124:0.022952681 125:0.034934845 126:0.21190827 127:0.29212818 128:0.18295446 129:0.12178995 130:0.22889084 131:0.29212818 132:0.043128241 133:0.012384509 134:0.014950609 135:0.29212818 136:0.29212818 137:0.29212818 138:0.29212818 139:0.26533246 140:0.1095629 141:0.10907239 142:0.034396566 143:0.086810745 144:0.29212818 145:0.26961231 146:0.1155801 147:0.11963311 148:0.086385824 149:0.04911577 150:0.039913207 151:0.012911315 152:0.028526273 153:0.25043061 154:0.26961231 155:0.18753909 156:0.14567813 157:0.23232685 158:0.1767415 159:0.038417913 160:0.0034647598 161:0.017802766 162:0.26961231 163:0.26961231 164:0.19081874 165:0.26658961 166:0.14200787 167:0.048080098 168:0.073358744 169:0.029535204 170:0.074541532 171:0.26961231 172:0.26961231 173:0.16184583 174:0.13423513 175:0.20224066 176:0.11487103 177:0.040391427 178:0.0076224715 179:0.021328129 180:0.26961231 181:0.28739148 182:0.24772121 183:0.2381006 184:0.28739148 185:0.21391669 186:0.03678165 187:0.038700208 188:0.034870129 189:0.28739148 190:0.28739148 191:0.28383559 192:0.24193874 193:0.21644218 194:0.061103601 195:0.038274348 196:0.10924579 197:0.025045307 198:0.28739148 199:0.28739148 200:0.10470447 201:0.085680589 202:0.12982275 203:0.11935289 204:0.012038082 205:0.0018267223 206:0.008046953 207:0.24273948 208:0.10238307 209:0.03512096 210:0.034109104 211:0.031397678 212:0.023452971 213:0.0038461369 214:0.0040187892 215:0.0036577058 216:0.083532058 
0 1.146551516202538 1:0.23510413 2:0.16297753 3:0.14810085 4:0.22406214 5:0.13379891 6:0.063145213 7:0.042293005 8:0.065442562 9:0.22903377 10:0.15842667 11:0.033052638 12:0.042182483 13:0.070110522 14:0.23510413 15:0.20886172 16:0.22114563 17:0.16601117 18:0.23510413 19:0.23510413 20:0.10384681 21:0.063711911 22:0.057651099 23:0.068814345 24:0.15482345 25:0.21789418 26:0.191303 27:0.23510413 28:0.17661004 29:0.02933784 30:0.035901506 31:0.032313213 32:0.23510413 33:0.19697374 34:0.21164559 35:0.17238468 36:0.23510413 37:0.053994428 38:0.0081309984 39:0.018979536 40:0.0079717478 41:0.26366958 42:0.26366958 43:0.26366958 44:0.14066775 45:0.14202166 46:0.0046634912 47:0.0018763843 48:0.0042120991 49:0 50:0.14359798 51:0.084028669 52:0.042890243 53:0.023789911 54:0.013301264 55:0.1613573 56:0.042169411 57:0.059585098 58:0.022707503 59:0.26366958 60:0.26366958 61:0.26366958 62:0.26366958 63:0.26169562 64:0.20250364 65:0.023709096 66:0.049254261 67:0.025146579 68:0.19681135 69:0.24086052 70:0.23718993 71:0.26366958 72:0.26366958 73:0.0077772527 74:0 75:0 76:0 77:0.0044103973 78:0.0051042661 79:9.2912982e-05 80:0 81:0.0077772527 82:0 83:0 84:0 85:0 86:0 87:0 88:0 89:0 90:0 91:0.36369139 92:0.0013140832 93:0.037485447 94:0.067860194 95:0.26668781 96:0.36369139 97:0.36369139 98:0.36369139 99:0.36369139 100:0.27790964 101:0 102:0.0010771258 103:0.0031212971 104:0.11899674 105:0.14833094 106:0.051061422 107:0.098001793 108:0.36344174 109:0.27198675 110:0.062607676 111:0.049864665 112:0.046731785 113:0.031136798 114:0.17429489 115:0.25727001 116:0.24386302 117:0.27198675 118:0.27198675 119:0.037592076 120:0.063233927 121:0.093387879 122:0.20485324 123:0.27198675 124:0.27198675 125:0.27198675 126:0.27198675 127:0.079997934 128:0.0022468669 129:0.0089495899 130:0.012883855 131:0.010506674 132:0.050366219 133:0.056791294 134:0.049756378 135:0.13860753 136:0.27198675 137:0.0051970496 138:0.019611195 139:0.053053476 140:0.04970878 141:0.16132942 142:0.1403418 143:0.1554558 144:0.27198675 145:0.23993163 146:0.024530059 147:0.039254081 148:0.033498611 149:0.15955776 150:0.19220182 151:0.20825373 152:0.19913265 153:0.2498991 154:0.2498991 155:0.013033079 156:0.038832281 157:0.034359843 158:0.092861831 159:0.22891858 160:0.18905649 161:0.22973639 162:0.2498991 163:0.2484901 164:0.0032352789 165:0.010313983 166:0.020021336 167:0.100956 168:0.13183264 169:0.10007044 170:0.13190126 171:0.2498991 172:0.2498991 173:0.003665355 174:0.012529008 175:0.026592635 176:0.14654925 177:0.2498991 178:0.12828626 179:0.21361822 180:0.2498991 181:0.25300553 182:0.00029717066 183:0.0091465069 184:0.024906239 185:0.080095924 186:0.1613899 187:0.08585836 188:0.12921359 189:0.27270171 190:0.16956204 191:0 192:0.00040160268 193:0.0057368721 194:0.085334897 195:0.10382573 196:0.058307473 197:0.074356079 198:0.2504749 199:0.27270171 200:0.016608203 201:0.0081219776 202:0.044244207 203:0.15301844 204:0.27270171 205:0.12869553 206:0.22683018 207:0.27270171 208:0.27270171 209:0.025489872 210:0.0071312599 211:0.035391003 212:0.23381358 213:0.27270171 214:0.16818734 215:0.24148671 216:0.27270171 
0 1.181333082012722 1:0.17674787 2:0.159509 3:0.1383668 4:0.094691068 5:0.086209312 6:0.065783687 7:0.11300751 8:0.057260338 9:0.14010519 10:0.099199563 11:0.041430067 12:0.0087366058 13:0.0029404822 14:0.24107669 15:0.21406493 16:0.24107669 17:0.24107669 18:0.1374578 19:0.24107669 20:0.029467884 21:0.0063966792 22:0.13495217 23:0.072917603 24:0.1921709 25:0.24107669 26:0.24107669 27:0.24107669 28:0.23721005 29:0.054516103 30:0.0035910709 31:0.022123795 32:0.1690814 33:0.24107669 34:0.24107669 35:0.24107669 36:0.24107669 37:0.076935224 38:0.02674455 39:0.0013757275 40:7.8066616e-05 41:0.19681978 42:0.17728508 43:0.22185829 44:0.23739953 45:0.10746608 46:0.047256444 47:0.0065491712 48:0.0030266005 49:0.00017174656 50:0.01182746 51:0.026576683 52:0.055346232 53:0.069785856 54:0.084148228 55:0.27513942 56:0.070157737 57:0.026298212 58:0.0081964303 59:0.10145904 60:0.28158787 61:0.28158787 62:0.28158787 63:0.28158787 64:0.22044913 65:0.034732167 66:0.070788279 67:0.032361805 68:0.05687657 69:0.28158787 70:0.28158787 71:0.28158787 72:0.28158787 73:0.022194929 74:0 75:0.002016156 76:0.00011440818 77:0.0045840084 78:0.013201665 79:0.010968701 80:0.038041409 81:0.061491139 82:0.00041598798 83:0 84:0 85:0 86:0.00064728188 87:0 88:0 89:0 90:0.0014126147 91:0.34963635 92:0.086794794 93:0.096741647 94:0.056719851 95:0.11542679 96:0.34963635 97:0.34963635 98:0.34963635 99:0.34963635 100:0.28407255 101:0.029943582 102:0.036140442 103:0.0072796256 104:0.015535791 105:0.16005814 106:0.30687517 107:0.14342982 108:0.34963635 109:0.27814817 110:0.032834265 111:0 112:0.11775964 113:0.034587704 114:0.1936436 115:0.27814817 116:0.27814817 117:0.27814817 118:0.27814817 119:0.078449726 120:0.029322432 121:0.043735661 122:0.062344775 123:0.27814817 124:0.27814817 125:0.27814817 126:0.27814817 127:0.074183747 128:0.0090095429 129:0 130:0.0045874924 131:0.0054242513 132:0.031127954 133:0.062021829 134:0.056493022 135:0.10091056 136:0.15519372 137:0.026433507 138:0.027863743 139:0.020473318 140:0.039736327 141:0.1688308 142:0.18857311 143:0.20409815 144:0.27814817 145:0.16329019 146:0.02742538 147:0.036388885 148:0.016838634 149:0.030180657 150:0.19720799 151:0.25058761 152:0.23548089 153:0.25058761 154:0.18795328 155:0.03423715 156:0.04313967 157:0.021898394 158:0.032825343 159:0.22807525 160:0.25058761 161:0.25058761 162:0.25058761 163:0.11749443 164:0.018862501 165:0.029634207 166:0.01233559 167:0.023709172 168:0.14358635 169:0.17478089 170:0.20128141 171:0.25058761 172:0.24756718 173:0.05111162 174:0.023085602 175:0.018377081 176:0.03673847 177:0.20635313 178:0.25058761 179:0.25058761 180:0.25058761 181:0.18185942 182:0.03754659 183:0.028476246 184:0.014465802 185:0.021178309 186:0.16566144 187:0.2593779 188:0.14519815 189:0.2593779 190:0.15776141 191:0.017476423 192:0.039235778 193:0.014849584 194:0.010281704 195:0.17701629 196:0.17722312 197:0.14894868 198:0.2593779 199:0.21506731 200:0.035645567 201:0.03585913 202:0.027578996 203:0.047255263 204:0.20910969 205:0.2593779 206:0.22196543 207:0.2593779 208:0.24273315 209:0.042491097 210:0.051371705 211:0.027801149 212:0.079697341 213:0.2593779 214:0.2593779 215:0.21780509 216:0.2593779 
0.1326038774345742 3.144099773923419 1:0.1650711 2:0.080116786 3:0.11325888 4:0.061436385 5:0.10793099 6:0.11443868 7:0.074294284 8:0.061593179 9:0.21505676 10:0.10635449 11:0.052475441 12:0.069649339 13:0.038137794 14:0.21201846 15:0.24822302 16:0.18953158 17:0.22334364 18:0.21706949 19:0.24822302 20:0.0016406018 21:0.030882969 22:0.083752692 23:0.048054975 24:0.24822302 25:0.19171904 26:0.22925073 27:0.24822302 28:0.24822302 29:0.0065379622 30:0.043367129 31:0.07862097 32:0.080417037 33:0.24822302 34:0.24822302 35:0.24822302 36:0.24822302 37:0.096453972 38:0.027725892 39:0.053708605 40:0.033760265 41:0.12543598 42:0.1982625 43:0.20586327 44:0.19517167 45:0.23841371 46:0.087529875 47:0.0067779915 48:0.0074014897 49:0.0096224556 50:0.021091051 51:0.069976881 52:0.070181504 53:0.050621953 54:0.19152211 55:0.27266622 56:0.019987443 57:0.041367013 58:0.06375131 59:0.076751187 60:0.27266622 61:0.27266622 62:0.27266622 63:0.27266622 64:0.27266622 65:0.028445812 66:0.044277836 67:0.040116146 68:0.045489371 69:0.27266622 70:0.23107827 71:0.25840387 72:0.27266622 73:0.09793099 74:0.0015213296 75:0.0061641643 76:0.0043683969 77:0.0083815409 78:0.049489584 79:0.026156725 80:0.038790457 81:0.15028474 82:0.0074418015 83:5.784769e-05 84:0.00089974917 85:0.00076676509 86:0.0019697186 87:0.011544089 88:0.0051455181 89:0.008538031 90:0.011218473 91:0.31677732 92:0.022819944 93:0.10374901 94:0.088612348 95:0.055239595 96:0.31677732 97:0.31677732 98:0.31677732 99:0.31677732 100:0.28969023 101:0.00086771534 102:0.043850988 103:0.073591493 104:0.03687299 105:0.26128209 106:0.27195767 107:0.31677732 108:0.31677732 109:0.28988567 110:0 111:0.033680186 112:0.090038925 113:0.026773047 114:0.27833679 115:0.19904256 116:0.24738842 117:0.28988567 118:0.28988567 119:0.0011387723 120:0.066160426 121:0.1404002 122:0.036837727 123:0.28988567 124:0.28988567 125:0.28988567 126:0.28988567 127:0.047368005 128:0 129:0.0016929822 130:0.0027121436 131:0.0066320151 132:0.034621969 133:0.022379601 134:0.026986081 135:0.07405328 136:0.18937165 137:0 138:0.024008127 139:0.049236435 140:0.02091445 141:0.13893233 142:0.12020767 143:0.16735278 144:0.28965974 145:0.24631236 146:0.0040023755 147:0.033172037 148:0.067684837 149:0.025031641 150:0.21638283 151:0.1919594 152:0.24482079 153:0.24631236 154:0.24631236 155:0.0097493492 156:0.035524894 157:0.049039047 158:0.026797332 159:0.21727206 160:0.19600657 161:0.24631236 162:0.24631236 163:0.1686088 164:0 165:0.022514679 166:0.046533864 167:0.01450771 168:0.12451769 169:0.13633472 170:0.17317522 171:0.24631236 172:0.24631236 173:0 174:0.042268485 175:0.087764546 176:0.021658884 177:0.24106479 178:0.21911085 179:0.24631236 180:0.24631236 181:0.19416653 182:0.0038420733 183:0.030700622 184:0.042145338 185:0.022605417 186:0.16407867 187:0.16133428 188:0.23982874 189:0.23982874 190:0.214338 191:0.00014609264 192:0.03066954 193:0.062474802 194:0.019247111 195:0.17887227 196:0.16684848 197:0.23982874 198:0.23982874 199:0.23982874 200:0 201:0.034351196 202:0.073052965 203:0.021131525 204:0.23982874 205:0.17719439 206:0.23982874 207:0.23982874 208:0.23982874 209:0.013960392 210:0.036069613 211:0.089173004 212:0.068887331 213:0.23982874 214:0.22349593 215:0.23982874 216:0.23982874 
0.1480468895094256 0.4305212191762948 1:0.23490055 2:0.03457782 3:0.038429055 4:0.039031863 5:0.021846915 6:0.046736561 7:0.0078966543 8:0.053249478 9:0.22648057 10:0.19360289 11:0.073674381 12:0.032007556 13:0.065224797 14:0.051674113 15:0.061463419 16:0.028019154 17:0.071223862 18:0.18590373 19:0.2767646 20:0.10798497 21:0.2531395 22:0.15020508 23:0.045412399 24:0.17898411 25:0.098322026 26:0.12609054 27:0.2767646 28:0.2767646 29:0.2273867 30:0.24033327 31:0.2367678 32:0.07698416 33:0.21847054 34:0.24821165 35:0.20199876 36:0.2767646 37:0.20385282 38:0.080538183 39:0.068343244 40:0.098896451 41:0.047545947 42:0.0076781306 43:0.019902799 44:0.011577897 45:0.14349742 46:0.26934317 47:0.13011451 48:0.13169213 49:0.1835808 50:0.14135636 51:0.019319527 52:0.0089482069 53:0.01617489 54:0.26934317 55:0.26934317 56:0.22841132 57:0.18967989 58:0.26203617 59:0.062377907 60:0.029063608 61:0.097190641 62:0.060629655 63:0.26934317 64:0.26934317 65:0.26369253 66:0.22038388 67:0.26934317 68:0.11270983 69:0.029491959 70:0.062129255 71:0.068375878 72:0.26934317 73:0.24547628 74:0.15438992 75:0.11934014 76:0.17538416 77:0.16000871 78:0.024022022 79:0.008313112 80:0.016642446 81:0.24547628 82:0.24547628 83:0.19440909 84:0.15003406 85:0.22701038 86:0.16406102 87:0.024960084 88:0.031069154 89:0.022537414 90:0.24547628 91:0.24547628 92:0.18671261 93:0.1932604 94:0.24493855 95:0.082449213 96:0.036961466 97:0.060669295 98:0.053718138 99:0.24547628 100:0.24547628 101:0.19613567 102:0.18804096 103:0.21661693 104:0.091670491 105:0.020650154 106:0.0409359 107:0.032701649 108:0.24547628 109:0.21103625 110:0.071133949 111:0.15105458 112:0.12777936 113:0.050804995 114:0.075005025 115:0.056435376 116:0.042954523 117:0.22167328 118:0.26858768 119:0.15092623 120:0.17471087 121:0.17162105 122:0.077376485 123:0.10099328 124:0.12974876 125:0.077023387 126:0.26858768 127:0.26858768 128:0.12108496 129:0.12714852 130:0.20918453 131:0.20771857 132:0.032283109 133:0.014276089 134:0.036530662 135:0.26858768 136:0.26858768 137:0.20558634 138:0.16126315 139:0.24298462 140:0.2068501 141:0.029463008 142:0.012722792 143:0.014425345 144:0.26858768 145:0.25632831 146:0.19503647 147:0.20829791 148:0.25052395 149:0.097647868 150:0.034793682 151:0.065920182 152:0.040674213 153:0.25632831 154:0.25632831 155:0.237937 156:0.17242709 157:0.25632831 158:0.073143952 159:0.02207285 160:0.071485564 161:0.056099396 162:0.25632831 163:0.25632831 164:0.17627995 165:0.14721441 166:0.23375176 167:0.15737683 168:0.026350575 169:0.014459595 170:0.0033194225 171:0.25632831 172:0.25632831 173:0.11097965 174:0.089802243 175:0.15247659 176:0.073435448 177:0.012784751 178:0.01984556 179:0.0073781256 180:0.16651453 181:0.29867595 182:0.29867595 183:0.29867595 184:0.29867595 185:0.094351493 186:0.031292174 187:0.16385494 188:0.11380935 189:0.29867595 190:0.29867595 191:0.20295902 192:0.27720496 193:0.25390393 194:0.06761007 195:0.016410334 196:0.063030683 197:0.037670456 198:0.29867595 199:0.24861786 200:0.11294271 201:0.053719569 202:0.13941537 203:0.056586903 204:0.0030387477 205:0.018015044 206:0.015333928 207:0.15953892 208:0.044323537 209:0.015990987 210:0.018363051 211:0.025887186 212:0.012010382 213:0 214:0.0017045549 215:0.0010961125 216:0.025660355 
0.1225374989462435 0 1:0.19121476 2:0.10198556 3:0.072489515 4:0.10550336 5:0.17285313 6:0.095054626 7:0.048910499 8:0.10723542 9:0.15675889 10:0.19053942 11:0.076325677 12:0.019054238 13:0.085075699 14:0.11751546 15:0.10230514 16:0.049535714 17:0.11994524 18:0.16568376 19:0.2019664 20:0.14697996 21:0.2263919 22:0.2263919 23:0.2263919 24:0.18667889 25:0.17113975 26:0.16149713 27:0.14930184 28:0.2263919 29:0.20765036 30:0.16858338 31:0.2263919 32:0.19111361 33:0.21381199 34:0.2263919 35:0.2263919 36:0.2263919 37:0.21217598 38:0.08002957 39:0.048298173 40:0.095584191 41:0.081866927 42:0.033741191 43:0.0074227685 44:0.021569856 45:0.17899984 46:0.25943941 47:0.17825517 48:0.13197985 49:0.17084011 50:0.21820898 51:0.051938999 52:0.0051307911 53:0.0172443 54:0.25943941 55:0.25943941 56:0.1671617 57:0.18219221 58:0.18629681 59:0.096079424 60:0.08029481 61:0.068114042 62:0.081646912 63:0.25943941 64:0.25943941 65:0.25943941 66:0.24966954 67:0.25943941 68:0.14546116 69:0.080845244 70:0.092783347 71:0.071831472 72:0.25943941 73:0.26727003 74:0.15979512 75:0.093205407 76:0.15364857 77:0.16995023 78:0.039696626 79:0.0044568549 80:0.017246265 81:0.26727003 82:0.26727003 83:0.17612927 84:0.095849432 85:0.20710571 86:0.18852417 87:0.057204302 88:0.016548105 89:0.035309162 90:0.26727003 91:0.26727003 92:0.20986731 93:0.10905729 94:0.23045386 95:0.090970472 96:0.026063081 97:0.071233243 98:0.058906391 99:0.26727003 100:0.26727003 101:0.15287817 102:0.14475016 103:0.16719319 104:0.1010428 105:0.052197106 106:0.025425237 107:0.037644845 108:0.26727003 109:0.11253151 110:0.13764535 111:0.17184034 112:0.18792196 113:0.17154622 114:0.063489281 115:0.071725272 116:0.049435519 117:0.079141892 118:0.25059602 119:0.16848537 120:0.15769155 121:0.17112063 122:0.19046512 123:0.10028908 124:0.1160512 125:0.10286995 126:0.25059602 127:0.25059602 128:0.20007899 129:0.11455601 130:0.21592064 131:0.22990589 132:0.047080036 133:0.013645029 134:0.030485986 135:0.25059602 136:0.25059602 137:0.21073745 138:0.15784687 139:0.18087921 140:0.25059602 141:0.054913674 142:0.0029781216 143:0.013739593 144:0.25059602 145:0.26028427 146:0.18766582 147:0.21434735 148:0.19822417 149:0.15307666 150:0.075775579 151:0.05858057 152:0.062120821 153:0.26028427 154:0.26028427 155:0.25638008 156:0.19981217 157:0.26028427 158:0.10597109 159:0.058992084 160:0.094007969 161:0.079938427 162:0.26028427 163:0.26028427 164:0.16786303 165:0.11804491 166:0.16088183 167:0.21268472 168:0.041751452 169:0.0035194317 170:0.012950144 171:0.26028427 172:0.21365874 173:0.11199256 174:0.044076681 175:0.13384752 176:0.089519016 177:0.020016693 178:0.0068556117 179:0.01898706 180:0.16918488 181:0.32999024 182:0.32999024 183:0.24034184 184:0.32999024 185:0.16025095 186:0.032110646 187:0.19622186 188:0.12113898 189:0.32999024 190:0.32999024 191:0.1976189 192:0.19371626 193:0.19325957 194:0.11377893 195:0.03856292 196:0.048995703 197:0.044731718 198:0.32999024 199:0.17104985 200:0.089483783 201:0.015718056 202:0.11708204 203:0.065804251 204:0.0073080068 205:0.0073069893 206:0.013469219 207:0.1246181 208:0.028295781 209:0.010071161 210:0.0025699374 211:0.0076617673 212:0.010814157 213:0 214:0 215:0 216:0.021728748 
0 0.3227446400335575 1:0.20716953 2:0.14522429 3:0.19366409 4:0.21861871 5:0.28806564 6:0.024852877 7:0.010313356 8:0.0047840546 9:0.068982765 10:0.11449131 11:0.063757315 12:0.13459356 13:0.095184386 14:0.28806564 15:0.016137565 16:0.006511244 17:0.0061509274 18:0.046757821 19:0.28806564 20:0.14764689 21:0.20745058 22:0.17635545 23:0.28806564 24:0.071875274 25:0.081603356 26:0.089984827 27:0.19018878 28:0.28806564 29:0.074552342 30:0.28806564 31:0.11745409 32:0.18488991 33:0.050065968 34:0.04777405 35:0.064812221 36:0.28806564 37:0.089370973 38:0.0067562335 39:0.023098094 40:0.010662455 41:0.10683525 42:0 43:0 44:0.0014742319 45:0.081655025 46:0.11904476 47:0.0054099746 48:0.025130549 49:0.0040343204 50:0 51:0 52:0 53:0.00014221261 54:0.11799265 55:0.45099121 56:0.042742535 57:0.28850505 58:0.041661512 59:0.020609796 60:0 61:0 62:0.0084947161 63:0.45099121 64:0.45099121 65:0.062104996 66:0.18670309 67:0.019272663 68:0 69:0 70:0 71:0.0026995034 72:0.45099121 73:0.14058571 74:0.0094332881 75:0.042428322 76:0.0093450798 77:0 78:0 79:0 80:0.00019980368 81:0.12961532 82:0.22529212 83:0.028806865 84:0.084814869 85:0.013131353 86:0 87:0.0091431243 88:0.01867651 89:0.011986391 90:0.20505382 91:0.39170942 92:0.099064395 93:0.31264654 94:0.044643097 95:0 96:0 97:0 98:0.0029970554 99:0.39170942 100:0.39170942 101:0.20867723 102:0.27114525 103:0.039836209 104:0.034327898 105:0.048830777 106:0.08192277 107:0.061110586 108:0.39170942 109:0.29558131 110:0.061279122 111:0.061895434 112:0.080961294 113:0.29558131 114:0.066169016 115:0.11258829 116:0.14683376 117:0.29558131 118:0.29558131 119:0.027057003 120:0.27780923 121:0.06907846 122:0.083528273 123:0.043846831 124:0.059974074 125:0.099005468 126:0.29558131 127:0.29558131 128:0.085847206 129:0.019850967 130:0.022030495 131:0.21335839 132:0.023150289 133:0.015045497 134:0.035384789 135:0.27460021 136:0.29558131 137:0.050625555 138:0.070917986 139:0.018954003 140:0.027957875 141:0.010884042 142:0.0079707988 143:0.016073458 144:0.29558131 145:0.33722749 146:0.018162521 147:0.19666734 148:0.027427414 149:0.00033739329 150:0 151:0 152:0.0058839107 153:0.33722749 154:0.33722749 155:0.032050397 156:0.08419846 157:0.0056949388 158:0 159:0 160:0 161:0.0012884492 162:0.33722749 163:0.33722749 164:0.084591061 165:0.12484496 166:0.029767716 167:0 168:0.018949918 169:0.0045239492 170:0.0011228072 171:0.33722749 172:0.33722749 173:0.080162905 174:0.089332618 175:0.016130349 176:0 177:0.014738823 178:0.003518627 179:0.0009654247 180:0.33722749 181:0.32249171 182:0.059385255 183:0.16054994 184:0.014956169 185:0 186:0 187:0 188:0.0014275238 189:0.32249171 190:0.32249171 191:0.10317522 192:0.09326075 193:0.022915833 194:0.09285292 195:0.035414342 196:0.032402273 197:0.020071233 198:0.32249171 199:0.32249171 200:0.12249818 201:0.15362424 202:0.01311601 203:0 204:0 205:0 206:0.00012281181 207:0.32249171 208:0.32249171 209:0.1721697 210:0.16861343 211:0.038055778 212:0.072451606 213:0.022261232 214:0.0011201402 215:0 216:0.32249171 
0 0.5029830606451863 1:0.22171678 2:0.10268623 3:0.092858113 4:0.13932128 5:0.29179251 6:0.01155853 7:0.021313727 8:0.0069451556 9:0.090294063 10:0.24413615 11:0.10662744 12:0.052992892 13:0.13000584 14:0.29179251 15:0.013861004 16:0.024797577 17:0.0089294855 18:0.14313334 19:0.179988 20:0.15721796 21:0.12859143 22:0.10467622 23:0.29179251 24:0.071086168 25:0.089262865 26:0 27:0.13184917 28:0.29179251 29:0.2632474 30:0.15873502 31:0.2378553 32:0.29179251 33:0.076397069 34:0.075679719 35:0 36:0.29179251 37:0.2120427 38:0.078581743 39:0.040850937 40:0.0750513 41:0.19089863 42:0.0019173638 43:0.0032356915 44:0.0013885914 45:0.17932326 46:0.28623918 47:0.094786711 48:0.124551 49:0.074815311 50:0.11548464 51:0 52:0 53:0 54:0.27521193 55:0.28623918 56:0.22929604 57:0.15819962 58:0.20437974 59:0.22056977 60:0.0083085764 61:0.0024613545 62:0 63:0.28623918 64:0.28623918 65:0.16701889 66:0.26509675 67:0.14550127 68:0.23195946 69:0 70:0 71:0 72:0.28623918 73:0.26659384 74:0.095699355 75:0.14110114 76:0.099779271 77:0.12352977 78:0 79:0 80:0 81:0.26659384 82:0.26659384 83:0.14547834 84:0.22689193 85:0.084138051 86:0.26659384 87:0.010452447 88:0 89:0.012758852 90:0.26659384 91:0.26659384 92:0.11354909 93:0.20314682 94:0.12048639 95:0.17017674 96:0 97:0 98:0 99:0.26659384 100:0.26659384 101:0.13861571 102:0.16197257 103:0.095273145 104:0.26659384 105:0.0083926767 106:0 107:0.0099235512 108:0.26659384 109:0.19939598 110:0.12748362 111:0.081241436 112:0.11195136 113:0.26160935 114:0.067357063 115:0.10299478 116:0 117:0.15973164 118:0.26160935 119:0.21440975 120:0.13049553 121:0.18841027 122:0.26160935 123:0.067559026 124:0.084734254 125:0 126:0.26160935 127:0.26160935 128:0.044393223 129:0.10591412 130:0.032836046 131:0.26160935 132:0.015669744 133:0.0054749455 134:0.012170999 135:0.26160935 136:0.26160935 137:0.085197344 138:0.25494266 139:0 140:0.26160935 141:0 142:0 143:0 144:0.26160935 145:0.29491067 146:0.10723977 147:0.077532582 148:0.088800333 149:0.095404841 150:0.0039948868 151:0.0011834557 152:0 153:0.2697129 154:0.27831846 155:0.049775615 156:0.093236379 157:0.042286206 158:0.073970638 159:0 160:0 161:0 162:0.22629552 163:0.29491067 164:0.080706447 165:0.24150409 166:0 167:0.22901277 168:0 169:0 170:0 171:0.29491067 172:0.29491067 173:0.12883855 174:0.29491067 175:0 176:0.29491067 177:0 178:0 179:0 180:0.29491067 181:0.17166632 182:0.028656898 183:0.06712044 184:0.019065091 185:0.054254215 186:0 187:0 188:0 189:0.14200032 190:0.20577373 191:0.068627462 192:0.091899551 193:0.017059898 194:0.2038451 195:0.00085769081 196:0 197:0 198:0.19655366 199:0.30762467 200:0.13171373 201:0.30762467 202:0.010954411 203:0.30762467 204:0 205:0 206:0 207:0.30762467 208:0.30762467 209:0.16604392 210:0.30762467 211:0.024099704 212:0.30762467 213:0 214:0 215:0 216:0.30762467 
0 0.3382865414245772 1:0.063396618 2:0.09301284 3:0.099091731 4:0.047035318 5:0.3335239 6:0.015790319 7:0.022741498 8:0.0024988989 9:0.070228279 10:0.12186512 11:0.079592682 12:0.049973901 13:0.021912729 14:0.3335239 15:0.016459292 16:0.033920787 17:0.0039107227 18:0.12490098 19:0.28022158 20:0.085063294 21:0.030953968 22:0.11282437 23:0.3335239 24:0.032164078 25:0.022651169 26:0.042702682 27:0.1706105 28:0.3335239 29:0.24138047 30:0.18890342 31:0.12297769 32:0.3335239 33:0.046911694 34:0.10903589 35:0.05042183 36:0.3335239 37:0.22162658 38:0.06161138 39:0.11225301 40:0.01950711 41:0.030741395 42:0.0026270575 43:0.01561325 44:0.010078315 45:0.1712369 46:0.30666044 47:0.061254088 48:0.268332 49:0.05898365 50:0.0077260775 51:7.5959637e-05 52:0.0166228 53:0.02669768 54:0.30666044 55:0.30666044 56:0.17159323 57:0.30666044 58:0.10354628 59:0.05137787 60:0.0099091763 61:0.068937533 62:0.027071584 63:0.30666044 64:0.30666044 65:0.10100579 66:0.30666044 67:0.083130755 68:0.003146043 69:0.00032915839 70:0.016239723 71:0.045144379 72:0.30666044 73:0.26501134 74:0.13668615 75:0.25556734 76:0.10019866 77:0.036879085 78:0.0098517491 79:0.034678433 80:0.018774925 81:0.23055799 82:0.26501134 83:0.19556405 84:0.21317425 85:0.099338636 86:0.12920983 87:0.079406217 88:0.016002445 89:0.035994761 90:0.26501134 91:0.26501134 92:0.14387888 93:0.26501134 94:0.09310662 95:0.01507753 96:0.0038316967 97:0.026972115 98:0.027366053 99:0.26501134 100:0.26501134 101:0.17955033 102:0.26501134 103:0.11600569 104:0.12760031 105:0.041168444 106:0.040309306 107:0.023902422 108:0.26501134 109:0.26180214 110:0.050269574 111:0.018918427 112:0.070839547 113:0.27365661 114:0.011409034 115:0.012164231 116:0.032648101 117:0.13782334 118:0.27365661 119:0.093997322 120:0.12748024 121:0.072298199 122:0.16256717 123:0.016124329 124:0.044412978 125:0.033818308 126:0.25964913 127:0.27365661 128:0.13086358 129:0.22073491 130:0.10701299 131:0.13110976 132:0.020851659 133:0.13879094 134:0.088376023 135:0.27365661 136:0.27365661 137:0.27365661 138:0.27365661 139:0.12631983 140:0.084163859 141:0.013877935 142:0.16027774 143:0.054061797 144:0.27365661 145:0.27226704 146:0.092302032 147:0.19643697 148:0.064290144 149:0.052604005 150:0.017688945 151:0.026088404 152:0.011332501 153:0.21923332 154:0.27226704 155:0.14838913 156:0.27226704 157:0.092135735 158:0.022446938 159:0.018400894 160:0.019608684 161:0.030795639 162:0.27226704 163:0.27226704 164:0.21067557 165:0.2338389 166:0.096896023 167:0.11395288 168:0.034086071 169:0.031695642 170:0.015866958 171:0.27226704 172:0.27226704 173:0.2210696 174:0.27226704 175:0.15700214 176:0.077245183 177:0.041685592 178:0.025091179 179:0.03313376 180:0.24810804 181:0.28435257 182:0.12293611 183:0.28435257 184:0.11919867 185:0.0025808322 186:0.002919174 187:0.013262794 188:0.044848341 189:0.28435257 190:0.28435257 191:0.18806885 192:0.28435257 193:0.13624509 194:0.056882557 195:0.016455889 196:0.058324553 197:0.023825647 198:0.28435257 199:0.28435257 200:0.11078202 201:0.28435257 202:0.12059635 203:0.0079927258 204:0.0064221825 205:0.017052166 206:0.035193313 207:0.28435257 208:0.24228492 209:0.071938999 210:0.17984173 211:0.048609875 212:0.0025443484 213:0.0011686508 214:0.013459511 215:0.013108137 216:0.22163931 
0.09138033262481358 0.3267923463498518 1:0.27595592 2:0.08641921 3:0.052658323 4:0.088490792 5:0.31252384 6:0.078248501 7:0.057494272 8:0.043378878 9:0.17220481 10:0.11159146 11:0.048132934 12:0.051785804 13:0.0333816 14:0.24054752 15:0.038024649 16:0.029553102 17:0.016173264 18:0.064719543 19:0.22029541 20:0.088102505 21:0.024414906 22:0.062693648 23:0.31252384 24:0.078509197 25:0.14247288 26:0.14417137 27:0.18344912 28:0.31252384 29:0.25665039 30:0.27154228 31:0.064824775 32:0.31252384 33:0.097389817 34:0.16140196 35:0.12300422 36:0.22718768 37:0.13349105 38:0.061814338 39:0.047374103 40:0.0095057078 41:0.019151848 42:0.0034719708 43:0.0063482448 44:0 45:0.035128273 46:0.2734265 47:0.19716556 48:0.15785049 49:0.069706321 50:0.0015038027 51:0.015310006 52:0.043600816 53:0.001255683 54:0.11036205 55:0.29590163 56:0.29590163 57:0.29590163 58:0.085341588 59:0.21482013 60:0.03830146 61:0.041986965 62:0.016606458 63:0.27301192 64:0.29590163 65:0.29590163 66:0.29590163 67:0.2374485 68:0.024578867 69:0.036673512 70:0.10456728 71:0.0064571314 72:0.29590163 73:0.2443497 74:0.19760889 75:0.18721634 76:0.069949821 77:1.4206534e-05 78:0.0066086682 79:0.039101832 80:0.0025169661 81:0.15602605 82:0.25679663 83:0.21059321 84:0.25679663 85:0.032570068 86:0.0044047423 87:0.012073644 88:0.068637975 89:0.051458202 90:0.25679663 91:0.25679663 92:0.25679663 93:0.25679663 94:0.17992657 95:0.0075366441 96:0.023863262 97:0.068518698 98:0.0091236681 99:0.25679663 100:0.25679663 101:0.25679663 102:0.25679663 103:0.099908426 104:0.029360956 105:0.044151366 106:0.055756003 107:0.028418902 108:0.25679663 109:0.15091529 110:0.080645427 111:0.038620718 112:0.027349735 113:0.2593258 114:0.015802249 115:0.081235036 116:0.10340549 117:0.1379848 118:0.2593258 119:0.22537479 120:0.24616005 121:0.066871777 122:0.2593258 123:0.031692486 124:0.10077807 125:0.13493104 126:0.2593258 127:0.2593258 128:0.21964729 129:0.2593258 130:0.055138491 131:0.15228707 132:0.03597058 133:0.016830586 134:0.094111778 135:0.1788719 136:0.2593258 137:0.16962993 138:0.2593258 139:0.045315105 140:0.076492466 141:0.0023617228 142:0.014679536 143:0.1581971 144:0.2593258 145:0.26446107 146:0.18520607 147:0.26446107 148:0.052085061 149:0.12552746 150:0.015877476 151:0.017519262 152:0.023021283 153:0.26446107 154:0.26446107 155:0.24612589 156:0.26446107 157:0.098031253 158:0.010766614 159:0.0063087856 160:0.021451104 161:0.041286413 162:0.26446107 163:0.26446107 164:0.072146438 165:0.26446107 166:0.025065273 167:0.014151599 168:0.00017646882 169:0.0018365136 170:0.034719884 171:0.26446107 172:0.26446107 173:0.14495687 174:0.26446107 175:0.037275288 176:0.0001248038 177:0 178:0.0021162077 179:0.045424726 180:0.26446107 181:0.2699863 182:0.2699863 183:0.2699863 184:0.17034812 185:0.015492233 186:0.036039341 187:0.036440134 188:0.056807205 189:0.2699863 190:0.2699863 191:0.2699863 192:0.2699863 193:0.12166107 194:0.041189943 195:0.097830683 196:0.026225355 197:0.0084026726 198:0.2699863 199:0.2699863 200:0.24994093 201:0.2699863 202:0.065537751 203:0.0034803872 204:0.01442144 205:0.011679958 206:0.055120956 207:0.17070004 208:0.23556206 209:0.13631985 210:0.13142432 211:0.03485743 212:0.0083580483 213:0.031704605 214:0.0098766405 215:0.0060759322 216:0.11561953 
0.4693512610705949 1.29796617772859 1:0.21029001 2:0.035785258 3:0.011710279 4:0.049407054 5:0.29308879 6:0.024356067 7:0.14016569 8:0.045262422 9:0.1818088 10:0.15147392 11:0.037762862 12:0.035564791 13:0.030073654 14:0.29308879 15:0.016411861 16:0.20806175 17:0.060378563 18:0.14270782 19:0.11246533 20:0.066011794 21:0.025615629 22:0.035055008 23:0.29308879 24:0.03952143 25:0.29308879 26:0.12637633 27:0.10171176 28:0.26049873 29:0.14766082 30:0.19823687 31:0.031943362 32:0.29308879 33:0.068343773 34:0.29308879 35:0.19333197 36:0.25560302 37:0.11487124 38:0.063491873 39:0.070323937 40:0.076604985 41:0.096134961 42:0.0013914177 43:0.045056552 44:0.06958577 45:0.11815771 46:0.24717782 47:0.095677711 48:0.20197439 49:0.14879864 50:0.17586918 51:0 52:0.013879981 53:0.10795514 54:0.21700028 55:0.24717782 56:0.19378865 57:0.24717782 58:0.15548308 59:0.24717782 60:0.020871265 61:0.13710162 62:0.13727368 63:0.24717782 64:0.24717782 65:0.19246702 66:0.24717782 67:0.24717782 68:0.24717782 69:0 70:0.017845687 71:0.17123315 72:0.24717782 73:0.24216636 74:0.10557584 75:0.24216636 76:0.053475063 77:0.24216636 78:0 79:0.0024296548 80:0.01645395 81:0.20333464 82:0.24216636 83:0.11560725 84:0.24216636 85:0.0094708679 86:0.24216636 87:0 88:0 89:0.022120154 90:0.24216636 91:0.24216636 92:0.13910601 93:0.24216636 94:0.080420516 95:0.24216636 96:0 97:0.0031238424 98:0.024598612 99:0.24216636 100:0.24216636 101:0.14732152 102:0.24216636 103:0.010125037 104:0.24216636 105:0 106:0 107:0.010054615 108:0.24216636 109:0.071721703 110:0.048525929 111:0.02815271 112:0.0067394958 113:0.18673386 114:0.012796574 115:0.12397937 116:0.051302802 117:0.073814474 118:0.24639909 119:0.085883349 120:0.16687964 121:0.012526363 122:0.22696161 123:0.041547205 124:0.23173158 125:0.088344827 126:0.25341931 127:0.28796065 128:0.092425317 129:0.21545318 130:0.032236263 131:0.28796065 132:0.01472347 133:0.0034220011 134:0.017629255 135:0.28796065 136:0.28796065 137:0.11747679 138:0.28796065 139:0.065813251 140:0.28796065 141:0.010187387 142:0.00078969268 143:0.0040682894 144:0.28796065 145:0.2336504 146:0.077098466 147:0.16325423 148:0.031866033 149:0.18114068 150:0.010024117 151:0.03678764 152:0.026695259 153:0.23616996 154:0.25622514 155:0.10282058 156:0.24215208 157:0.047290042 158:0.24723224 159:0 160:0.0019124449 161:0.023775948 162:0.25622514 163:0.25622514 164:0.10768121 165:0.25622514 166:0.016526975 167:0.25622514 168:0.00049943116 169:0 170:0 171:0.25622514 172:0.25622514 173:0.13023053 174:0.25622514 175:0 176:0.25622514 177:0 178:0 179:0 180:0.25622514 181:0.2522597 182:0.12951189 183:0.2522597 184:0.015063168 185:0.2522597 186:0 187:0.00047669513 188:0.0045739906 189:0.2522597 190:0.2522597 191:0.16323948 192:0.2522597 193:0.0010656336 194:0.2522597 195:0 196:0 197:0 198:0.2522597 199:0.2522597 200:0.11844856 201:0.2522597 202:0 203:0.2522597 204:0 205:0 206:0 207:0.2522597 208:0.21940091 209:0.070419237 210:0.21072067 211:0 212:0.17471194 213:0 214:0 215:0 216:0.21940091 
0.1817602701415512 0.9786602774711153 1:0.093039513 2:0.079204842 3:0.14966799 4:0.099683195 5:0.25137839 6:0.064691052 7:0.15915117 8:0.14154093 9:0.19179234 10:0.074290983 11:0.0387569 12:0.085280381 13:0.12745456 14:0.25137839 15:0.076876894 16:0.1886967 17:0.17792638 18:0.1864415 19:0.17045711 20:0.041151427 21:0.026210919 22:0.052802041 23:0.18851845 24:0.12949756 25:0.25137839 26:0.23725259 27:0.25137839 28:0.20274426 29:0.077782787 30:0.064680628 31:0.1119411 32:0.20018753 33:0.19055429 34:0.25137839 35:0.25137839 36:0.25137839 37:0.062207799 38:0.014376907 39:0.038668461 40:0.065022953 41:0.14895652 42:0.053665001 43:0.17096937 44:0.1492832 45:0.18269613 46:0.023023829 47:0 48:0.0027322539 49:0.0026113843 50:0.0069799931 51:0.0089302864 52:0.045154732 53:0.023261981 54:0.039537057 55:0.17474383 56:0.040952813 57:0.13122582 58:0.16097228 59:0.23839486 60:0.26165816 61:0.31690297 62:0.31690297 63:0.31690297 64:0.15902032 65:0.0082116695 66:0.079234064 67:0.042894192 68:0.087609835 69:0.16703519 70:0.31690297 71:0.31690297 72:0.31690297 73:0.012062421 74:0 75:0 76:0 77:0.00022902279 78:0 79:0.014314876 80:0.013104664 81:0.014628236 82:2.6645605e-05 83:0 84:0 85:0 86:0 87:0 88:0 89:0 90:2.6645605e-05 91:0.36792964 92:0.022601685 93:0.17792886 94:0.062379196 95:0.34687027 96:0.23391633 97:0.36792964 98:0.36792964 99:0.36792964 100:0.17807914 101:0 102:0.044897091 103:0.0037938775 104:0.11526427 105:0.08837577 106:0.26258361 107:0.066982001 108:0.33871424 109:0.22518963 110:0.050109882 111:0.0068394002 112:0.02969873 113:0.081338406 114:0.13321872 115:0.31635085 116:0.21538658 117:0.31889015 118:0.31889015 119:0.11570054 120:0.10908298 121:0.1364737 122:0.19934975 123:0.31889015 124:0.31889015 125:0.31889015 126:0.31889015 127:0.014807527 128:0.00089515839 129:7.9961472e-05 130:0 131:0.0001285422 132:0.0054303044 133:0.015648477 134:0.0036502455 135:0.025074208 136:0.060959779 137:0.0038790195 138:0.014085836 139:0.016261304 140:0.062403671 141:0.058873925 142:0.15983123 143:0.070819095 144:0.1864997 145:0.10112552 146:0.017861584 147:0.063398063 148:0.069187954 149:0.12223538 150:0.19637312 151:0.26969472 152:0.26969472 153:0.26969472 154:0.18904942 155:0.041205127 156:0.068131343 157:0.042828374 158:0.11972131 159:0.21155362 160:0.26969472 161:0.26969472 162:0.26969472 163:0.059575491 164:0.0045179017 165:0.0073207286 166:0.009196315 167:0.046860818 168:0.07463593 169:0.15160859 170:0.13063672 171:0.1762356 172:0.2050949 173:0.058383863 174:0.024555463 175:0.038653705 176:0.072147764 177:0.17740034 178:0.26969472 179:0.26969472 180:0.26969472 181:0.14709978 182:0.023234271 183:0.063039213 184:0.038708244 185:0.11412994 186:0.10070164 187:0.25664744 188:0.24214658 189:0.25664744 190:0.13437261 191:0.01796015 192:0.034277089 193:0.020389389 194:0.037070572 195:0.081188522 196:0.20160501 197:0.10641847 198:0.20705298 199:0.20221981 200:0.040709957 201:0.068516947 202:0.085844792 203:0.11789245 204:0.17394032 205:0.25664744 206:0.25664744 207:0.25664744 208:0.25664744 209:0.074505575 210:0.073527053 211:0.079684712 212:0.080759406 213:0.22315876 214:0.25664744 215:0.25664744 216:0.25664744 
0 0.5343780638013942 1:0.10537198 2:0.073014967 3:0.17803407 4:0.022855729 5:0.15282373 6:0.044824407 7:0.13833426 8:0.082921803 9:0.11143087 10:0.062240902 11:0.033786297 12:0.030336965 13:0.059829589 14:0.27524516 15:0.13421604 16:0.27524516 17:0.21934745 18:0.19367847 19:0.27524516 20:0.046658743 21:0.042763945 22:0.00211815 23:0.056050781 24:0.10543585 25:0.27524516 26:0.18947899 27:0.27524516 28:0.19126147 29:0.045323569 30:0.027077911 31:0.0090953084 32:0.17740452 33:0.20118454 34:0.27524516 35:0.27524516 36:0.27524516 37:0.054007165 38:0.02932726 39:0.024853421 40:0.034372594 41:0.17084682 42:0.15528844 43:0.23912604 44:0.18395208 45:0.22271946 46:0.058877505 47:0.013905357 48:0.0090989796 49:0 50:0.0064294059 51:0.051042169 52:0.10976477 53:0.0436977 54:0.099648863 55:0.1652725 56:0.065343998 57:0.045625713 58:0.01156425 59:0.11644194 60:0.28785172 61:0.29600644 62:0.29600644 63:0.29600644 64:0.29600644 65:0.077207483 66:0.042222161 67:0.0031651696 68:0.01473063 69:0.16212004 70:0.29600644 71:0.27761886 72:0.29600644 73:0.048318859 74:0.0031403515 75:0.0026385158 76:0 77:0 78:0.0063938787 79:0.074034177 80:0.0085284933 81:0.054658189 82:0.0029701851 83:0 84:0 85:0 86:0 87:0 88:0.0030256321 89:0.00086457381 90:0.0029701851 91:0.35764802 92:0.11081982 93:0.080619067 94:0.02642756 95:0.013382051 96:0.16641295 97:0.35764802 98:0.35764802 99:0.35764802 100:0.16656542 101:0.022257306 102:0.047585204 103:0.05401095 104:0.057366658 105:0.13143949 106:0.35764802 107:0.34154576 108:0.35764802 109:0.30332139 110:0.051600277 111:0.028122617 112:0 113:0.0014366244 114:0.098710299 115:0.30332139 116:0.19443083 117:0.30332139 118:0.28657421 119:0.077893838 120:0.074718192 121:0.021269787 122:0.059730269 123:0.29870787 124:0.30332139 125:0.30332139 126:0.30332139 127:0.043847572 128:0.0064770309 129:0.0039277049 130:0 131:0.00038594214 132:0.018033924 133:0.070539862 134:0.021162111 135:0.049181096 136:0.1174878 137:0.018746223 138:0.028449358 139:0.019830551 140:0.03974814 141:0.15322411 142:0.2478904 143:0.16073397 144:0.2628192 145:0.12450456 146:0.022828443 147:0.03151764 148:0.045860261 149:0.092914246 150:0.16444908 151:0.26596829 152:0.26596829 153:0.26596829 154:0.23899622 155:0.04186834 156:0.026118752 157:0.039729487 158:0.065706529 159:0.11718846 160:0.26596829 161:0.23552591 162:0.26596829 163:0.086422265 164:0.0035689173 165:0.017112039 166:0.054948516 167:0.088525958 168:0.11019187 169:0.21556573 170:0.17852104 171:0.26596829 172:0.18679045 173:0.041036181 174:0.023929821 175:0.061817512 176:0.072923817 177:0.12586014 178:0.26596829 179:0.26596829 180:0.26596829 181:0.17432298 182:0.038399398 183:0.035717741 184:0.021370616 185:0.019487521 186:0.10211871 187:0.26186129 188:0.19147013 189:0.26186129 190:0.13169937 191:0.0089624701 192:0.027924983 193:0.064936914 194:0.1019945 195:0.10924457 196:0.26186129 197:0.21501012 198:0.26186129 199:0.22372487 200:0.053838458 201:0.019041156 202:0.016387656 203:0.017787272 204:0.11500452 205:0.26186129 206:0.21770658 207:0.26186129 208:0.22219039 209:0.026690416 210:0.025511306 211:0.076483384 212:0.13566369 213:0.13667947 214:0.26186129 215:0.26186129 216:0.26186129 
0 1.134064770461767 1:0.27371332 2:0.075235307 3:0.053123977 4:0.10583087 5:0.27371332 6:0.003161625 7:0.0084049683 8:0.015062656 9:0.16458662 10:0.27290979 11:0.1162532 12:0.10501642 13:0.053541366 14:0.27371332 15:0.012823952 16:0.0097411685 17:0.012009047 18:0.1435179 19:0.27371332 20:0.17486709 21:0.097988255 22:0.10212467 23:0.27371332 24:0.051035486 25:0.00390484 26:0.0086717634 27:0.1626794 28:0.27371332 29:0.27371332 30:0.2577506 31:0.12492998 32:0.24852702 33:0.062886715 34:0.016920976 35:0.011149409 36:0.27371332 37:0.23545325 38:0.098093785 39:0.18942606 40:0.039837182 41:0.19225447 42:0.01101373 43:0.001502396 44:0.00010520764 45:0.1323669 46:0.23545325 47:0.1981539 48:0.23545325 49:0.14350016 50:0.231745 51:0.00778651 52:0 53:0 54:0.23545325 55:0.23545325 56:0.23545325 57:0.23545325 58:0.10453234 59:0.23545325 60:0.03044139 61:0.0065103825 62:0.0015781147 63:0.23545325 64:0.23545325 65:0.18531166 66:0.23545325 67:0.12386665 68:0.23545325 69:0.0068028816 70:0 71:0 72:0.23545325 73:0.25144795 74:0.25144795 75:0.25144795 76:0.20424128 77:0.13519524 78:0.035877228 79:0.0077468497 80:0 81:0.24659513 82:0.25144795 83:0.25144795 84:0.24970831 85:0.10110776 86:0.096589752 87:0.045973122 88:0.061801914 89:0.021597879 90:0.22638775 91:0.25144795 92:0.18993621 93:0.17050172 94:0.13012323 95:0.11523113 96:0.012761873 97:0.0017877345 98:0 99:0.19390041 100:0.25144795 101:0.21838127 102:0.16410153 103:0.068600357 104:0.20581105 105:0.019541021 106:0.014182341 107:0.0037186034 108:0.19441587 109:0.20509906 110:0.1475493 111:0.10289389 112:0.074223138 113:0.23353367 114:0.066201463 115:0.0024261849 116:0.0088833198 117:0.13032095 118:0.27276093 119:0.27276093 120:0.18812689 121:0.091815315 122:0.070599154 123:0.055982403 124:0.011446776 125:0.011421411 126:0.24300176 127:0.27276093 128:0.25564292 129:0.2401472 130:0.0962165 131:0.19667125 132:0.01984828 133:0 134:0.023047836 135:0.19966871 136:0.27276093 137:0.27276093 138:0.27276093 139:0.046925526 140:0.022564057 141:0.033998236 142:0.010391749 143:0.032608502 144:0.25868499 145:0.23201796 146:0.18124017 147:0.12590265 148:0.050166298 149:0.059694149 150:0.023545535 151:0.004516107 152:0.0011675964 153:0.15921396 154:0.26780811 155:0.16277483 156:0.21663265 157:0.058995292 158:0.1580853 159:0.020255234 160:0.00092056597 161:0 162:0.22556119 163:0.26780811 164:0.26780811 165:0.24010575 166:0.075310171 167:0.025195649 168:0.058006655 169:0.011704414 170:0.0047017462 171:0.24909121 172:0.26780811 173:0.26780811 174:0.26780811 175:0.13275269 176:0.23860326 177:0.058752142 178:0.0043087639 179:0 180:0.26780811 181:0.23606758 182:0.16696058 183:0.23606758 184:0.094392247 185:0.22116439 186:0.0035950385 187:0 188:0 189:0.22023278 190:0.23606758 191:0.22353055 192:0.23606758 193:0.1146481 194:0.23606758 195:0.015523597 196:0.0051288819 197:0.0035178876 198:0.23606758 199:0.23606758 200:0.19594707 201:0.23606758 202:0.10229201 203:0.23606758 204:0.0079090847 205:0 206:0 207:0.23606758 208:0.23606758 209:0.12697275 210:0.21593915 211:0.071982592 212:0.18147968 213:0.0070561804 214:0.0011835881 215:0.00081182021 216:0.19284098 
0 0.7212586601539456 1:0.25688475 2:0.043558411 3:0.07832171 4:0.021832729 5:0.27976084 6:0.007295493 7:0.044979502 8:0.0060734735 9:0.21698219 10:0.27574036 11:0.10089872 12:0.16335413 13:0.022048889 14:0.27976084 15:0.0028090966 16:0.046811216 17:0.0078087505 18:0.23879282 19:0.21906824 20:0.034980748 21:0.080326967 22:0.026219312 23:0.27976084 24:0.0054790871 25:0.14523709 26:0.013361641 27:0.16564892 28:0.27976084 29:0.16716048 30:0.27976084 31:0.01707756 32:0.27976084 33:0.006395652 34:0.13898194 35:0.017179251 36:0.27976084 37:0.26006171 38:0.22716422 39:0.2221514 40:0.052136086 41:0.22769585 42:0.0059152921 43:0.011954187 44:0.0013550607 45:0.2049402 46:0.26006171 47:0.26006171 48:0.19762544 49:0.059743211 50:0.083552055 51:0.0048629879 52:0.015301622 53:0.011358867 54:0.17013903 55:0.26006171 56:0.23722503 57:0.26006171 58:0.048295196 59:0.26006171 60:0.0071003176 61:0.01668627 62:0.0029811335 63:0.26006171 64:0.26006171 65:0.26006171 66:0.16593714 67:0.040014636 68:0.065530337 69:0.004847711 70:0.011761754 71:0.0051631224 72:0.1396732 73:0.2588467 74:0.2588467 75:0.2437811 76:0.14028561 77:0.19326459 78:0.0006629976 79:0.004329463 80:0.020121533 81:0.23731782 82:0.2588467 83:0.2588467 84:0.2588467 85:0.23298495 86:0.2588467 87:0.013928501 88:0.0061673704 89:0.035464179 90:0.2588467 91:0.25304997 92:0.18761589 93:0.097610645 94:0.038632773 95:0.056394324 96:0.00089163042 97:0.0031202319 98:0.0091461511 99:0.12085554 100:0.21133423 101:0.12269181 102:0.11984449 103:0.040938612 104:0.2588467 105:0.0035207004 106:0.00047959352 107:0.0041653672 108:0.16883491 109:0.13363956 110:0.02039553 111:0.045278642 112:0.049202077 113:0.2332821 114:0.0038472398 115:0.087827928 116:0.005690542 117:0.10689003 118:0.26636276 119:0.097887523 120:0.16942623 121:0.014516289 122:0.24947576 123:0.0037353029 124:0.079392076 125:0.0073164105 126:0.24792224 127:0.26636276 128:0.26636276 129:0.14542739 130:0.064636379 131:0.2030938 132:0.025099367 133:0.0004978067 134:0.015387408 135:0.20816481 136:0.26636276 137:0.26636276 138:0.26636276 139:0.26636276 140:0.22982591 141:0.035014857 142:0 143:0 144:0.26636276 145:0.17034189 146:0.074031524 147:0.11809541 148:0.021648189 149:0.115492 150:0.00087338028 151:0.0025521016 152:0.00066567765 153:0.15161906 154:0.21858738 155:0.18105592 156:0.1340577 157:0.035275463 158:0.068012297 159:0.01238208 160:0.0054762261 161:0.0040432252 162:0.16560797 163:0.27126059 164:0.27126059 165:0.27126059 166:0.18635938 167:0.27126059 168:0.0083749006 169:0 170:0 171:0.27126059 172:0.27126059 173:0.27126059 174:0.27126059 175:0.092301294 176:0.27126059 177:0.026437052 178:0.012047698 179:0.0051984321 180:0.27126059 181:0.24943984 182:0.24943984 183:0.13742182 184:0.035746474 185:0.025903048 186:0.01392835 187:0.0056141182 188:0.018576751 189:0.17115484 190:0.24943984 191:0.24943984 192:0.24943984 193:0.065289795 194:0.24943984 195:0.007793298 196:0.0003742745 197:0.014448584 198:0.24943984 199:0.24943984 200:0.24943984 201:0.22562085 202:0.055679489 203:0.049612164 204:0.028354123 205:0.012351059 206:0.023884393 207:0.24943984 208:0.24943984 209:0.24943984 210:0.21492252 211:0.073616691 212:0.15300708 213:0.0072295177 214:0.000823404 215:0.018576751 216:0.24943984 
0.05176041897358062 0.369332750665046 1:0.13095692 2:0.25202683 3:0.20388773 4:0.16490668 5:0.27975604 6:0.02890069 7:0.013566214 8:0.022204932 9:0.067471452 10:0.18365733 11:0.17969726 12:0.12307348 13:0.072754495 14:0.27975604 15:0.030139022 16:0.016357567 17:0.017270502 18:0.080857679 19:0.22595115 20:0.2576516 21:0.21327798 22:0.12553114 23:0.27975604 24:0.074363306 25:0.099771522 26:0.028365726 27:0.078056954 28:0.27975604 29:0.27975604 30:0.20290487 31:0.05508092 32:0.15823077 33:0.049424436 34:0.066464059 35:0.022062233 36:0.27975604 37:0.21232834 38:0.12786463 39:0.072555311 40:0.0096133379 41:0.0541609 42:0.0030861069 43:0.0022035511 44:0 45:0.12945586 46:0.31424314 47:0.31424314 48:0.052628305 49:0 50:0 51:0 52:0 53:0 54:0.21057041 55:0.31424314 56:0.31424314 57:0.22982593 58:0.0060814153 59:0.012312652 60:0.0026476125 61:0.0048478125 62:0 63:0.31424314 64:0.31424314 65:0.31424314 66:0.14221598 67:0 68:0 69:0 70:0 71:0 72:0.31424314 73:0.27296904 74:0.27296904 75:0.076401681 76:0 77:0 78:0 79:0 80:0 81:0.24016353 82:0.27296904 83:0.27296904 84:0.22572865 85:0 86:0.020049719 87:0.013982421 88:0.019437997 89:0.023702236 90:0.27296904 91:0.27296904 92:0.27296904 93:0.089847438 94:0 95:0 96:0 97:0 98:0 99:0.27296904 100:0.27296904 101:0.27296904 102:0.21149442 103:0 104:0.090572007 105:0.014347306 106:0.011921483 107:0.016707309 108:0.27296904 109:0.2308493 110:0.18704383 111:0.085405573 112:0.039083764 113:0.28861645 114:0.070818111 115:0.12116845 116:0.059142675 117:0.11015474 118:0.28861645 119:0.28861645 120:0.09875045 121:0.015090518 122:0.052512169 123:0.037368633 124:0.061415546 125:0.045999859 126:0.28861645 127:0.28861645 128:0.24047051 129:0.12864053 130:0.0020678253 131:0.13196264 132:0.015136406 133:0.022373315 134:0.020367904 135:0.2809189 136:0.28861645 137:0.28861645 138:0.076102763 139:0.00097778952 140:0.021166338 141:0.0035261696 142:0.007293432 143:0.010615353 144:0.28861645 145:0.2807295 146:0.2567842 147:0.12456809 148:0 149:0.00077230373 150:0.00052284449 151:0.00095733488 152:0 153:0.24640323 154:0.2807295 155:0.24654584 156:0.10686117 157:0 158:0 159:0 160:0 161:0 162:0.25986636 163:0.2807295 164:0.2807295 165:0.13076554 166:0 167:0.0011800131 168:0 169:0 170:0 171:0.2807295 172:0.2807295 173:0.2807295 174:0.26022086 175:0 176:0 177:0 178:0 179:0 180:0.2807295 181:0.30203107 182:0.22404277 183:0.04145854 184:0 185:0 186:0 187:0 188:0 189:0.18207206 190:0.30203107 191:0.26324201 192:0.13683598 193:0 194:0.064514793 195:0.002242517 196:0.0012237119 197:0.0018493709 198:0.23774563 199:0.30203107 200:0.30203107 201:0.09038236 202:0 203:0 204:0 205:0 206:0 207:0.30203107 208:0.30203107 209:0.30203107 210:0.15866958 211:0 212:0.0086590433 213:0 214:0 215:0 216:0.30203107 
0 3.971471356021725 1:0.15303636 2:0.037133332 3:0.078159094 4:0.035119813 5:0.13257287 6:0.086011827 7:0.18176718 8:0.18725565 9:0.2465481 10:0.12865484 11:0.006264824 12:0.030204546 13:0.04512506 14:0.2465481 15:0.16631739 16:0.19382869 17:0.23874655 18:0.2465481 19:0.096540004 20:0.016125089 21:0.032033339 22:0.0090297684 23:0.16496898 24:0.12160104 25:0.2465481 26:0.2465481 27:0.2465481 28:0.19751792 29:0.033200096 30:0.06204278 31:0.024615193 32:0.18888772 33:0.22479795 34:0.2465481 35:0.2465481 36:0.2465481 37:0.083002061 38:0.0023185068 39:0.041634221 40:0.032691784 41:0.20218205 42:0.14484994 43:0.16640198 44:0.20651376 45:0.20687813 46:0.026684811 47:0.0019373214 48:0.0074523613 49:0.0078174341 50:0.029757755 51:0.030476559 52:0.073872715 53:0.038031742 54:0.066236578 55:0.20636509 56:0.031004766 57:0.10169936 58:0.063381553 59:0.25995609 60:0.28151354 61:0.28151354 62:0.28151354 63:0.28151354 64:0.21397509 65:0.054186031 66:0.0513817 67:0.048566256 68:0.10406827 69:0.23188916 70:0.28151354 71:0.28151354 72:0.28151354 73:0.028592009 74:0.0020580194 75:0 76:0 77:0.00090189779 78:0.017724603 79:0.042148899 80:0.0035157404 81:0.03380182 82:0.00036175002 83:0 84:0 85:0 86:0 87:0 88:0 89:0 90:0.00036175002 91:0.36208537 92:0.085599139 93:0.10933112 94:0.085588165 95:0.22225496 96:0.36208537 97:0.36208537 98:0.36208537 99:0.36208537 100:0.16379693 101:0.013785192 102:0.03392503 103:0.0082837483 104:0.10400064 105:0.14754573 106:0.25165078 107:0.16064881 108:0.3328976 109:0.1409117 110:0.028811578 111:0.019542791 112:0.0049881334 113:0.10123359 114:0.085568696 115:0.32347211 116:0.24674463 117:0.32347211 118:0.32347211 119:0.072465643 120:0.10784833 121:0.070605576 122:0.23263679 123:0.32347211 124:0.32347211 125:0.32347211 126:0.32347211 127:0.016094362 128:0.00077486044 129:0 130:0 131:0.00038478462 132:0.0036531796 133:0.019480674 134:0.0015031042 135:0.018857474 136:0.074003056 137:0.0033577285 138:0.027185619 139:0.018186094 140:0.080450118 141:0.065662667 142:0.17086133 143:0.11347993 144:0.16843897 145:0.1454445 146:0.023932535 147:0.065108985 148:0.040426981 149:0.15100168 150:0.1747385 151:0.26656562 152:0.26656562 153:0.26656562 154:0.23118594 155:0.056934517 156:0.053482864 157:0.039419793 158:0.10705001 159:0.23362802 160:0.26656562 161:0.26656562 162:0.26656562 163:0.074887469 164:0.011721749 165:0.027705939 166:0.010805248 167:0.057110947 168:0.074410416 169:0.19365594 170:0.12154315 171:0.15009709 172:0.18420748 173:0.060180072 174:0.023084639 175:0.029456103 176:0.080417357 177:0.19761954 178:0.26656562 179:0.21468642 180:0.26656562 181:0.13289894 182:0.027345221 183:0.035149887 184:0.028019512 185:0.096944854 186:0.14723638 187:0.25901303 188:0.2245187 189:0.25901303 190:0.11183721 191:0.028844409 192:0.023214171 193:0.0040665185 194:0.041684322 195:0.10770568 196:0.24557941 197:0.12622903 198:0.21726763 199:0.13943803 200:0.051619709 201:0.02319089 202:0.045204088 203:0.10453559 204:0.18439242 205:0.25901303 206:0.25901303 207:0.25901303 208:0.23826963 209:0.080708697 210:0.043437473 211:0.021179533 212:0.076064132 213:0.25901303 214:0.25901303 215:0.25901303 216:0.25901303 
0.4986463613577978 1.397295463431572 1:0.06417501 2:0.096233316 3:0.25618845 4:0.27179375 5:0.28487405 6:0.12126478 7:0.077588268 8:0.014906057 9:0.059368689 10:0.06987977 11:0.015202485 12:0.25528127 13:0.1279925 14:0.28487405 15:0.050614558 16:0.091568537 17:0.017565878 18:0.066388905 19:0.04883825 20:0.1266697 21:0.14193468 22:0.13954268 23:0.28487405 24:0.17418601 25:0.2013234 26:0.082260594 27:0.069638059 28:0.28487405 29:0.03059704 30:0.081354238 31:0.074550569 32:0.28487405 33:0.1421687 34:0.24476445 35:0.11467534 36:0.2545259 37:0.12013794 38:0.027562557 39:0.091941163 40:0.021253265 41:0.20037325 42:0.02094732 43:0.039031621 44:0.004446358 45:0.095377035 46:0.10252836 47:0.095556758 48:0.047601081 49:0.0072294706 50:0.038654797 51:0 52:0.005634788 53:0.038245019 54:0.11124044 55:0.35057625 56:0.17567153 57:0.11253532 58:0.017423023 59:0.093809925 60:0.053817563 61:0.10563206 62:0.0450284 63:0.35057625 64:0.35057625 65:0.35057625 66:0.35057625 67:0.10844207 68:0.2423254 69:0 70:0.012396532 71:0.084139034 72:0.35057625 73:0.099915154 74:0.09509898 75:0.061682206 76:0.012937695 77:0.13749933 78:0 79:0.01662552 80:0.11284245 81:0.1214791 82:0.063317038 83:2.3629855e-05 84:0.01479366 85:0.011939321 86:0.12940322 87:0.002304428 88:0.0011083679 89:0.0075228293 90:0.063317038 91:0.34566736 92:0.34566736 93:0.34566736 94:0.19406542 95:0.34566736 96:0 97:0.036576137 98:0.24825338 99:0.34566736 100:0.14393583 101:0.00035444784 102:0.082550436 103:0.051737063 104:0.34566736 105:0.14528124 106:0.10725184 107:0.024617536 108:0.14393583 109:0.076619901 110:0.06357073 111:0.16513428 112:0.072676525 113:0.29739594 114:0.10489633 115:0.14598203 116:0.14172724 117:0.12841952 118:0.29739594 119:0.10380113 120:0.0021653695 121:0.0049294028 122:0.18841046 123:0.11221672 124:0.17824438 125:0.2313143 126:0.29739594 127:0.29739594 128:0.094282717 129:0.074181184 130:0.053682666 131:0.21064216 132:0.021785501 133:0.0077088932 134:0.074323013 135:0.29739594 136:0.29739594 137:0.19974327 138:0.035370473 139:0 140:0.065463319 141:0.017180055 142:0.01356062 143:0.093677551 144:0.29739594 145:0.30998963 146:0.13168651 147:0.046174075 148:0.0025199316 149:0.018685883 150:0.014732054 151:0.027694518 152:0.044314314 153:0.30998963 154:0.30998963 155:0.20530014 156:0.25475022 157:0.037798978 158:0.075519398 159:0 160:0.0044657877 161:0.014775969 162:0.30998963 163:0.30998963 164:0.17802452 165:0.061524846 166:0 167:0.030906582 168:0.0079065375 169:0.019865613 170:0.025915815 171:0.30998963 172:0.30998963 173:0.19126014 174:0.11944892 175:0 176:0.011975609 177:0.0015019302 178:0.032525308 179:0.03670425 180:0.30998963 181:0.19174236 182:0.14094578 183:0.21845721 184:0.033993687 185:0.11876789 186:0 187:0.013949466 188:0.032066558 189:0.15910184 190:0.19109806 191:0.020422176 192:0.041854277 193:0.0070039839 194:0.20992628 195:0.04552741 196:0.064422555 197:0.012507278 198:0.18387352 199:0.36330476 200:0.32624495 201:0.16226418 202:0 203:0.0058779153 204:0 205:0.054124072 206:0.12198263 207:0.36330476 208:0.36330476 209:0.16260307 210:0.10678253 211:0.0033159542 212:0.058051288 213:0.0072324481 214:0.041617401 215:0.075138815 216:0.36330476 
0 0.06964395810436877 1:0.057090167 2:0.1014874 3:0.28984046 4:0.29680693 5:0.29680693 6:0.051916618 7:0.091243163 8:0.041285835 9:0.028204251 10:0.033760022 11:0.030492129 12:0.2103802 13:0.14074628 14:0.29291445 15:0.045186725 16:0.092504062 17:0.031323012 18:0.029123988 19:0.12345101 20:0.073000841 21:0.20758599 22:0.21652994 23:0.29680693 24:0.095984228 25:0.068787284 26:0.085914597 27:0.17970589 28:0.29680693 29:0.012117268 30:0.093624443 31:0.058100402 32:0.29680693 33:0.081673622 34:0.053215832 35:0.084011413 36:0.29680693 37:0.048083019 38:0.0091463998 39:0.049563359 40:0.036269333 41:0.088461637 42:0.010675795 43:0.025894247 44:0.010241076 45:0.054701481 46:0.028827168 47:0.0037662026 48:0 49:0 50:0.0043517104 51:0.00078096316 52:0.0023056599 53:0.0028493535 54:0.037603218 55:0.35478398 56:0.059544209 57:0.070333332 58:0.083337575 59:0.10996716 60:0.18467814 61:0.12513566 62:0.099381328 63:0.35478398 64:0.35478398 65:0.11400536 66:0.15508169 67:0.23627412 68:0.18130529 69:0.29421115 70:0.29587591 71:0.29288661 72:0.35478398 73:0.015005965 74:0.0022922771 75:0 76:0 77:0.0024359932 78:0.00017486361 79:0.0038146363 80:0.0020874904 81:0.020908102 82:0.00013298226 83:0 84:0 85:0 86:0.00028311776 87:0 88:0.0002543091 89:0.00013916602 90:0.00013298226 91:0.4261097 92:0.048850395 93:0.079580471 94:0.14382489 95:0.11994157 96:0.20678046 97:0.25248423 98:0.33377117 99:0.4261097 100:0.4261097 101:0 102:0 103:0.0054590669 104:0.030305851 105:0.024592986 106:0.01465571 107:0.072831117 108:0.4261097 109:0.20371553 110:0.021703279 111:0.052694246 112:0.079785898 113:0.31905732 114:0.085531235 115:0.099294476 116:0.089720324 117:0.31905732 118:0.31905732 119:0.0067863888 120:0 121:0.011595758 122:0.13586852 123:0.072089732 124:0.076217704 125:0.086987652 126:0.31905732 127:0.3122457 128:0.0070703723 129:0.0089018503 130:0.018913118 131:0.21295647 132:0.10838062 133:0.076404423 134:0.085158318 135:0.31905732 136:0.31905732 137:0.0031940304 138:0.0016619479 139:0.0014696579 140:0.019036446 141:0.026797792 142:0.027912006 143:0.025132474 144:0.31905732 145:0.28368959 146:0.054946676 147:0.033014499 148:0.058402937 149:0.091688603 150:0.1218245 151:0.099665292 152:0.087320812 153:0.28368959 154:0.28368959 155:0.095585302 156:0.11241494 157:0.20149367 158:0.19108877 159:0.20609258 160:0.20200168 161:0.28368959 162:0.28368959 163:0.28368959 164:0.023393625 165:0.0071154349 166:0.019239135 167:0.041646272 168:0.031045506 169:0.028990641 170:0.041425306 171:0.28368959 172:0.28368959 173:0.043638483 174:0.028790358 175:0.072107717 176:0.085587777 177:0.054083671 178:0.050415281 179:0.12412166 180:0.28368959 181:0.3370955 182:0.018584264 183:0.033478208 184:0.074526124 185:0.072560549 186:0.079727307 187:0.084199063 188:0.16383569 189:0.3370955 190:0.3370955 191:0 192:0 193:0.0041726632 194:0.047623336 195:0.034791738 196:0.007255015 197:0.032307453 198:0.3370955 199:0.3370955 200:0.0081391251 201:0.0093629016 202:0.028942063 203:0.032268975 204:0.020087026 205:0.01898543 206:0.063536659 207:0.3370955 208:0.3370955 209:0 210:0.0083910571 211:0.017822696 212:0.14828126 213:0.031932767 214:0.0030376059 215:0.012691476 216:0.3370955 
0 0.1983406782249372 1:0.23126243 2:0.075026959 3:0.25733918 4:0.14967252 5:0.30326074 6:0.042225555 7:0.059199743 8:0.014715387 9:0.083180778 10:0.28318065 11:0.061527826 12:0.16655385 13:0.046880338 14:0.30326074 15:0.11164089 16:0.13735485 17:0.042710204 18:0.14865541 19:0.14388222 20:0.042940315 21:0.11005367 22:0.059216078 23:0.30326074 24:0.057333082 25:0.035175484 26:0.043748535 27:0.067863628 28:0.30326074 29:0.021226136 30:0.05464818 31:0.030597212 32:0.30326074 33:0.20606321 34:0.1006339 35:0.098332241 36:0.30326074 37:0.20832795 38:0.031062296 39:0.063460201 40:0.021746079 41:0.33409363 42:0.043165188 43:0.047132861 44:0.035060275 45:0.15560809 46:0.11561267 47:0.030444827 48:0.005321261 49:0.0073824087 50:0.00082487048 51:0.012867698 52:0.0071654916 53:0.050956413 54:0.11561267 55:0.33409363 56:0.054908328 57:0.058427837 58:0.065711632 59:0.13807847 60:0.12897055 61:0.083145238 62:0.15159898 63:0.33409363 64:0.33409363 65:0.19998057 66:0.13047446 67:0.17547944 68:0.012787544 69:0.16164947 70:0.1660019 71:0.33409363 72:0.33409363 73:0.080381259 74:0.015475853 75:0.0037438087 76:0.0058145281 77:0.001879181 78:0.021032179 79:0.0083851516 80:0.044500373 81:0.080381259 82:0.060317349 83:0 84:0.00017225104 85:0.00034186672 86:0.00043365714 87:0.0043046148 88:0.0013162246 89:0.003764034 90:0.060317349 91:0.41338643 92:0.10165503 93:0.10800083 94:0.17191778 95:0.014401215 96:0.16059826 97:0.17465267 98:0.41338643 99:0.41338643 100:0.41338643 101:0 102:0.010335064 103:0.020512002 104:0.012538924 105:0.035487704 106:0.031693973 107:0.086059831 108:0.41338643 109:0.096096143 110:0.022980923 111:0.060835376 112:0.038755521 113:0.32057348 114:0.069334887 115:0.043341525 116:0.040223025 117:0.098835051 118:0.32057348 119:0 120:0 121:0 122:0.16171291 123:0.23125689 124:0.11220511 125:0.093509987 126:0.32057348 127:0.32057348 128:0.00084827165 129:0.0025383427 130:0.0050728209 131:0.32057348 132:0.16352615 133:0.10991976 134:0.02943043 135:0.32057348 136:0.32057348 137:0 138:0 139:0 140:0.019961756 141:0.017562347 142:0.014996149 143:0.001218731 144:0.32057348 145:0.30255672 146:0.033671588 147:0.032424588 148:0.049407359 149:0.027430812 150:0.10868679 151:0.069066875 152:0.10426363 153:0.30255672 154:0.30255672 155:0.14591022 156:0.1303255 157:0.19389224 158:0.020656092 159:0.18511361 160:0.16634399 161:0.30255672 162:0.30255672 163:0.30255672 164:0.0013103022 165:0.0010203805 166:0.003898849 167:0.0017532991 168:0.010308619 169:0.0026978962 170:0.0036349809 171:0.30255672 172:0.30255672 173:0.0056779757 174:0.0056518046 175:0.019336505 176:0.0043870131 177:0.026652139 178:0.0078646699 179:0.025864881 180:0.30255672 181:0.32551056 182:0.040922765 183:0.061096966 184:0.10309487 185:0.0091932621 186:0.085667059 187:0.092679851 188:0.2340433 189:0.32551056 190:0.32551056 191:0 192:0.0064345575 193:0.01277067 194:0.089208722 195:0.034422733 196:0.026202479 197:0.070602283 198:0.32551056 199:0.32254216 200:0.0015924758 201:0.0027863749 202:0.0078073204 203:0.0016441576 204:0.011582082 205:0.0041492013 206:0.025144834 207:0.32254216 208:0.32551056 209:0 210:0.0085340645 211:0.017098945 212:0.22246939 213:0.012832512 214:0.0068242392 215:0.012931917 216:0.32551056 
0 0.0734421834457776 1:0.17901008 2:0.21726693 3:0.19897518 4:0.17264168 5:0.32769644 6:0.014658192 7:0.010702976 8:0.017745953 9:0.058685932 10:0.11550888 11:0.038740117 12:0.067112051 13:0.041253634 14:0.32769644 15:0.0033826595 16:0.0059695905 17:0.020005954 18:0.053530727 19:0.24197787 20:0.1301184 21:0.19843213 22:0.10243926 23:0.32769644 24:0.025170039 25:0.079319134 26:0.064523309 27:0.11694491 28:0.32769644 29:0.038530547 30:0.098955326 31:0.016663902 32:0.32769644 33:0.031923458 34:0.090735845 35:0.066300936 36:0.32769644 37:0.059981376 38:0.0037379332 39:0.0090204095 40:0 41:0.24186784 42:0 43:0.0014050205 44:0.005688699 45:0.058228422 46:0.019816892 47:0 48:0 49:0 50:0.0066487351 51:0 52:0 53:0.00043456341 54:0.026907893 55:0.39477006 56:0.0083623743 57:0.063309796 58:0.057602383 59:0.16534534 60:0.226862 61:0.13172917 62:0.022459067 63:0.39477006 64:0.39477006 65:0.0017608203 66:0.095622756 67:0.12672524 68:0.10348507 69:0.34631425 70:0.21423939 71:0.0098748468 72:0.39477006 73:0.0064944266 74:0 75:0 76:0 77:0.0037540391 78:0 79:0 80:0 81:0.0064944266 82:0 83:0 84:0 85:0 86:0 87:0 88:0 89:0 90:0 91:0.48106003 92:0.00065683603 93:0.035670012 94:0.047272131 95:0.05631059 96:0.16066967 97:0.121236 98:0.0022324699 99:0.48106003 100:0.48106003 101:0 102:0.015424122 103:0.030612262 104:0.0029653925 105:0.0294354 106:0.053236485 107:0.1316862 108:0.48106003 109:0.20737858 110:0.048296496 111:0.064561203 112:0.038988248 113:0.29072338 114:0.036929797 115:0.073446169 116:0.10227751 117:0.18155335 118:0.29072338 119:0.016380701 120:0.043336395 121:0.0048255781 122:0.20079288 123:0.054993417 124:0.084655762 125:0.090706132 126:0.29072338 127:0.29072338 128:0.091603652 129:0.0642353 130:0.081396572 131:0.091104805 132:0.10902257 133:0.099278241 134:0.22748423 135:0.29072338 136:0.29072338 137:0.11405155 138:0.17938113 139:0.095310912 140:0.25568664 141:0.13154393 142:0.047354624 143:0.056707125 144:0.29072338 145:0.27811086 146:0.0079666357 147:0.036366723 148:0.038782362 149:0.061601087 150:0.13289914 151:0.065079689 152:0.0087853391 153:0.27811086 154:0.27811086 155:0.010211937 156:0.058726955 157:0.081514217 158:0.073173381 159:0.21218148 160:0.09769062 161:0.0083559426 162:0.27811086 163:0.27811086 164:0.07544674 165:0.15421106 166:0.085343696 167:0.21153313 168:0.16371608 169:0.04523962 170:0.024615126 171:0.27811086 172:0.27811086 173:0.09206517 174:0.18523313 175:0.11214034 176:0.24720825 177:0.21966949 178:0.054053601 179:0.031624045 180:0.27811086 181:0.32474321 182:0.0055746669 183:0.024620002 184:0.022393407 185:0.040756132 186:0.082564555 187:0.033731978 188:0.0039090835 189:0.32474321 190:0.32474321 191:0.00032244169 192:0.011294322 193:0.031447817 194:0.021465886 195:0.027011409 196:0.045202468 197:0.082497381 198:0.32474321 199:0.32474321 200:0.047112133 201:0.13415474 202:0.090756685 203:0.18163367 204:0.18766809 205:0.03344205 206:0.029057883 207:0.32474321 208:0.32474321 209:0.045932997 210:0.045992013 211:0.090318277 212:0.11131803 213:0.061967015 214:0.038872294 215:0.049114969 216:0.32474321 
0.02598490850171203 0 1:0.13688079 2:0.088388503 3:0.12356611 4:0.086688705 5:0.37478846 6:0.018909995 7:0.02487975 8:0.015779812 9:0.063358627 10:0.044258051 11:0.0051236982 12:0.0095579242 13:0.0047757998 14:0.37478846 15:0.022457471 16:0.023499832 17:0.017092619 18:0.04238623 19:0.14426757 20:0.11853983 21:0.10365464 22:0.12617597 23:0.37478846 24:0.052447855 25:0.048554186 26:0.051432565 27:0.075010508 28:0.36764485 29:0.00073019142 30:0.0031290581 31:0.0015470758 32:0.37478846 33:0.089021392 34:0.092262268 35:0.087089621 36:0.37478846 37:0.056294248 38:0 39:0 40:0 41:0.27376923 42:0.0068845754 43:0.0036787349 44:0.0078763356 45:0.064645126 46:0.019237261 47:0 48:0 49:0 50:0.0030492023 51:0 52:0 53:0.0023852643 54:0.026994377 55:0.39127007 56:0.034797955 57:0.024957547 58:0.0099419383 59:0.22255833 60:0.18072723 61:0.14345163 62:0.086033583 63:0.39127007 64:0.39127007 65:0.098280348 66:0.075117208 67:0.049746882 68:0.21411082 69:0.27824113 70:0.1706281 71:0.13389714 72:0.39127007 73:0.002192233 74:0.00026740407 75:0 76:0 77:0.0019215114 78:0 79:0 80:0.00043148687 81:0.0027258445 82:0.026734367 83:0.0040110606 84:0 85:0 86:0.0066610146 87:0 88:0 89:0.0032229831 90:0.024171431 91:0.32235771 92:0.13321371 93:0.085822947 94:0.1250501 95:0.26108027 96:0.12060263 97:0.071506262 98:0.076463707 99:0.32235771 100:0.32235771 101:0.22283196 102:0.2350264 103:0.32235771 104:0.26355097 105:0.27028057 106:0.19753179 107:0.23448402 108:0.32235771 109:0.15627207 110:0.076746345 111:0.053814206 112:0.090452537 113:0.33519268 114:0.047678631 115:0.054575041 116:0.083156586 117:0.13288346 118:0.33519268 119:0 120:0 121:0.00023891813 122:0.25009498 123:0.071183354 124:0.086594291 125:0.12850128 126:0.33519268 127:0.33519268 128:0.061090473 129:0.033741273 130:0.011678825 131:0.20065854 132:0.01596709 133:0.026662486 134:0.022143064 135:0.33519268 136:0.33519268 137:0 138:0 139:0 140:0.013447878 141:0.0031314285 142:0.004385055 143:0.019900721 144:0.33519268 145:0.28590634 146:0.027780853 147:0.026053024 148:0.015364115 149:0.089202955 150:0.071561284 151:0.062384378 152:0.028626643 153:0.28590634 154:0.28590634 155:0.094198368 156:0.12574151 157:0.1283181 158:0.26109964 159:0.18270086 160:0.11790441 161:0.062261175 162:0.28590634 163:0.28590634 164:0.015003525 165:0.015284011 166:0.013123577 167:0.091425411 168:0.020380301 169:0.017070781 170:0.0076228282 171:0.28590634 172:0.28590634 173:0.097441539 174:0.1286947 175:0.15730311 176:0.28590634 177:0.10231088 178:0.065754704 179:0.078469962 180:0.28590634 181:0.26694962 182:0.0760829 183:0.11996715 184:0.1596825 185:0.1894367 186:0.083999954 187:0.05288614 188:0.031902704 189:0.26694962 190:0.26694962 191:0.10451373 192:0.10954984 193:0.1361793 194:0.13883322 195:0.11773153 196:0.098574631 197:0.1225974 198:0.26694962 199:0.26694962 200:0.10698401 201:0.14838491 202:0.19206461 203:0.26694962 204:0.064870588 205:0.041867103 206:0.088164195 207:0.26694962 208:0.26694962 209:0.12115763 210:0.063679919 211:0.091208845 212:0.17525211 213:0.078914031 214:0.051722292 215:0.11588741 216:0.26694962 
0.2777802114936725 0.6336450888486365 1:0.15512811 2:0.19885007 3:0.099669538 4:0.15176298 5:0.32560322 6:0.036213264 7:0.046734784 8:0.034464553 9:0.12726611 10:0.074443363 11:0.11236151 12:0.040095124 13:0.07807152 14:0.32560322 15:0.038611695 16:0.046859205 17:0.025614159 18:0.07759662 19:0.11681051 20:0.16910677 21:0.092539907 22:0.13805784 23:0.32560322 24:0.13970768 25:0.14901137 26:0.11666754 27:0.15901576 28:0.15167078 29:0.10715533 30:0.049107235 31:0.081116527 32:0.32560322 33:0.25532669 34:0.230913 35:0.19361117 36:0.26273566 37:0.018283686 38:0.028781649 39:0.0041984729 40:0.01839889 41:0.26428893 42:0.011098318 43:0.011141775 44:0.0068205656 45:0.023727342 46:0.01513623 47:0 48:0 49:0 50:0 51:0 52:0 53:0 54:0.01513623 55:0.36424205 56:0.17653234 57:0.1260369 58:0.21665789 59:0.2523537 60:0.27586243 61:0.18864515 62:0.20439178 63:0.36424205 64:0.36424205 65:0.1388229 66:0.1110992 67:0.17515844 68:0.076203197 69:0.06970641 70:0.044125177 71:0.083343416 72:0.36424205 73:0.012598841 74:0 75:0 76:0 77:0 78:0 79:0 80:0 81:0.012598841 82:0.0081137028 83:0 84:0 85:0 86:0 87:0 88:0 89:0 90:0.0081137028 91:0.32478744 92:0.12171853 93:0.059576914 94:0.097352095 95:0.088234283 96:0.2130608 97:0.13708206 98:0.1724627 99:0.32478744 100:0.32478744 101:0.26037872 102:0.20257488 103:0.24768834 104:0.19420113 105:0.32478744 106:0.19913222 107:0.30292419 108:0.32478744 109:0.095008045 110:0.04886356 111:0.076363973 112:0.048338391 113:0.25822085 114:0.12381355 115:0.11134952 116:0.1163082 117:0.14614369 118:0.24941523 119:0.079238214 120:0.039937977 121:0.056717943 122:0.25822085 123:0.25822085 124:0.25822085 125:0.25822085 126:0.25822085 127:0.25822085 128:0.01506316 129:0.020721234 130:0.016394073 131:0.15521812 132:0.022664158 133:0.024972044 134:0.025911482 135:0.25822085 136:0.25822085 137:0.067690454 138:0.019273279 139:0.046914276 140:0.25822085 141:0.14544518 142:0.13984431 143:0.18377937 144:0.25822085 145:0.23690914 146:0.14683951 147:0.11838314 148:0.16169634 149:0.18388727 150:0.17075573 151:0.13136496 152:0.17784077 153:0.23827223 154:0.27195394 155:0.11091579 156:0.11111438 157:0.12757376 158:0.091928631 159:0.052432835 160:0.043412425 161:0.068070136 162:0.27195394 163:0.27195394 164:0.15365978 165:0.096498035 166:0.12312004 167:0.24382032 168:0.11905898 169:0.092780717 170:0.17299367 171:0.27195394 172:0.27195394 173:0.095340945 174:0.088298902 175:0.08793328 176:0.13437825 177:0.037989177 178:0.033004418 179:0.054403573 180:0.27195394 181:0.24017373 182:0.090183057 183:0.046240371 184:0.061488211 185:0.11981829 186:0.11318127 187:0.10312361 188:0.10513643 189:0.24017373 190:0.14819413 191:0.19741102 192:0.171285 193:0.1491452 194:0.21884668 195:0.20087525 196:0.14320064 197:0.1943735 198:0.22129062 199:0.24017373 200:0.091038398 201:0.038910251 202:0.049337965 203:0.20784417 204:0.078789867 205:0.079208098 206:0.10462081 207:0.24017373 208:0.24017373 209:0.20849404 210:0.15975007 211:0.13451195 212:0.24017373 213:0.11774506 214:0.10073151 215:0.18148041 216:0.24017373 
0 1.846576619560678 1:0.19591577 2:0.14465231 3:0.13955742 4:0.13615507 5:0.29356673 6:0.030015877 7:0.013854333 8:0.020003447 9:0.097861663 10:0.15998973 11:0.10842445 12:0.1240352 13:0.072079919 14:0.29356673 15:0.03730309 16:0.018459851 17:0.053826578 18:0.14637411 19:0.18613014 20:0.14605008 21:0.11410241 22:0.11633137 23:0.29356673 24:0.024200201 25:0.0039216545 26:0.0067222933 27:0.19147272 28:0.29356673 29:0.2211141 30:0.20540959 31:0.19127549 32:0.29356673 33:0.088195756 34:0.052233599 35:0.17200416 36:0.29356673 37:0.16928479 38:0.12796003 39:0.16734926 40:0.051278908 41:0.090949893 42:0.029161843 43:0.028024856 44:0.065271944 45:0.15174814 46:0.24885102 47:0.15789829 48:0.21916154 49:0.076918229 50:0.048023056 51:0.054460235 52:0.11514927 53:0.12859376 54:0.24885102 55:0.24885102 56:0.23507698 57:0.24885102 58:0.1478821 59:0.094350763 60:0.12131252 61:0.074271195 62:0.22350828 63:0.24885102 64:0.24885102 65:0.19423252 66:0.24885102 67:0.11355966 68:0.068960994 69:0.097332746 70:0.16132683 71:0.16789715 72:0.24885102 73:0.23077226 74:0.14322458 75:0.19495638 76:0.1082286 77:0.12829724 78:0.058193173 79:0.098645993 80:0.12977204 81:0.22696751 82:0.23077226 83:0.16630076 84:0.23077226 85:0.14817068 86:0.15847746 87:0.11654846 88:0.076738074 89:0.14657719 90:0.23077226 91:0.23077226 92:0.10979429 93:0.20210034 94:0.079826862 95:0.11663797 96:0.076270096 97:0.14406027 98:0.1473891 99:0.22246702 100:0.23077226 101:0.14388476 102:0.23077226 103:0.14108099 104:0.23077226 105:0.057568338 106:0.048086286 107:0.13283876 108:0.23077226 109:0.18687932 110:0.12301113 111:0.067394949 112:0.11180283 113:0.26166236 114:0.0073922887 115:0.0025656561 116:0.0051405351 117:0.19490007 118:0.26166236 119:0.19259886 120:0.15117103 121:0.15547444 122:0.15483174 123:0.038840804 124:0.046769135 125:0.11069459 126:0.26166236 127:0.22214773 128:0.26166236 129:0.20265438 130:0.10475626 131:0.19947724 132:0.055510487 133:0.026294878 134:0.044006664 135:0.10425318 136:0.26166236 137:0.26166236 138:0.26166236 139:0.13350011 140:0.053871032 141:0.070847698 142:0.14532298 143:0.12574063 144:0.26166236 145:0.25112143 146:0.11546994 147:0.18024836 148:0.060362898 149:0.035663642 150:0.041034259 151:0.032573164 152:0.088620432 153:0.26879597 154:0.26879597 155:0.13853028 156:0.26879597 157:0.030631974 158:0.024471799 159:0.02075218 160:0.026875097 161:0.029091571 162:0.26879597 163:0.26879597 164:0.25284177 165:0.26879597 166:0.034642093 167:0.010105498 168:0.025636034 169:0.074630797 170:0.053992976 171:0.26879597 172:0.26879597 173:0.23073786 174:0.26879597 175:0.0066120294 176:6.2045947e-05 177:0 178:0.0038811332 179:0.0017954319 180:0.26879597 181:0.26462433 182:0.18440717 183:0.26462433 184:0.032722753 185:0.04474505 186:0.013795207 187:0.059042133 188:0.032130204 189:0.26462433 190:0.26462433 191:0.26218086 192:0.26462433 193:0.13841014 194:0.15593192 195:0.02923125 196:0.043859817 197:0.10941698 198:0.26462433 199:0.26462433 200:0.20411783 201:0.26462433 202:0.015441105 203:0.002681497 204:0.00011522132 205:0.024098901 206:0.0040802853 207:0.26462433 208:0.1648754 209:0.17047234 210:0.26462433 211:0.032146413 212:0.015045113 213:0.0017283199 214:0.030984299 215:0.013873073 216:0.16486186 
0 0.2412666270925696 1:0.23838761 2:0.098129563 3:0.18373393 4:0.083103254 5:0.28233892 6:0.036010996 7:0.056401044 8:0.049114749 9:0.12338024 10:0.28233892 11:0.20543036 12:0.23601441 13:0.063236162 14:0.28233892 15:0.065241121 16:0.11888285 17:0.073805556 18:0.25420791 19:0.17975695 20:0.042105887 21:0.12100167 22:0.041108374 23:0.28233892 24:0.055848863 25:0.074409537 26:0.044894543 27:0.10960934 28:0.28233892 29:0.18465641 30:0.19611503 31:0.056313191 32:0.10701613 33:0.099903934 34:0.15467012 35:0.071424738 36:0.28233892 37:0.25696334 38:0.25696334 39:0.18515129 40:0.057326078 41:0.13553621 42:0.015171089 43:0.068105109 44:0.0208303 45:0.23134533 46:0.25696334 47:0.25696334 48:0.25696334 49:0.17064145 50:0.012091042 51:0.065459341 52:0.06418997 53:0.002805966 54:0.21316586 55:0.25696334 56:0.24651584 57:0.20913939 58:0.072375983 59:0.008996658 60:0.020329887 61:0.072430879 62:0.022778481 63:0.25696334 64:0.25696334 65:0.24910842 66:0.1939701 67:0.11057588 68:0.0050907047 69:0.021583611 70:0.041512985 71:0.0025432548 72:0.20292355 73:0.25598595 74:0.25598595 75:0.25598595 76:0.24007748 77:0.015799478 78:0.11728439 79:0.027342351 80:0.00031685081 81:0.20029055 82:0.25598595 83:0.25598595 84:0.24925923 85:0.25598595 86:0.1771159 87:0.082653776 88:0.0038719231 89:0.022086844 90:0.25598595 91:0.21487954 92:0.15776664 93:0.15444846 94:0.08811 95:0.0059903534 96:0.026497582 97:0.019550579 98:0.0012787447 99:0.15336396 100:0.2206528 101:0.18463999 102:0.25598595 103:0.039716493 104:0.13687426 105:0.0063241986 106:0.024507793 107:0.026176382 108:0.1677175 109:0.11412814 110:0.011984852 111:0.051969502 112:0.048701689 113:0.17425852 114:0.013595015 115:0.021105893 116:0.010832136 117:0.048187912 118:0.16995017 119:0.090813391 120:0.099293135 121:0.058802966 122:0.01291356 123:0.02742577 124:0.066150136 125:0.041470263 126:0.15176889 127:0.27336961 128:0.25200677 129:0.22747287 130:0.21200916 131:0.27336961 132:0.021839488 133:0.080448315 134:0.06248733 135:0.18522483 136:0.27336961 137:0.27336961 138:0.27336961 139:0.27336961 140:0.22593072 141:0.078030355 142:0.22480625 143:0.17013693 144:0.27336961 145:0.2004524 146:0.11383339 147:0.14379936 148:0.053768836 149:0.0051506842 150:0.011134495 151:0.021766547 152:0.017768344 153:0.15752462 154:0.28119922 155:0.23787351 156:0.19318683 157:0.045646276 158:0.012475975 159:0.019074582 160:0.0088845221 161:0.0081852749 162:0.19562764 163:0.28119922 164:0.28119922 165:0.28119922 166:0.14625807 167:0.046942156 168:0.061463989 169:0.084540136 170:0.072686516 171:0.28099272 172:0.28119922 173:0.28119922 174:0.28119922 175:0.072790794 176:0.02840117 177:0.044916444 178:0.011101001 179:0.014607228 180:0.28119922 181:0.2699877 182:0.2699877 183:0.19348967 184:0.059697259 185:0.0046865628 186:0.0078276917 187:0.042820759 188:0.0095504057 189:0.21705665 190:0.2699877 191:0.2699877 192:0.2699877 193:0.050264772 194:0.022619743 195:0.00090833596 196:0.06050441 197:0.052422218 198:0.2699877 199:0.2699877 200:0.2699877 201:0.19383647 202:0.04515031 203:0.010310438 204:0.016216146 205:0.040523376 206:0.010995814 207:0.21937448 208:0.2699877 209:0.2699877 210:0.20374851 211:0.028163103 212:0 213:0.00070648361 214:0.037103456 215:0.02092059 216:0.18656573 
0 0.1883775370546447 1:0.20063145 2:0.083023861 3:0.058193188 4:0.084605455 5:0.29663596 6:0 7:0.014671759 8:0.018527154 9:0.11614968 10:0.29663596 11:0.081780121 12:0.13685124 13:0.11861867 14:0.29663596 15:0 16:0.018863687 17:0.03135027 18:0.20497276 19:0.20700152 20:0.044518411 21:0.043905903 22:0.10883266 23:0.29663596 24:0 25:0.084565125 26:0.04345746 27:0.15989247 28:0.29663596 29:0.14585727 30:0.20415875 31:0.22514032 32:0.29663596 33:0 34:0.10872659 35:0.088502325 36:0.29663596 37:0.24022643 38:0.080856048 39:0.22567399 40:0.050279848 41:0.24022643 42:0 43:0.0024978213 44:0.005707575 45:0.22747603 46:0.24022643 47:0.20364939 48:0.24022643 49:0.094457597 50:0.24022643 51:0 52:0 53:0 54:0.24022643 55:0.24022643 56:0.14771013 57:0.24022643 58:0.10160924 59:0.24022643 60:0 61:0.014396951 62:0.018463166 63:0.24022643 64:0.24022643 65:0.11714275 66:0.23946592 67:0.050565146 68:0.19132738 69:0 70:0 71:0 72:0.24022643 73:0.23737381 74:0.23737381 75:0.23737381 76:0.23737381 77:0.23737381 78:0 79:0 80:0 81:0.23737381 82:0.23737381 83:0.23737381 84:0.23737381 85:0.18359622 86:0.23737381 87:0 88:0 89:0.012761168 90:0.23737381 91:0.19827856 92:0.13936071 93:0.16941164 94:0.080898635 95:0.1166973 96:0 97:0 98:0 99:0.16553718 100:0.1944363 101:0.22737567 102:0.19572589 103:0.13387525 104:0.20670074 105:0 106:0 107:0 108:0.1431244 109:0.15912892 110:0.029678281 111:0.016157234 112:0.072735399 113:0.27680275 114:0 115:0.085398242 116:0.029705364 117:0.12279003 118:0.24874052 119:0.090493873 120:0.10007783 121:0.14297906 122:0.16557559 123:0 124:0.10979775 125:0.058177739 126:0.24165106 127:0.27680275 128:0.13457768 129:0.19309275 130:0.0090297209 131:0.27680275 132:0 133:0.0018855622 134:0.012722376 135:0.25615793 136:0.27680275 137:0.27680275 138:0.27680275 139:0.078985251 140:0.27680275 141:0 142:0 143:0 144:0.27680275 145:0.18026915 146:0.083546117 147:0.097680002 148:0.072168916 149:0.062280476 150:0 151:0.010523221 152:0.0085657937 153:0.13935895 154:0.25530562 155:0.14836098 156:0.18535979 157:0.12231611 158:0.066578433 159:0 160:0 161:0 162:0.17966408 163:0.27004108 164:0.27004108 165:0.27004108 166:0.19319008 167:0.19372626 168:0 169:0 170:0 171:0.27004108 172:0.27004108 173:0.27004108 174:0.27004108 175:0.27004108 176:0.12335192 177:0 178:0 179:0 180:0.27004108 181:0.23389474 182:0.16071649 183:0.23389474 184:0.12069447 185:0.15002263 186:0 187:0 188:0 189:0.19367568 190:0.23389474 191:0.23389474 192:0.23389474 193:0.23389474 194:0.23389474 195:0 196:0 197:0 198:0.23389474 199:0.23389474 200:0.21396881 201:0.23389474 202:0.16368338 203:0.16567059 204:0 205:0 206:0 207:0.23067187 208:0.22143854 209:0.1769155 210:0.2104774 211:0.12610182 212:0.16258268 213:0 214:0 215:0 216:0.17314807 
0 0.220779337813795 1:0.062767692 2:0.12920807 3:0.18169057 4:0.066075042 5:0.32860321 6:0.027664138 7:0.031470291 8:0.019969055 9:0.037306219 10:0.082449473 11:0.076130398 12:0.081038252 13:0.021909686 14:0.32860321 15:0.04130822 16:0.035159841 17:0.032966312 18:0.077374801 19:0.14942034 20:0.1012055 21:0.10402051 22:0.20434137 23:0.32860321 24:0.039834876 25:0.030333517 26:0.031750914 27:0.1143569 28:0.32860321 29:0.19180761 30:0.29726851 31:0.13677311 32:0.32860321 33:0.075330466 34:0.045464098 35:0.065394789 36:0.32860321 37:0.1595948 38:0.19877139 39:0.11638164 40:0.017288871 41:0.13914749 42:0.013774752 43:0.015874324 44:0.041841093 45:0.11237673 46:0.25387251 47:0.26402631 48:0.20741817 49:0.093058504 50:0.065588929 51:0.058742702 52:0.077996403 53:0.062222663 54:0.10750942 55:0.26402631 56:0.26402631 57:0.26402631 58:0.06306693 59:0.074814953 60:0.035242837 61:0.036307547 62:0.090687856 63:0.26402631 64:0.26402631 65:0.26402631 66:0.26402631 67:0.12192128 68:0.14422104 69:0.12352902 70:0.1507085 71:0.1465178 72:0.25653863 73:0.2177891 74:0.23372844 75:0.18614504 76:0.16451386 77:0.1156891 78:0.03815522 79:0.077883966 80:0.027650917 81:0.099929109 82:0.23372844 83:0.16875915 84:0.17590035 85:0.23372844 86:0.215371 87:0.0079326713 88:0.066466384 89:0.037211202 90:0.23372844 91:0.23372844 92:0.23372844 93:0.23163497 94:0.13100545 95:0.18027422 96:0.059049681 97:0.087451108 98:0.050946381 99:0.13779429 100:0.23372844 101:0.23372844 102:0.22597361 103:0.12548898 104:0.21747285 105:0.0075179539 106:0.044465359 107:0.036831375 108:0.23372844 109:0.18615116 110:0.10346026 111:0.066121757 112:0.15533344 113:0.24978475 114:0.025690574 115:0.029792566 116:0.014138808 117:0.096672095 118:0.24978475 119:0.21113034 120:0.24075 121:0.15492789 122:0.20999321 123:0.034782622 124:0.02950114 125:0.027851099 126:0.2329388 127:0.24978475 128:0.079234332 129:0.10270308 130:0.082622893 131:0.23392579 132:0.017254163 133:0.017276794 134:0.017692156 135:0.24978475 136:0.24978475 137:0.24978475 138:0.24978475 139:0.24978475 140:0.20859154 141:0.021385996 142:0.004311264 143:0 144:0.24978475 145:0.25244126 146:0.19081928 147:0.24718349 148:0.060304802 149:0.030196799 150:0.019412916 151:0.0094190771 152:0.020514898 153:0.20215824 154:0.25244126 155:0.25244126 156:0.22743973 157:0.042032082 158:0.040779993 159:0.035608698 160:0.051892702 161:0.045458794 162:0.25244126 163:0.25244126 164:0.25244126 165:0.25244126 166:0.25244126 167:0.099646084 168:0.027197685 169:0.0019017773 170:0.00056571176 171:0.20296751 172:0.25244126 173:0.25244126 174:0.22850777 175:0.041903961 176:0.020109624 177:0.019286821 178:0.028573209 179:0.012900079 180:0.2181997 181:0.27287838 182:0.27287838 183:0.27287838 184:0.082951486 185:0.08523237 186:0.016969932 187:0.036691155 188:0.060400672 189:0.27287838 190:0.27287838 191:0.27287838 192:0.27287838 193:0.057849772 194:0.081400983 195:0.00069298741 196:0.011475702 197:0.061200693 198:0.27287838 199:0.27287838 200:0.27287838 201:0.21930239 202:0.04170908 203:0.016180232 204:0 205:0.022121111 206:0.032774612 207:0.19701838 208:0.21621938 209:0.19368334 210:0.1686727 211:0.027745321 212:0.022498937 213:0 214:0.00083224982 215:0.025797315 216:0.11932021 
0.3011252952449878 0.3344750104506232 1:0.16599031 2:0.097709969 3:0.039365835 4:0.12960413 5:0.33554804 6:0.015181147 7:0.02548195 8:0.043150347 9:0.090014935 10:0.175533 11:0.096139222 12:0.16729666 13:0.061798997 14:0.33554804 15:0.050456546 16:0.058913816 17:0.1181013 18:0.15658842 19:0.22743145 20:0.031870831 21:0.0044428096 22:0.10569127 23:0.33554804 24:0.026090575 25:0.050173815 26:0.028684678 27:0.11553917 28:0.32006776 29:0.10605853 30:0.23193495 31:0.082983658 32:0.33554804 33:0.079336643 34:0.11616634 35:0.11739466 36:0.27275595 37:0.24712877 38:0.12594756 39:0.24712877 40:0.049854361 41:0.24712877 42:0.015805122 43:0.011686523 44:0.028153295 45:0.19602045 46:0.24712877 47:0.24712877 48:0.24712877 49:0.064288832 50:0.24555433 51:0.013967428 52:0.002850076 53:0.0033738939 54:0.20736909 55:0.24712877 56:0.11959031 57:0.24712877 58:0.060706101 59:0.24712877 60:0.020138254 61:0.021653604 62:0.032592516 63:0.23075415 64:0.24712877 65:0.11510193 66:0.24712877 67:0.027348338 68:0.19565924 69:0.0063488306 70:0.0012954888 71:0.00022492626 72:0.18612139 73:0.25523207 74:0.25523207 75:0.25523207 76:0.05675352 77:0.059105694 78:0.0071531376 79:0.0014596088 80:0.021049786 81:0.22916301 82:0.25523207 83:0.25523207 84:0.19730802 85:0.023048325 86:0.19828649 87:0.02526376 88:0.020449173 89:0.029020611 90:0.25523207 91:0.25523207 92:0.16789155 93:0.17332789 94:0.028327631 95:0.1302658 96:0.010778917 97:0.010592204 98:0.0063972333 99:0.16850758 100:0.25523207 101:0.25523207 102:0.15959963 103:0.037451256 104:0.25523207 105:0.023785274 106:0.050844766 107:0.076000176 108:0.25523207 109:0.16340928 110:0.038309999 111:0.0058981976 112:0.062089823 113:0.23250188 114:0.0073752441 115:0.01639249 116:0.0058076968 117:0.086063437 118:0.19720316 119:0.11433031 120:0.094090059 121:0.023126831 122:0.079509705 123:0.020702431 124:0.038703538 125:0.024660284 126:0.13653201 127:0.31011197 128:0.27558547 129:0.30633074 130:0.044240143 131:0.20412801 132:0 133:0 134:0.13941452 135:0.31011197 136:0.31011197 137:0.31011197 138:0.31011197 139:0.022386696 140:0.0068978877 141:0 142:0.022035176 143:0.057235181 144:0.31011197 145:0.16917776 146:0.13210882 147:0.17527755 148:0.048947118 149:0.050779074 150:0.0035945408 151:0.0061294222 152:0.0057088584 153:0.087666959 154:0.27430037 155:0.16846476 156:0.27430037 157:0.073367015 158:0.22874391 159:0 160:5.9307516e-05 161:3.6002264e-05 162:0.26911911 163:0.27430037 164:0.27430037 165:0.27430037 166:0.080495968 167:0.023933982 168:0 169:0.013344191 170:0.012932705 171:0.10414697 172:0.27430037 173:0.27430037 174:0.27430037 175:0.11575539 176:0.23601994 177:0 178:0.00088961283 179:0.00054003397 180:0.24481039 181:0.25053272 182:0.1849485 183:0.25053272 184:0.041569069 185:0.25053272 186:0.01471191 187:0.014301374 188:0.0048246891 189:0.25053272 190:0.25053272 191:0.25053272 192:0.25053272 193:0.076394811 194:0.25053272 195:0.042772807 196:0.073236853 197:0.072370335 198:0.25053272 199:0.25053272 200:0.12609132 201:0.25053272 202:0.032038931 203:0.24979731 204:0.0055956305 205:0.0033003169 206:0.00051423407 207:0.25053272 208:0.20596001 209:0.076242208 210:0.13722485 211:0.032706417 212:0.11830698 213:0.01471191 214:0.016900813 215:0.0077135107 216:0.1661143 
