svm_type c_svc
kernel_type rbf
gamma 1
nr_class 3
total_sv 1383
rho 0.11606 1.43851 0.96549
label 1 -1 0
nr_sv 297 180 906
SV
0 0.1342400986764997 1:0.25494936 2:0.17180371 3:0.27171004 4:0.21296853 5:0.28063038 6:0.038313415 7:0.011516786 8:0.017308941 9:0.10009326 10:0.2345527 11:0.09330593 12:0.17417662 13:0.091280967 14:0.28063038 15:0.048881143 16:0.014350196 17:0.040417112 18:0.1621823 19:0.13253459 20:0.072678983 21:0.14221095 22:0.11926787 23:0.28063038 24:0.080762736 25:0.090426013 26:0.050191186 27:0.20214735 28:0.28063038 29:0.028049001 30:0.046618916 31:0.084605947 32:0.2589654 33:0.098743409 34:0.13246423 35:0.15821704 36:0.28063038 37:0.13988684 38:0.020504616 39:0.044835452 40:0.022806939 41:0.14160845 42:0.024542214 43:0.009329265 44:0.041786246 45:0.13705161 46:0.051178429 47:0 48:0 49:0.0018653598 50:0.00067580718 51:0.0068286359 52:0.003307652 53:0.0083844876 54:0.058825132 55:0.4035196 56:0.003445795 57:0.0088771414 58:0.22275615 59:0.06059958 60:0.10352892 61:0.19491039 62:0.34502032 63:0.4035196 64:0.4035196 65:0.014839647 66:0 67:0.071788967 68:0.020117179 69:0.12255839 70:0.13340329 71:0.12218127 72:0.4035196 73:0.034257274 74:0 75:0 76:0 77:0.00012375551 78:0.0014996125 79:0.00099556788 80:0 81:0.04625671 82:0.0021550567 83:0 84:0 85:0 86:9.6254284e-05 87:0.00068164209 88:0.00045253089 89:0 90:0.0049241576 91:0.43046799 92:0.063780524 93:0 94:0 95:0.028893579 96:0.26089916 97:0.26922137 98:0.045712415 99:0.43046799 100:0.43046799 101:0.040499199 102:0.017446576 103:0.011642097 104:0.0076831789 105:0.12199705 106:0.28407642 107:0.076684155 108:0.43046799 109:0.25179544 110:0.014949793 111:0.031889435 112:0.029018365 113:0.13977069 114:0.052927889 115:0.12404847 116:0.087651812 117:0.30949181 118:0.31662378 119:0.0022602649 120:0 121:0.045352522 122:0.059708841 123:0.060557883 124:0.11490177 125:0.13710013 126:0.31662378 127:0.31662378 128:0.018926976 129:0.0010058045 130:0.0012905658 131:0.017379636 132:0.08983513 133:0.22159308 134:0.18527766 135:0.31662378 136:0.31662378 137:0.019838518 138:0.0010362279 139:0.015795069 140:0.02374253 141:0.073349208 142:0.15895829 143:0.15278189 144:0.31662378 145:0.32752636 146:0.001454027 147:0 148:0.09035302 149:0.01605422 150:0.046722759 151:0.080836214 152:0.15994135 153:0.32752636 154:0.32752636 155:0.013212848 156:0 157:0.032407977 158:0.011202139 159:0.068061441 160:0.086530127 161:0.072807424 162:0.32752636 163:0.32752636 164:0.021810407 165:0.0043495335 166:0.055153169 167:0.052851532 168:0.037007432 169:0.11006489 170:0.17378891 171:0.32752636 172:0.32752636 173:0.011709847 174:0.0033829703 175:0.037343219 176:0.031457592 177:0.056037873 178:0.094254449 179:0.11168251 180:0.32752636 181:0.32204875 182:0.03575417 183:0 184:0 185:0.010367183 186:0.09770941 187:0.144723 188:0.031888656 189:0.32204875 190:0.32204875 191:0.026888119 192:0.016245013 193:0.017740438 194:0.021119591 195:0.093670644 196:0.18734935 197:0.092361018 198:0.32204875 199:0.32204875 200:0.025211366 201:0 202:0 203:0.02466793 204:0.090234779 205:0.12497466 206:0.029677676 207:0.32204875 208:0.32204875 209:0.022058789 210:0.014309576 211:0.035727099 212:0.10653992 213:0.09989123 214:0.13776985 215:0.10885196 216:0.32204875 
0 0.1127165159611324 1:0.049724415 2:0.10109151 3:0.25673059 4:0.27112445 5:0.27112445 6:0.059319675 7:0.061802983 8:0.021675646 9:0.064610779 10:0.036130477 11:0.017541535 12:0.068228379 13:0.18774 14:0.27112445 15:0.085622765 16:0.065967165 17:0.047543745 18:0.039651621 19:0.025533346 20:0.054162707 21:0.1406703 22:0.17270258 23:0.27112445 24:0.17508605 25:0.15622032 26:0.13223165 27:0.045697264 28:0.27112445 29:0.02053294 30:0.053377654 31:0.10517552 32:0.27112445 33:0.24116732 34:0.24754734 35:0.27112445 36:0.27112445 37:0.053065937 38:0.0041733282 39:0.0054415255 40:0.050076205 41:0.12675238 42:0.029833857 43:0.012625324 44:0.022432029 45:0.060485676 46:0.032572791 47:0 48:0 49:0 50:0.0014248125 51:0 52:0 53:0.0039323247 54:0.042564891 55:0.42560169 56:0.0086307805 57:0.025010865 58:0.053368926 59:0.065993719 60:0.12165552 61:0.16900289 62:0.20929682 63:0.42560169 64:0.42560169 65:2.8541794e-05 66:0.006622178 67:0 68:0.024380408 69:0.17767763 70:0.29449192 71:0.16631098 72:0.42560169 73:0.007685937 74:0 75:0 76:0 77:0.0017620078 78:0 79:0 80:0.0029495263 81:0.013304434 82:0 83:0 84:0 85:0 86:0 87:0 88:0 89:0 90:0 91:0.38944888 92:0.0086030848 93:0.067430779 94:0 95:0.042417184 96:0.20011811 97:0.38944888 98:0.28772876 99:0.38944888 100:0.38944888 101:0.018555861 102:0.06228653 103:0 104:0.018795215 105:0.11407726 106:0.25014201 107:0.16760689 108:0.38944888 109:0.18544196 110:0.016082676 111:0.040618949 112:0.045665219 113:0.10322073 114:0.091028154 115:0.070063956 116:0.081657894 117:0.20960633 118:0.3451395 119:0.0097770793 120:0.02882502 121:0.055582725 122:0.03758828 123:0.14802974 124:0.13636832 125:0.20791872 126:0.3451395 127:0.3451395 128:0 129:0.0078268545 130:0.010625428 131:0.033153765 132:0.047624957 133:0.023952108 134:0.04068578 135:0.3451395 136:0.3451395 137:0.00031247211 138:0.00082366244 139:0.0032027084 140:0.025616417 141:0.24196501 142:0.11813947 143:0.029648399 144:0.3451395 145:0.31975299 146:0.0020660372 147:0.0077848057 148:0.017703937 149:0.0094345585 150:0.058162026 151:0.075963721 152:0.084619552 153:0.31975299 154:0.31975299 155:3.1499749e-05 156:0.0073084729 157:0 158:0.010750162 159:0.11352525 160:0.1759779 161:0.10570208 162:0.31975299 163:0.31975299 164:0.0013262447 165:0.0069278372 166:0.041120596 167:0.016263084 168:0.1424043 169:0.10448949 170:0.11408709 171:0.31975299 172:0.31975299 173:0.0010458415 174:0.017931959 175:0.059013881 176:0.0086478554 177:0.087534368 178:0.11127701 179:0.19169565 180:0.31975299 181:0.30911711 182:0.0080128172 183:0.041118819 184:0 185:0.018444827 186:0.097459547 187:0.16060638 188:0.13783497 189:0.30911711 190:0.30911711 191:0.017416123 192:0.041257158 193:0 194:0.020441975 195:0.094870456 196:0.1731979 197:0.12323115 198:0.30911711 199:0.30911711 200:0.0061839926 201:0.024241805 202:0.010127124 203:0.036274035 204:0.088532604 205:0.11157674 206:0.13258274 207:0.30911711 208:0.30911711 209:0.013508388 210:0.031054826 211:0.0097524468 212:0.098695502 213:0.11140304 214:0.19465961 215:0.13525885 216:0.30911711 
0 0.1323566783404312 1:0.041675203 2:0.1089979 3:0.25483924 4:0.28112218 5:0.28112218 6:0.076974697 7:0.067978285 8:0.062327035 9:0.17510499 10:0.043571908 11:0.038243804 12:0.10881029 13:0.18735825 14:0.28112218 15:0.097272828 16:0.097737834 17:0.049025383 18:0.11844175 19:0.053935815 20:0.085268609 21:0.17442811 22:0.22367576 23:0.28112218 24:0.14419422 25:0.046183418 26:0.046102211 27:0.073782578 28:0.28112218 29:0.075678371 30:0.085981354 31:0.17134748 32:0.28112218 33:0.21741793 34:0.10328451 35:0.11415496 36:0.28112218 37:0.032904744 38:0.015714293 39:0.0563308 40:0.049950857 41:0.22333473 42:0.045704074 43:0.042748868 44:0.014441107 45:0.033084746 46:0.0066721262 47:0 48:0 49:0 50:5.5218239e-05 51:0.00041533247 52:0.00049672002 53:0 54:0.0073948842 55:0.38171896 56:0.07485462 57:0.057619691 58:0.1113391 59:0.29114649 60:0.25601414 61:0.20008811 62:0.20104776 63:0.38171896 64:0.38171896 65:0.018282233 66:0.0044645532 67:0.003310625 68:0.067933187 69:0.20467049 70:0.17130691 71:0.15117198 72:0.38171896 73:0.0015935517 74:0 75:0 76:0 77:0 78:0 79:0 80:0 81:0.0015935517 82:0 83:0 84:0 85:0 86:0 87:0 88:0 89:0 90:0 91:0.40469193 92:0.011379126 93:0.062229376 94:0.016866248 95:0.041467711 96:0.19602829 97:0.22055805 98:0.37167409 99:0.40469193 100:0.40469193 101:0 102:0.048400626 103:0.013118195 104:0.0086278217 105:0.091601416 106:0.14468618 107:0.27877435 108:0.40469193 109:0.17328371 110:0.027325407 111:0.029593093 112:0.049048841 113:0.1765364 114:0.1720663 115:0.094576523 116:0.098121889 117:0.24495259 118:0.293771 119:0.072465613 120:0.022192119 121:0.069973022 122:0.19670826 123:0.19026609 124:0.091851801 125:0.15254243 126:0.293771 127:0.293771 128:0.0096355891 129:0.0066641076 130:0.027177716 131:0.045917183 132:0.18024793 133:0.14390469 134:0.15418045 135:0.293771 136:0.293771 137:0.042319912 138:0.0047172052 139:0.043403756 140:0.048647631 141:0.16829216 142:0.1696762 143:0.21326858 144:0.293771 145:0.32141778 146:0.034539279 147:0.0067208637 148:0.028383186 149:0.07612209 150:0.10939812 151:0.085596122 152:0.10462581 153:0.32141778 154:0.32141778 155:0.013775819 156:0.0057809334 157:0.0025674372 158:0.034928732 159:0.12902999 160:0.098715596 161:0.10806972 162:0.32141778 163:0.32141778 164:0.018345511 165:0.01234387 166:0.033812687 167:0.038378332 168:0.11157867 169:0.16334014 170:0.13529743 171:0.32141778 172:0.32141778 173:0.0068258829 174:0.010107133 175:0.017110839 176:0.033775914 177:0.10044712 178:0.10873976 179:0.093139313 180:0.32141778 181:0.29480115 182:0.0058242641 183:0.027489213 184:0.025105478 185:0.011331227 186:0.059640128 187:0.079108 188:0.1500283 189:0.29480115 190:0.23041046 191:0.0061060274 192:0.02338104 193:0.030535182 194:0.013567346 195:0.086766765 196:0.13554035 197:0.17167406 198:0.29480115 199:0.29480115 200:0.0085922629 201:0.021380497 202:0.028494094 203:0.050417256 204:0.096510008 205:0.098616078 206:0.16081534 207:0.29480115 208:0.29480115 209:0.010680153 210:0.025298292 211:0.040264927 212:0.074958727 213:0.20778982 214:0.24042292 215:0.29480115 216:0.29480115 
0 0.4188302245280077 1:0.12168637 2:0.20261183 3:0.21383612 4:0.16852181 5:0.25037047 6:0.027636511 7:0.10430381 8:0.044154171 9:0.14544024 10:0.19079836 11:0.21344934 12:0.054111626 13:0.14531557 14:0.25037047 15:0.12497903 16:0.17057835 17:0.11231516 18:0.24316095 19:0.049359627 20:0.073567174 21:0.080356054 22:0.084826395 23:0.25037047 24:0.050663475 25:0.050372992 26:0.059289094 27:0.069698237 28:0.25037047 29:0.19370429 30:0.031868968 31:0.073234215 32:0.25037047 33:0.24442092 34:0.18133363 35:0.25037047 36:0.25037047 37:0.15604581 38:0.080417663 39:0.017309332 40:0.051972862 41:0.27089378 42:0.073869608 43:0.066378333 44:0.073277034 45:0.18109912 46:0.081234686 47:4.103846e-05 48:0 49:0.0068147769 50:0.0018985204 51:0.018581595 52:0.011778164 53:0.030848537 54:0.10111602 55:0.3265675 56:0.10863233 57:0.014691832 58:0.095686778 59:0.10084011 60:0.23227423 61:0.17046314 62:0.32141396 63:0.3265675 64:0.3265675 65:0.00017783331 66:0 67:0.19060624 68:0.028976372 69:0.11677289 70:0.18348901 71:0.30737555 72:0.3265675 73:0.05304781 74:0 75:0 76:0.0025857147 77:0.0014267388 78:0.0081780571 79:0.0038822375 80:0.012219504 81:0.06604249 82:0.014453385 83:0 84:0 85:0 86:0.0012622906 87:0 88:0 89:0.0010205928 90:0.024002276 91:0.38298771 92:0.0076447744 93:0 94:0.094076492 95:0.02097572 96:0.15550795 97:0.25972477 98:0.25564516 99:0.38298771 100:0.38298771 101:0.026422372 102:0.014392553 103:0 104:0.020369776 105:0.18364759 106:0.382577 107:0.23129523 108:0.38298771 109:0.20591055 110:0.016626881 111:0.012548449 112:0.009877651 113:0.090310097 114:0.07334365 115:0.11230638 116:0.073627017 117:0.27468926 118:0.27727428 119:0.058260191 120:0.0023077561 121:0.0030783147 122:0.043628752 123:0.10742061 124:0.11884217 125:0.13301243 126:0.31912562 127:0.31912562 128:0.040938035 129:0.015433451 130:0 131:0.030496189 132:0.12887718 133:0.25760427 134:0.093411088 135:0.31912562 136:0.31912562 137:0.03939376 138:0 139:0.068436652 140:0.040948655 141:0.16841702 142:0.23845646 143:0.15628952 144:0.31912562 145:0.29743585 146:0.029258955 147:0.0013057196 148:0.041402087 149:0.023885239 150:0.098689847 151:0.076493464 152:0.1464233 153:0.31499678 154:0.31499678 155:4.9380731e-05 156:0 157:0.11460508 158:0.017115284 159:0.066446126 160:0.10560413 161:0.18940535 162:0.31499678 163:0.31499678 164:0.0049733133 165:0 166:0.12849289 167:0.022764498 168:0.08631134 169:0.13600881 170:0.20441575 171:0.31499678 172:0.31499678 173:0.0086917346 174:0 175:0.046495121 176:0.012807832 177:0.07966467 178:0.08217375 179:0.092163108 180:0.31499678 181:0.29095796 182:0.0053109955 183:0 184:0.033210516 185:0.0064741834 186:0.063949391 187:0.13043049 188:0.13901204 189:0.29095796 190:0.29095796 191:0.022684496 192:0.016485279 193:0 194:0.01300599 195:0.15585098 196:0.29095796 197:0.23059547 198:0.29095796 199:0.29095796 200:0.023653936 201:0 202:0.001553193 203:0.01088017 204:0.099550679 205:0.12031484 206:0.052262802 207:0.29095796 208:0.29095796 209:0.028203992 210:0.025784664 211:0.022698753 212:0.071009241 213:0.13271742 214:0.2029151 215:0.14683826 216:0.29095796 
0 1.097282396310036 1:0.15422346 2:0.095718823 3:0.079686046 4:0.10334921 5:0.21141212 6:0.20555028 7:0.06572102 8:0.094621636 9:0.10687485 10:0.15740214 11:0.034289405 12:0.049088746 13:0.050088637 14:0.095825315 15:0.070921637 16:0.021339988 17:0.034525078 18:0.11235808 19:0.26681253 20:0.14998969 21:0.26681253 22:0.26681253 23:0.26681253 24:0.17629932 25:0.081676155 26:0.18414678 27:0.22696306 28:0.26681253 29:0.14833024 30:0.26617491 31:0.26681253 32:0.12688442 33:0.077461995 34:0.049477238 35:0.12234473 36:0.26681253 37:0.21251348 38:0.058223613 39:0.090799943 40:0.096057817 41:0.044991974 42:0.0050119101 43:0.013429936 44:0.0039310637 45:0.13022177 46:0.264725 47:0.13877216 48:0.16120897 49:0.20597142 50:0.11687249 51:0.025471278 52:0.014412885 53:0.0057964474 54:0.264725 55:0.264725 56:0.18646556 57:0.22803576 58:0.264725 59:0.061429843 60:0.018335182 61:0.04619455 62:0.052804753 63:0.264725 64:0.264725 65:0.25429475 66:0.264725 67:0.264725 68:0.098497473 69:0.036231533 70:0.052647624 71:0.070289619 72:0.264725 73:0.24806122 74:0.13180131 75:0.13147773 76:0.19518216 77:0.11568496 78:0.030466642 79:0.0038233413 80:0.013843205 81:0.24806122 82:0.24806122 83:0.19529991 84:0.1307793 85:0.24806122 86:0.16298585 87:0.059100024 88:0.0038486631 89:0.040189963 90:0.24806122 91:0.24806122 92:0.18678452 93:0.18917602 94:0.24806122 95:0.072591648 96:0.041543588 97:0.015572666 98:0.06201344 99:0.24806122 100:0.24806122 101:0.19474497 102:0.16140421 103:0.21668704 104:0.10045157 105:0.053611409 106:0.0018616619 107:0.04811785 108:0.24806122 109:0.18978658 110:0.069116548 111:0.23789389 112:0.24321203 113:0.24321203 114:0.042232942 115:0.01903961 116:0.051681813 117:0.12619177 118:0.24321203 119:0.11537114 120:0.22899717 121:0.20636047 122:0.076925479 123:0.026472798 124:0.016575718 125:0.041359026 126:0.24321203 127:0.24321203 128:0.11724553 129:0.16450961 130:0.22524108 131:0.24321203 132:0.042209927 133:0.0039585251 134:0.052688692 135:0.24321203 136:0.24321203 137:0.15166713 138:0.18990088 139:0.23121907 140:0.14012921 141:0.040387373 142:0.0019345194 143:0.014674205 144:0.24321203 145:0.25383887 146:0.1944416 147:0.24205123 148:0.25383887 149:0.090289786 150:0.028097419 151:0.033701893 152:0.04524393 153:0.25383887 154:0.25383887 155:0.23140135 156:0.25383887 157:0.25383887 158:0.084987588 159:0.030102799 160:0.05077764 161:0.059404299 162:0.24462973 163:0.25383887 164:0.15536265 165:0.1769968 166:0.20167518 167:0.13739322 168:0.029588988 169:0.0082313288 170:0.0061606597 171:0.25383887 172:0.25383887 173:0.087635845 174:0.12844618 175:0.13015491 176:0.073918499 177:0.01072108 178:0.015039395 179:0.0041589239 180:0.13590732 181:0.3087033 182:0.3087033 183:0.3087033 184:0.3087033 185:0.12730642 186:0.083998188 187:0.049959294 188:0.1321394 189:0.3087033 190:0.3087033 191:0.29523683 192:0.18815963 193:0.23839524 194:0.10071158 195:0.063491821 196:0.0024579167 197:0.058129877 198:0.3087033 199:0.20694844 200:0.085985266 201:0.10324827 202:0.10608785 203:0.063334778 204:0.0077033918 205:0.010145304 206:0.0057189618 207:0.10257468 208:0.037928227 209:0.020073017 210:0.0046762261 211:0.011160471 212:0.010636786 213:0 214:0.00012017416 215:0.00026589484 216:0.026203411 
0.2752408566443389 2.225490525028395 1:0.10658298 2:0.19842848 3:0.094586022 4:0.14372793 5:0.25734335 6:0.13889222 7:0.083495557 8:0.1745473 9:0.11208146 10:0.14650263 11:0.07640522 12:0.019949449 13:0.092820667 14:0.24526116 15:0.10435733 16:0.055659115 17:0.11962492 18:0.14313896 19:0.13539059 20:0.16158129 21:0.10866385 22:0.14678578 23:0.25734335 24:0.1369047 25:0.1234096 26:0.13128105 27:0.12625557 28:0.25734335 29:0.23145761 30:0.13509233 31:0.2558161 32:0.25734335 33:0.15237769 34:0.17705677 35:0.18612491 36:0.25734335 37:0.23330475 38:0.082536936 39:0.044795774 40:0.093553677 41:0.081381992 42:0.024268448 43:0.0063860887 44:0.015118381 45:0.20625007 46:0.26164171 47:0.1687222 48:0.11285433 49:0.15588556 50:0.18966199 51:0.046774138 52:0.0049773515 53:0.01547887 54:0.26164171 55:0.26164171 56:0.20216241 57:0.19638415 58:0.21308739 59:0.094171554 60:0.07482817 61:0.071608633 62:0.069717847 63:0.26164171 64:0.26164171 65:0.26164171 66:0.20386572 67:0.26164171 68:0.12574194 69:0.064399347 70:0.091967098 71:0.067142256 72:0.26164171 73:0.24573271 74:0.17488192 75:0.10372035 76:0.16734526 77:0.18761869 78:0.045259714 79:0.0043123332 80:0.018087756 81:0.24573271 82:0.24573271 83:0.23290572 84:0.13335314 85:0.23737206 86:0.24573271 87:0.054988399 88:0.011534447 89:0.034831766 90:0.24573271 91:0.24573271 92:0.2096436 93:0.10824478 94:0.21508282 95:0.097153552 96:0.030609278 97:0.056737367 98:0.057296339 99:0.24573271 100:0.24573271 101:0.15364537 102:0.16099028 103:0.15356241 104:0.13559571 105:0.055418774 106:0.014931283 107:0.028396109 108:0.24573271 109:0.18516648 110:0.10607418 111:0.06860856 112:0.092903055 113:0.26268753 114:0.039406803 115:0.062771842 116:0.057159938 117:0.17331275 118:0.26268753 119:0.19550389 120:0.15965019 121:0.17916729 122:0.19950375 123:0.083526932 124:0.098705865 125:0.092637494 126:0.26268753 127:0.26268753 128:0.15866119 129:0.11668625 130:0.15161787 131:0.24311084 132:0.04062511 133:0.0030395242 134:0.018056523 135:0.26268753 136:0.26268753 137:0.1809247 138:0.1330239 139:0.15639573 140:0.23545139 141:0.04756625 142:0.0048653213 143:0.016603786 144:0.26268753 145:0.26645112 146:0.24958037 147:0.24611039 148:0.25912267 149:0.1267962 150:0.091203146 151:0.074908853 152:0.075090498 153:0.26645112 154:0.26645112 155:0.26645112 156:0.15974228 157:0.26645112 158:0.087871604 159:0.038546812 160:0.1018561 161:0.078869991 162:0.26645112 163:0.26645112 164:0.15068971 165:0.09016864 166:0.15624276 167:0.15341051 168:0.039005671 169:0.0061067832 170:0.018504707 171:0.26645112 172:0.17445441 173:0.083796255 174:0.021573253 175:0.10335629 176:0.057091136 177:0.010339675 178:0.0058907722 179:0.015673859 180:0.13950263 181:0.33657485 182:0.33657485 183:0.24658509 184:0.33657485 185:0.17011975 186:0.021556092 187:0.18529887 188:0.12194455 189:0.33657485 190:0.33657485 191:0.18593064 192:0.2121124 193:0.16698238 194:0.13593312 195:0.045303863 196:0.03288034 197:0.038444959 198:0.33657485 199:0.14349142 200:0.070516229 201:0.0083787143 202:0.076187573 203:0.046726245 204:0 205:0.0046357755 206:0.0090280548 207:0.11271401 208:0.016395263 209:0.0061450959 210:0.0015680923 211:0.0055603506 212:0.0083619161 213:0 214:0 215:0 216:0.012388273 
0 0.08836728414367888 1:0.054361984 2:0.15753311 3:0.24637954 4:0.21109581 5:0.27407619 6:0.093358375 7:0.14610466 8:0.032716401 9:0.042844847 10:0.044366948 11:0.045889389 12:0.079299703 13:0.095192656 14:0.27407619 15:0.11709466 16:0.1465129 17:0.039886508 18:0.061738811 19:0.099701889 20:0.082740478 21:0.10462009 22:0.10809382 23:0.27407619 24:0.16626811 25:0.16966258 26:0.13169032 27:0.17068176 28:0.25296709 29:0.046467565 30:0.082051426 31:0.065776832 32:0.27407619 33:0.26050258 34:0.27407619 35:0.18207787 36:0.27407619 37:0.036046233 38:0.0060041114 39:0.012779521 40:0.031085096 41:0.098902903 42:0.045760158 43:0.046444289 44:0.012008667 45:0.071696721 46:0.010762848 47:0 48:0 49:0 50:0.00059898361 51:0.0012154055 52:0.0017620316 53:0 54:0.011896323 55:0.39120778 56:0.033218659 57:0.089031264 58:0.057102107 59:0.10895275 60:0.23584606 61:0.39120778 62:0.16882427 63:0.39120778 64:0.39120778 65:0.01117286 66:0.0045262817 67:0.012098246 68:0.081948094 69:0.24384466 70:0.14708947 71:0.1115358 72:0.39120778 73:0.0066543045 74:0 75:0 76:0 77:0 78:0 79:0 80:0 81:0.0066543045 82:0 83:0 84:0 85:0 86:0 87:0 88:0 89:0 90:0 91:0.38657126 92:0.035012111 93:0 94:0.040712599 95:0.1233465 96:0.38657126 97:0.29158288 98:0.3118619 99:0.38657126 100:0.38657126 101:0.0090665976 102:0 103:0.031665359 104:0.022688646 105:0.08758194 106:0.088922173 107:0.17694418 108:0.38657126 109:0.31069216 110:0.010322655 111:0.01937419 112:0.018376587 113:0.10606798 114:0.096875548 115:0.097203404 116:0.072704054 117:0.31069216 118:0.31069216 119:0.020461814 120:0.039854746 121:0.025766168 122:0.059094209 123:0.18733597 124:0.25425163 125:0.11275701 126:0.31069216 127:0.31069216 128:0 129:0.0059497217 130:0.00396625 131:0.039300915 132:0.080028869 133:0.071044527 134:0.042424928 135:0.31069216 136:0.31069216 137:0.00035392886 138:0.0015217569 139:0.012650342 140:0.06561134 141:0.16280466 142:0.13710977 143:0.072347321 144:0.31069216 145:0.31053236 146:0.0088964188 147:0.023175091 148:0.026048549 149:0.039117742 150:0.1009242 151:0.13358901 152:0.085941628 153:0.31053236 154:0.31053236 155:0.010720865 156:0.0013414088 157:0.010708837 158:0.050994534 159:0.15555596 160:0.10912517 161:0.081339464 162:0.31053236 163:0.31053236 164:0.012753706 165:0.0013414088 166:0.027382659 167:0.037999261 168:0.11323731 169:0.11927912 170:0.1165525 171:0.31053236 172:0.31053236 173:0.054073986 174:0.0020477781 175:0.021808779 176:0.052402619 177:0.15285185 178:0.20772476 179:0.16125073 180:0.31053236 181:0.28785107 182:0.013768931 183:0.016646547 184:0.022232089 185:0.031553663 186:0.11177745 187:0.11521371 188:0.12630205 189:0.30364186 190:0.30364186 191:0.0042426391 192:0.021402705 193:0.018907353 194:0.010954889 195:0.058259629 196:0.08476875 197:0.10653982 198:0.30364186 199:0.30364186 200:0.04862101 201:0.02359641 202:0.032682072 203:0.057596426 204:0.13261831 205:0.19847079 206:0.19868569 207:0.30364186 208:0.30364186 209:0.01232009 210:0.06474188 211:0.027198339 212:0.09330523 213:0.13803162 214:0.17119755 215:0.19038586 216:0.30364186 
0 1.054745569174272 1:0.2530652 2:0.13584733 3:0.068319976 4:0.10500515 5:0.2026982 6:0.097927526 7:0.072850466 8:0.12854654 9:0.2530652 10:0.2530652 11:0.048835266 12:0.037965816 13:0.045293853 14:0.19879109 15:0.12754896 16:0.11106455 17:0.14355324 18:0.2530652 19:0.25133905 20:0.15548241 21:0.10416581 22:0.1603559 23:0.2530652 24:0.1371579 25:0.095311917 26:0.11682656 27:0.22132473 28:0.2530652 29:0.091065384 30:0.060802974 31:0.09158881 32:0.15762159 33:0.19921522 34:0.15065135 35:0.16083471 36:0.2530652 37:0.25985244 38:0.092705801 39:0.081605412 40:0.086513519 41:0.099737898 42:0.043619443 43:0.017089115 44:0.025799727 45:0.24447902 46:0.28352511 47:0.15251088 48:0.097441055 49:0.17632326 50:0.19914681 51:0.02084 52:0 53:0.0035482876 54:0.28352511 55:0.28352511 56:0.14129852 57:0.11289066 58:0.18554206 59:0.10754875 60:0.063528359 61:0.024046687 62:0.049582645 63:0.28352511 64:0.28352511 65:0.20493007 66:0.13933444 67:0.26877496 68:0.16182183 69:0.036509622 70:0.017556958 71:0.028372705 72:0.28352511 73:0.26226023 74:0.13223881 75:0.085544817 76:0.1549716 77:0.17490402 78:0.014086592 79:0.0040706545 80:0.0030399598 81:0.26226023 82:0.26226023 83:0.17464827 84:0.15826593 85:0.16123877 86:0.17424814 87:0.046574414 88:0.018684287 89:0.025315566 90:0.26226023 91:0.26226023 92:0.20742191 93:0.18322304 94:0.19305806 95:0.10038415 96:0.025693862 97:0.06133977 98:0.039724018 99:0.26226023 100:0.26226023 101:0.20843591 102:0.19947824 103:0.17004713 104:0.061982453 105:0.026425952 106:0.061053887 107:0.0454388 108:0.26226023 109:0.14448738 110:0.089511767 111:0.078536436 112:0.083795816 113:0.17797795 114:0.034812145 115:0.017987728 116:0.019082094 117:0.13182373 118:0.29990831 119:0.099588536 120:0.051623128 121:0.10919502 122:0.13479277 123:0.054029156 124:0.029055558 125:0.038143422 126:0.29990831 127:0.29990831 128:0.17809027 129:0.12677783 130:0.17860454 131:0.23721649 132:0.05059763 133:0.0048048026 134:0.016909987 135:0.29990831 136:0.29990831 137:0.18374443 138:0.10790066 139:0.23113048 140:0.28034857 141:0.012507809 142:0 143:0.00081167981 144:0.29990831 145:0.28410733 146:0.12256633 147:0.074294761 148:0.17373873 149:0.12894896 150:0.026852386 151:0.0049312585 152:0.016661322 153:0.28410733 154:0.28410733 155:0.21306941 156:0.18292667 157:0.23597209 158:0.10264561 159:0.060680404 160:0.025772307 161:0.048503332 162:0.28410733 163:0.28410733 164:0.1388239 165:0.08578141 166:0.15943769 167:0.18706468 168:0.01637866 169:0 170:0.0011666495 171:0.28410733 172:0.28410733 173:0.11964438 174:0.10976018 175:0.098191373 176:0.077928968 177:0.039143238 178:0.0045343768 179:0.018040873 180:0.28410733 181:0.29246852 182:0.29246852 183:0.29246852 184:0.29246852 185:0.10968236 186:0.085540153 187:0.13857467 188:0.11295187 189:0.29246852 190:0.29246852 191:0.25596124 192:0.24715231 193:0.23811902 194:0.059292775 195:0.0310326 196:0.091996878 197:0.059853651 198:0.29246852 199:0.25783026 200:0.10915746 201:0.13770951 202:0.091552623 203:0.055857919 204:0.034869488 205:0.015912415 206:0.02377066 207:0.17378367 208:0.060091373 209:0.018269014 210:0.021744099 211:0.023457834 212:0.014547845 213:0.0023674513 214:0.0043589431 215:0.0013151222 216:0.029667841 
0 3.615170801458011 1:0.06194273 2:0.064708039 3:0.1774001 4:0.18692347 5:0.35123369 6:0.071749367 7:0.036776066 8:0.02407581 9:0.065077931 10:0.040481441 11:0.012360538 12:0.0096391812 13:0.025353817 14:0.35123369 15:0.10006642 16:0.066182107 17:0.03320748 18:0.077037491 19:0.098088033 20:0.018965803 21:0.1243306 22:0.11834136 23:0.35123369 24:0.096577428 25:0.057823744 26:0.074453667 27:0.1512675 28:0.20967455 29:0.019766048 30:0.053457372 31:0.0034555597 32:0.35123369 33:0.23954493 34:0.17068888 35:0.23595886 36:0.35123369 37:0.037070006 38:0.00026677616 39:0.00021315993 40:0.0050362186 41:0.34584394 42:0.060857762 43:0.03650865 44:0.03267616 45:0.067220479 46:0.0099682137 47:0 48:0 49:0 50:0.001413011 51:0.0049636373 52:0.00042265051 53:0.0019106464 54:0.011599781 55:0.34584394 56:0.043207295 57:0.11227003 58:0.002043891 59:0.24762814 60:0.34584394 61:0.22765705 62:0.31630459 63:0.34584394 64:0.34584394 65:0.009907824 66:0.03414131 67:0.011343066 68:0.012385008 69:0.12682371 70:0.080026343 71:0.12207976 72:0.34584394 73:0.011917925 74:0 75:0 76:0 77:0 78:0 79:0 80:0 81:0.011917925 82:0.00062190305 83:0 84:0 85:0 86:0 87:0 88:0 89:0 90:0.00062190305 91:0.41083559 92:0.0054605426 93:0.078297533 94:0.033258274 95:0.03693898 96:0.33470249 97:0.25839007 98:0.31710246 99:0.41083559 100:0.41083559 101:0.0012601252 102:0.0089152707 103:0.0022172185 104:0.030979833 105:0.091127239 106:0.10706138 107:0.10807088 108:0.41083559 109:0.28769073 110:0.0081250854 111:0.026033791 112:0.048837788 113:0.19006006 114:0.12227438 115:0.070892833 116:0.10605971 117:0.29969448 118:0.29969448 119:0.020197041 120:0.042695008 121:0.014710036 122:0.16415401 123:0.20686601 124:0.11092031 125:0.19889678 126:0.29969448 127:0.29969448 128:0.0039957711 129:1.9569123e-05 130:0.02675291 131:0.12239731 132:0.11466254 133:0.088631526 134:0.097461231 135:0.29969448 136:0.29969448 137:0.0053148149 138:0.0038950671 139:0.01939155 140:0.10567506 141:0.12447862 142:0.074320197 143:0.1103383 144:0.29969448 145:0.31969547 146:0.026380399 147:0.042459946 148:0.0033310268 149:0.040331949 150:0.15370603 151:0.075082392 152:0.13668129 153:0.31969547 154:0.31969547 155:0.0091064246 156:0.029147422 157:0.010577374 158:0.030220909 159:0.10897408 160:0.075589605 161:0.081659287 162:0.31969547 163:0.31969547 164:0.0096806949 165:0.01343533 166:0.0092213443 167:0.090361588 168:0.13012752 169:0.092737786 170:0.11893883 171:0.31969547 172:0.31969547 173:0.0056474996 174:0.027242703 175:0.012946534 176:0.088924505 177:0.1368617 178:0.12354772 179:0.099089853 180:0.31969547 181:0.32129997 182:0.0030892028 183:0.031879228 184:0.011602425 185:0.028918181 186:0.1399233 187:0.079920016 188:0.085065074 189:0.32129997 190:0.32129997 191:0.0029806942 192:0.0043632993 193:0.015700422 194:0.028964264 195:0.062748648 196:0.057872973 197:0.056055672 198:0.32129997 199:0.32129997 200:0.012935188 201:0.031599309 202:0.011733257 203:0.082031213 204:0.16699412 205:0.10888855 206:0.093417317 207:0.32129997 208:0.32129997 209:0.022993101 210:0.017989129 211:0.033398457 212:0.099040687 213:0.16908249 214:0.12346757 215:0.1098465 216:0.32129997 
0 1.98513302389753 1:0.06251616 2:0.051227093 3:0.19389582 4:0.1683635 5:0.34580722 6:0.086874865 7:0.018060636 8:0.039163236 9:0.066741481 10:0.031909414 11:0.012967675 12:0.017442763 13:0.0065844702 14:0.34580722 15:0.10051934 16:0.036164723 17:0.053998396 18:0.084091991 19:0.11323992 20:0.033183116 21:0.13048995 22:0.1539806 23:0.34580722 24:0.11876503 25:0.09921445 26:0.072441697 27:0.165691 28:0.1696634 29:0.049772047 30:0.0023782162 31:0.012701733 32:0.34580722 33:0.24040405 34:0.20699897 35:0.21442465 36:0.34580722 37:0.0260102 38:0.0031851435 39:0 40:0 41:0.32833472 42:0.046181399 43:0.028076384 44:0.041998964 45:0.071406804 46:0.0081814146 47:0 48:0 49:0 50:0.0019995251 51:0.0015443082 52:0.0012487631 53:0.001158279 54:0.0081814146 55:0.32833472 56:0.086019151 57:0.0070436625 58:0.0069937017 59:0.27596653 60:0.32833472 61:0.25938627 62:0.32695109 63:0.32833472 64:0.32833472 65:0.0072984286 66:0.030522538 67:0.016318763 68:0.039388668 69:0.1686337 70:0.09785869 71:0.20157789 72:0.32833472 73:0.0069944407 74:0 75:0 76:0 77:0 78:0 79:0 80:0 81:0.0069944407 82:0 83:0 84:0 85:0 86:0 87:0 88:0 89:0 90:0 91:0.38638112 92:0 93:0.044428058 94:0.031851988 95:0.088577956 96:0.38166878 97:0.20879295 98:0.38638112 99:0.38638112 100:0.38638112 101:0 102:0 103:0 104:0.020988949 105:0.11828694 106:0.060247503 107:0.17728026 108:0.38638112 109:0.27850249 110:0.020029265 111:0.021127617 112:0.049311537 113:0.18775328 114:0.12965789 115:0.12147813 116:0.10054626 117:0.28832382 118:0.28832382 119:0.05376929 120:0.0007610441 121:0.029304208 122:0.18879654 123:0.20154208 124:0.1940514 125:0.15312837 126:0.28832382 127:0.28832382 128:0.011482893 129:0.0069106254 130:0.017077921 131:0.11408792 132:0.12628527 133:0.08695811 134:0.096545428 135:0.28832382 136:0.28832382 137:0.014867074 138:0.0032978577 139:0.030013777 140:0.13186233 141:0.15385491 142:0.12216239 143:0.11349608 144:0.28832382 145:0.30976361 146:0.034086071 147:0.0060187397 148:0.0087740738 149:0.059215136 150:0.15245126 151:0.11633357 152:0.10286327 153:0.30976361 154:0.30976361 155:0.0038407017 156:0.025380695 157:0.018244011 158:0.052295163 159:0.15457763 160:0.089783445 161:0.11985447 162:0.30976361 163:0.30976361 164:0.010839361 165:0.0033628209 166:0.035191935 167:0.091193214 168:0.15487255 169:0.11967704 170:0.091115631 171:0.30976361 172:0.30976361 173:0.010140519 174:0.014250871 175:0.034811061 176:0.099165589 177:0.17518039 178:0.12712768 179:0.11223999 180:0.30976361 181:0.30737066 182:0 183:0.010672668 184:0.01936868 185:0.037735976 186:0.12561479 187:0.056670245 188:0.10290018 189:0.30737066 190:0.249056 191:0.00014774755 192:0 193:0.020277511 194:0.041583594 195:0.10889678 196:0.036768112 197:0.10030635 198:0.30737066 199:0.30737066 200:0.026098764 201:0.015950682 202:0.022318328 203:0.11679626 204:0.18508819 205:0.11259059 206:0.14237536 207:0.30737066 208:0.30737066 209:0.024692133 210:0.0085674888 211:0.03548032 212:0.18775007 213:0.22196208 214:0.14056425 215:0.1678122 216:0.30737066 
0 1.678275110173507 1:0.18440777 2:0.08909557 3:0.2065753 4:0.15175386 5:0.30208904 6:0.04205218 7:0.0402341 8:0.043540265 9:0.12696092 10:0.30208904 11:0.11377572 12:0.092114292 13:0.13775972 14:0.30208904 15:0.07245928 16:0.044407353 17:0.095102474 18:0.30208904 19:0.10423701 20:0.090251178 21:0.10326275 22:0.082448907 23:0.30208904 24:0.025233107 25:0.022783194 26:0.031630229 27:0.076011248 28:0.28769746 29:0.082283787 30:0.082230389 31:0.12644453 32:0.30208904 33:0.080495842 34:0.052842516 35:0.080532491 36:0.30208904 37:0.27203357 38:0.16200486 39:0.1968984 40:0.14114523 41:0.24153508 42:0.063446634 43:0.026152136 44:0.06970343 45:0.27203357 46:0.27203357 47:0.19466409 48:0.24798939 49:0.15040745 50:0.054535873 51:0.075636432 52:0.026709322 53:0.067409523 54:0.27203357 55:0.27203357 56:0.13417727 57:0.11991261 58:0.11711235 59:0.10981931 60:0.053635269 61:0.019529184 62:0.038744114 63:0.27203357 64:0.27203357 65:0.11225845 66:0.12577805 67:0.12579733 68:0.090846136 69:0.017923428 70:0.0078110192 71:0.025541171 72:0.27203357 73:0.26039287 74:0.14875913 75:0.11342604 76:0.16947114 77:0.10070042 78:0.041322973 79:0.0095027005 80:0.017882349 81:0.26039287 82:0.26039287 83:0.15258589 84:0.096827596 85:0.1417805 86:0.26039287 87:0.035948586 88:0.034681305 89:0.059750531 90:0.26039287 91:0.26039287 92:0.13933501 93:0.12858413 94:0.16150604 95:0.078460999 96:0.018475233 97:0.033750389 98:0.018675892 99:0.26039287 100:0.26039287 101:0.26039287 102:0.23053275 103:0.21341352 104:0.067611881 105:0.030806266 106:0.09868937 107:0.024221897 108:0.26039287 109:0.07842271 110:0.051067606 111:0.04113505 112:0.057428803 113:0.15753907 114:0.0081476187 115:0.0064411829 116:0.0058047576 117:0.057679575 118:0.27883029 119:0.066126987 120:0.10920615 121:0.077387758 122:0.063781887 123:0.031056277 124:0.022952681 125:0.034934845 126:0.21190828 127:0.29212818 128:0.18295446 129:0.12178995 130:0.22889084 131:0.29212818 132:0.043128241 133:0.012384509 134:0.014950609 135:0.29212818 136:0.29212818 137:0.29212818 138:0.29212818 139:0.26533246 140:0.1095629 141:0.10907239 142:0.034396566 143:0.086810745 144:0.29212818 145:0.26961231 146:0.1155801 147:0.11963311 148:0.086385824 149:0.04911577 150:0.039913207 151:0.012911315 152:0.028526273 153:0.25043061 154:0.26961231 155:0.18753909 156:0.14567813 157:0.23232685 158:0.1767415 159:0.038417913 160:0.0034647598 161:0.017802766 162:0.26961231 163:0.26961231 164:0.19081874 165:0.26658961 166:0.14200787 167:0.048080098 168:0.073358744 169:0.029535204 170:0.074541532 171:0.26961231 172:0.26961231 173:0.16184583 174:0.13423513 175:0.20224066 176:0.11487103 177:0.040391427 178:0.0076224715 179:0.021328129 180:0.26961231 181:0.28739148 182:0.24772121 183:0.2381006 184:0.28739148 185:0.21391669 186:0.03678165 187:0.038700208 188:0.034870129 189:0.28739148 190:0.28739148 191:0.28383559 192:0.24193874 193:0.21644218 194:0.061103601 195:0.038274348 196:0.10924579 197:0.025045307 198:0.28739148 199:0.28739148 200:0.10470447 201:0.085680589 202:0.12982275 203:0.11935289 204:0.012038082 205:0.0018267223 206:0.008046953 207:0.24273948 208:0.10238307 209:0.03512096 210:0.034109104 211:0.031397678 212:0.023452971 213:0.0038461369 214:0.0040187892 215:0.0036577058 216:0.083532058 
0.1172637433922263 5.118521625412597 1:0.21786179 2:0.1537111 3:0.21925306 4:0.22210734 5:0.24217789 6:0.0097777126 7:0.085127123 8:0.090355635 9:0.091532029 10:0.24217789 11:0.16434585 12:0.18668641 13:0.099636786 14:0.10273467 15:0.0073952139 16:0.036987558 17:0.016561097 18:0.18985613 19:0.24217789 20:0.18137889 21:0.24217789 22:0.24217789 23:0.16785556 24:0.027144302 25:0.053466637 26:0.10101912 27:0.24217789 28:0.24217789 29:0.21984041 30:0.24217789 31:0.1652434 32:0.069767028 33:0.0092809126 34:0.03286054 35:0.02685548 36:0.24217789 37:0.26286733 38:0.22597528 39:0.24400452 40:0.17883494 41:0.023271881 42:0.0035708072 43:0.047219113 44:0.01008774 45:0.26286733 46:0.26286733 47:0.26041374 48:0.26286733 49:0.24068467 50:0.021698318 51:0.0026213045 52:0.070948206 53:0.022849374 54:0.26286733 55:0.26286733 56:0.17434102 57:0.19448996 58:0.12497805 59:0.028398776 60:0.0045910375 61:0.030306228 62:0.0073320428 63:0.26058352 64:0.26286733 65:0.13416222 66:0.1519677 67:0.10238351 68:0.019905467 69:0.0014001844 70:0.028129797 71:0.0088587273 72:0.173325 73:0.25755501 74:0.25755501 75:0.25755501 76:0.20306273 77:0.033978932 78:0.019252975 79:0.044323061 80:0.014788542 81:0.25755501 82:0.25755501 83:0.16319419 84:0.18849455 85:0.1357502 86:0.22932243 87:0.06215645 88:0.067383833 89:0.014207628 90:0.14393948 91:0.25755501 92:0.13225745 93:0.14056745 94:0.10890044 95:0.036978554 96:0.0026514879 97:0.014979709 98:0.014842262 99:0.18120827 100:0.25755501 101:0.22957648 102:0.22557643 103:0.23775245 104:0.11923861 105:0.027578153 106:0.018532947 107:0.0099146357 108:0.25755501 109:0.27257988 110:0.1064558 111:0.17197101 112:0.17653869 113:0.11523325 114:0.023238966 115:0.024741562 116:0.052693404 117:0.27257988 118:0.27257988 119:0.12854987 120:0.13652191 121:0.10867579 122:0.033374026 123:0.0020588604 124:0.010891617 125:0.011102211 126:0.15089868 127:0.27257988 128:0.11929028 129:0.19032155 130:0.11786749 131:0.23001552 132:0.025305932 133:0.027664555 134:0.029022107 135:0.2398846 136:0.27257988 137:0.27257988 138:0.27257988 139:0.23934655 140:0.056764573 141:0.023984773 142:0.062204223 143:0.022239966 144:0.27257988 145:0.21124706 146:0.10179446 147:0.10308305 148:0.081683218 149:0.010083327 150:0.00058358599 151:0.020644456 152:0.0072520906 153:0.11127023 154:0.25958607 155:0.20895669 156:0.22066034 157:0.15653464 158:0.032312628 159:0.0058939969 160:0.038411833 161:0.011760193 162:0.21070375 163:0.25958607 164:0.25958607 165:0.25958607 166:0.25958607 167:0.017111087 168:0.0037958841 169:0.06469731 170:0.020597287 171:0.25958607 172:0.25958607 173:0.25958607 174:0.25958607 175:0.25437012 176:0.022871971 177:0.0045842193 178:0.062262531 179:0.017916437 180:0.25958607 181:0.27110553 182:0.25627029 183:0.27110553 184:0.17870198 185:0.069375984 186:0.010843567 187:0.040605955 188:0.032222748 189:0.26694191 190:0.27110553 191:0.22422501 192:0.27110553 193:0.25764665 194:0.044381268 195:0.026143478 196:0.024034439 197:0.024593029 198:0.27110553 199:0.27110553 200:0.21941221 201:0.22395498 202:0.13118796 203:0.035696309 204:0.0084338859 205:0.034440495 206:0.015699448 207:0.19677199 208:0.25395268 209:0.065169819 210:0.1097397 211:0.07180094 212:0.014725945 213:0.0035223558 214:0.0080111353 215:0.01117865 216:0.12634048 
0.6174736180992578 4.31132453967714 1:0.13053396 2:0.12026278 3:0.057571594 4:0.033960823 5:0.17922515 6:0.10049069 7:0.16938625 8:0.15247159 9:0.18944463 10:0.18772744 11:0.16692178 12:0.11638869 13:0.057066333 14:0.17981115 15:0.11128617 16:0.23799853 17:0.19505897 18:0.13619414 19:0.15214121 20:0.15221505 21:0.0661081 22:0.051410027 23:0.1417281 24:0.13512421 25:0.21494509 26:0.23799853 27:0.23799853 28:0.23799853 29:0.20936853 30:0.14366508 31:0.10185161 32:0.12539549 33:0.159467 34:0.23799853 35:0.23799853 36:0.23799853 37:0.1520808 38:0.11353841 39:0.13965818 40:0.061312534 41:0.072255805 42:0.071833819 43:0.2696299 44:0.1463104 45:0.14568861 46:0.038993802 47:0.019533755 48:0.06526804 49:0.030697893 50:0.007140635 51:0.04092221 52:0.12651874 53:0.11156585 54:0.13796939 55:0.20745555 56:0.15637201 57:0.2696299 58:0.16100033 59:0.075057328 60:0.16453135 61:0.2696299 62:0.2696299 63:0.2696299 64:0.14260042 65:0.085512467 66:0.20843805 67:0.1312128 68:0.041263405 69:0.17595235 70:0.2696299 71:0.2696299 72:0.2696299 73:0.019745877 74:0.0038061009 75:0.012729474 76:0.003148909 77:0.0011448335 78:0.035601478 79:0.10759706 80:0.073610172 81:0.13173087 82:0.0017866265 83:0 84:0 85:0 86:7.1078153e-05 87:0.0014741067 88:0.0052622547 89:0.0042028152 90:0.011493192 91:0.23524633 92:0.1085318 93:0.097017638 94:0.069936395 95:0.025586087 96:0.31758031 97:0.35446087 98:0.35446087 99:0.35446087 100:0.13662958 101:0.048994664 102:0.0049243676 103:0.0018710262 104:0.0071399608 105:0.12518132 106:0.35446087 107:0.35446087 108:0.33483848 109:0.15695073 110:0.10491714 111:0.061633639 112:0.067986473 113:0.075157553 114:0.11866165 115:0.2366709 116:0.28875047 117:0.32201877 118:0.29390079 119:0.17696518 120:0.19615754 121:0.1876678 122:0.085048206 123:0.26782107 124:0.32772145 125:0.32772145 126:0.32772145 127:0.012165737 128:0 129:0.00012309404 130:0.00017850536 131:0.00012544316 132:0.0042290706 133:0.014016278 134:0.0088020256 135:0.025532739 136:0.045282017 137:0.0087347282 138:0.036670994 139:0.020254351 140:0.0020272266 141:0.056199111 142:0.16516663 143:0.13745701 144:0.20731863 145:0.11295881 146:0.085552976 147:0.20697294 148:0.11808256 149:0.042240568 150:0.11748468 151:0.25235865 152:0.25235865 153:0.25235865 154:0.22642797 155:0.15024418 156:0.23066805 157:0.12411917 158:0.055240665 159:0.18765493 160:0.25235865 161:0.25235865 162:0.25235865 163:0.056750145 164:0.034619957 165:0.085559748 166:0.035050899 167:0.010452419 168:0.043077584 169:0.13951233 170:0.10920283 171:0.13282856 172:0.25235865 173:0.10951952 174:0.14973368 175:0.06954179 176:0.02724362 177:0.15952288 178:0.25235865 179:0.1474404 180:0.25235865 181:0.15207058 182:0.080965824 183:0.047990452 184:0.040430035 185:0.015907472 186:0.15299992 187:0.24375954 188:0.24375954 189:0.24375954 190:0.14106517 191:0.046997827 192:0.024841927 193:0.027943298 194:0.022150306 195:0.11826472 196:0.23220469 197:0.24375954 198:0.19962773 199:0.20354135 200:0.084113389 201:0.048612248 202:0.050119612 203:0.021365263 204:0.19621253 205:0.24375954 206:0.24375954 207:0.24375954 208:0.24375954 209:0.080539435 210:0.049829248 211:0.065773547 212:0.070208885 213:0.21062705 214:0.24375954 215:0.24375954 216:0.24375954 
0 3.071488598898306 1:0.081476614 2:0.1226818 3:0.20000707 4:0.12200838 5:0.11118183 6:0.056716658 7:0.1059723 8:0.07857395 9:0.092879631 10:0.1496609 11:0.036337189 12:0.22135738 13:0.18955669 14:0.19556977 15:0.12970628 16:0.25717553 17:0.1662055 18:0.14437018 19:0.19569993 20:0.0088678282 21:0.069219589 22:0.099020027 23:0.15968016 24:0.16118282 25:0.25717553 26:0.25717553 27:0.25717553 28:0.25717553 29:0.033598721 30:0.072718307 31:0.055431478 32:0.077398099 33:0.17222574 34:0.25717553 35:0.23342603 36:0.25717553 37:0.15211657 38:0.026859591 39:0.13501601 40:0.077300161 41:0.12991866 42:0.083649471 43:0.28553024 44:0.15120554 45:0.16856186 46:0.03768649 47:0.0020434468 48:0.0043512424 49:0.0097971419 50:0.012466358 51:0.027505839 52:0.06384179 53:0.064128473 54:0.075537078 55:0.28553024 56:0.037721429 57:0.05248493 58:0.085016921 59:0.07263758 60:0.1949966 61:0.28553024 62:0.28553024 63:0.28553024 64:0.23680158 65:0.0063537844 66:0.041365959 67:0.13531128 68:0.16440703 69:0.21792816 70:0.28553024 71:0.28553024 72:0.28553024 73:0.022149213 74:0 75:0 76:0.0027421946 77:0.0058270004 78:0.012338795 79:0.013458277 80:0.017893424 81:0.048345521 82:0.00051909377 83:0 84:0 85:0 86:0.00044204443 87:0 88:0 89:0 90:0.0011982975 91:0.33670875 92:0.025414851 93:0.11610141 94:0.099769823 95:0.23423189 96:0.33670875 97:0.33670875 98:0.33670875 99:0.33670875 100:0.30198663 101:0.026610568 102:0.026792632 103:0 104:0.014009889 105:0.099887274 106:0.33670875 107:0.13327278 108:0.33670875 109:0.24526463 110:0.00092931604 111:0.0640359 112:0.085325152 113:0.14153838 114:0.15445304 115:0.2900742 116:0.2900742 117:0.2900742 118:0.2900742 119:0.033884086 120:0.086162947 121:0.017548835 122:0.056306243 123:0.19281261 124:0.2900742 125:0.2900742 126:0.2900742 127:0.052160051 128:0.0003276155 129:0.011734565 130:0.0034153941 131:0.0060388544 132:0.02288877 133:0.042309504 134:0.073995329 135:0.096492559 136:0.1898959 137:0.018077977 138:0.038880154 139:0.0010587928 140:0.017300908 141:0.089741379 142:0.2900742 143:0.1861957 144:0.24161153 145:0.20365766 146:0.017160064 147:0.040477078 148:0.031865355 149:0.040176224 150:0.13185894 151:0.25046238 152:0.22178385 153:0.25046238 154:0.20831701 155:0.003960371 156:0.046409801 157:0.082366049 158:0.10223275 159:0.19350521 160:0.25046238 161:0.25046238 162:0.25046238 163:0.16107231 164:0.0091257002 165:0.040556695 166:0.014584681 167:0.033575978 168:0.11229733 169:0.23149435 170:0.16160712 171:0.25046238 172:0.18886128 173:0.0041745426 174:0.057573453 175:0.065395892 176:0.059589345 177:0.24332628 178:0.23541687 179:0.25046238 180:0.25046238 181:0.21508688 182:0.015574219 183:0.044623051 184:0.024587091 185:0.050145369 186:0.12899329 187:0.25300002 188:0.19039367 189:0.25300002 190:0.20750955 191:0.018839316 192:0.041981407 193:0.0055810832 194:0.022060545 195:0.092241906 196:0.25300002 197:0.14264081 198:0.25242311 199:0.22150542 200:0.022574544 201:0.059715681 202:0.028906401 203:0.037211157 204:0.17887394 205:0.25300002 206:0.25300002 207:0.25300002 208:0.25300002 209:0.027529972 210:0.071573071 211:0.019964999 212:0.098630451 213:0.1496162 214:0.25300002 215:0.22993447 216:0.25300002 
0.01249378631404105 4.538683609851444 1:0.14336187 2:0.13387685 3:0.12321828 4:0.086770609 5:0.11282168 6:0.08002346 7:0.20184566 8:0.17898174 9:0.13267978 10:0.12633705 11:0.046492387 12:0.044983234 13:0.032701626 14:0.17108122 15:0.089298002 16:0.25343618 17:0.17885095 18:0.12823629 19:0.23507117 20:0.05805859 21:0.043795984 22:0.032261595 23:0.090023048 24:0.19976132 25:0.25343618 26:0.25343618 27:0.25343618 28:0.25343618 29:0.11324852 30:0.055469315 31:0.057457238 32:0.11405005 33:0.25343618 34:0.25343618 35:0.25343618 36:0.25343618 37:0.11516445 38:0.02962172 39:0.013782701 40:0.012632385 41:0.081090257 42:0.05234918 43:0.17916626 44:0.084111072 45:0.14189659 46:0.012651823 47:0.00078257004 48:0.0006591159 49:0.0017303391 50:0.0017466965 51:0.0076435185 52:0.025579184 53:0.012980807 54:0.038953785 55:0.31290609 56:0.14336772 57:0.057822328 58:0.073510185 59:0.13289502 60:0.31290609 61:0.31290609 62:0.31290609 63:0.31290609 64:0.21588318 65:0.070789024 66:0.037497733 67:0.02936683 68:0.10144351 69:0.26405254 70:0.31290609 71:0.21203348 72:0.31290609 73:0.0034934885 74:0 75:0 76:0 77:0.0025830432 78:0 79:0.0023583579 80:0.0025209547 81:0.015941454 82:0 83:0 84:0 85:0 86:0 87:0 88:0 89:0 90:0 91:0.38246933 92:0.15467259 93:0.016622543 94:0.078987375 95:0.11128984 96:0.38246933 97:0.38246933 98:0.38246933 99:0.38246933 100:0.17178652 101:0.0054530553 102:0 103:0.061434641 104:0.034761239 105:0.12533015 106:0.12680358 107:0.17811349 108:0.35159871 109:0.18661486 110:0.040882681 111:0.035082411 112:0.029642982 113:0.07549832 114:0.20174681 115:0.3151865 116:0.2237398 117:0.3160111 118:0.3160111 119:0.1567785 120:0.055120401 121:0.075907461 122:0.1188847 123:0.3160111 124:0.3160111 125:0.3160111 126:0.3160111 127:0.013660435 128:0.00093473867 129:0.0006526768 130:0.001713441 131:0.0014566639 132:0.0085028792 133:0.02674781 134:0.013308351 135:0.03888594 136:0.13566288 137:0.031158527 138:0.0057385806 139:0.0037695703 140:0.018753799 141:0.075975232 142:0.17298715 143:0.058300212 144:0.23281218 145:0.1994592 146:0.076997094 147:0.035045579 148:0.034213144 149:0.083687954 150:0.24585889 151:0.25841215 152:0.22250573 153:0.25841215 154:0.2023351 155:0.082117692 156:0.034846209 157:0.0381593 158:0.078987405 159:0.25841215 160:0.25841215 161:0.25450689 162:0.25841215 163:0.077620767 164:0.02201256 165:0.014587063 166:0.012491717 167:0.03321445 168:0.083934419 169:0.15862718 170:0.083665237 171:0.22739843 172:0.18177342 173:0.059326474 174:0.022304686 175:0.034946784 176:0.042286966 177:0.21487154 178:0.25841215 179:0.24167445 180:0.25841215 181:0.18131128 182:0.048684474 183:0.011022964 184:0.065447748 185:0.030475246 186:0.17030175 187:0.25041354 188:0.1859577 189:0.25041354 190:0.11083242 191:0.022927515 192:0.0063548628 193:0.060453046 194:0.026154611 195:0.097719043 196:0.16490893 197:0.11690009 198:0.19436313 199:0.22542912 200:0.062455788 201:0.019415526 202:0.11661992 203:0.050072178 204:0.23984723 205:0.25041354 206:0.25041354 207:0.25041354 208:0.25041354 209:0.074152693 210:0.021768961 211:0.14867193 212:0.063924402 213:0.25041354 214:0.25041354 215:0.25041354 216:0.25041354 
0.09284099893475756 1.460632906295527 1:0.23510413 2:0.16297753 3:0.14810085 4:0.22406214 5:0.13379891 6:0.063145213 7:0.042293005 8:0.065442562 9:0.22903377 10:0.15842667 11:0.033052638 12:0.042182479 13:0.070110522 14:0.23510413 15:0.20886172 16:0.22114563 17:0.16601117 18:0.23510413 19:0.23510413 20:0.10384681 21:0.063711911 22:0.057651099 23:0.068814345 24:0.15482345 25:0.21789418 26:0.191303 27:0.23510413 28:0.17661004 29:0.02933784 30:0.035901506 31:0.032313213 32:0.23510413 33:0.19697374 34:0.21164559 35:0.17238468 36:0.23510413 37:0.053994428 38:0.0081309974 39:0.018979535 40:0.0079717478 41:0.26366958 42:0.26366958 43:0.26366958 44:0.14066775 45:0.14202166 46:0.0046634912 47:0.0018763839 48:0.0042120987 49:0 50:0.14359798 51:0.084028669 52:0.042890243 53:0.023789911 54:0.013301264 55:0.1613573 56:0.042169411 57:0.059585098 58:0.022707503 59:0.26366958 60:0.26366958 61:0.26366958 62:0.26366958 63:0.26169562 64:0.20250364 65:0.023709096 66:0.049254261 67:0.025146579 68:0.19681135 69:0.24086052 70:0.23718993 71:0.26366958 72:0.26366958 73:0.0077772527 74:0 75:0 76:0 77:0.0044103973 78:0.0051042661 79:9.2912982e-05 80:0 81:0.0077772527 82:0 83:0 84:0 85:0 86:0 87:0 88:0 89:0 90:0 91:0.36369139 92:0.0013140832 93:0.037485447 94:0.067860194 95:0.26668781 96:0.36369139 97:0.36369139 98:0.36369139 99:0.36369139 100:0.27790964 101:0 102:0.0010771258 103:0.0031212971 104:0.11899674 105:0.14833094 106:0.051061422 107:0.098001793 108:0.36344174 109:0.27198675 110:0.062607676 111:0.049864665 112:0.046731785 113:0.031136798 114:0.17429489 115:0.25727001 116:0.24386302 117:0.27198675 118:0.27198675 119:0.037592079 120:0.063233927 121:0.093387879 122:0.20485324 123:0.27198675 124:0.27198675 125:0.27198675 126:0.27198675 127:0.079997934 128:0.0022468669 129:0.0089495899 130:0.012883855 131:0.010506674 132:0.050366219 133:0.056791294 134:0.049756378 135:0.13860753 136:0.27198675 137:0.0051970496 138:0.019611195 139:0.053053476 140:0.04970878 141:0.16132942 142:0.1403418 143:0.1554558 144:0.27198675 145:0.23993163 146:0.024530059 147:0.039254081 148:0.033498611 149:0.15955779 150:0.19220182 151:0.20825373 152:0.19913265 153:0.2498991 154:0.2498991 155:0.013033079 156:0.038832281 157:0.034359843 158:0.092861839 159:0.22891858 160:0.18905649 161:0.22973639 162:0.2498991 163:0.2484901 164:0.0032352791 165:0.010313983 166:0.020021336 167:0.10095602 168:0.13183264 169:0.10007044 170:0.13190126 171:0.2498991 172:0.2498991 173:0.003665355 174:0.012529008 175:0.026592635 176:0.14654925 177:0.2498991 178:0.12828626 179:0.21361822 180:0.2498991 181:0.25300553 182:0.00029717066 183:0.0091465069 184:0.024906239 185:0.080095924 186:0.1613899 187:0.08585836 188:0.12921359 189:0.27270171 190:0.16956204 191:0 192:0.00040160268 193:0.0057368721 194:0.085334897 195:0.10382573 196:0.058307473 197:0.074356079 198:0.2504749 199:0.27270171 200:0.016608203 201:0.0081219776 202:0.044244207 203:0.15301844 204:0.27270171 205:0.12869553 206:0.22683018 207:0.27270171 208:0.27270171 209:0.025489872 210:0.0071312599 211:0.035391003 212:0.23381358 213:0.27270171 214:0.16818734 215:0.24148671 216:0.27270171 
0 4.683216268959173 1:0.17674789 2:0.159509 3:0.1383668 4:0.094691083 5:0.08620929 6:0.065783687 7:0.11300751 8:0.057260338 9:0.14010519 10:0.099199563 11:0.041430067 12:0.0087366048 13:0.0029404822 14:0.24107669 15:0.21406493 16:0.24107669 17:0.24107669 18:0.1374578 19:0.24107669 20:0.029467881 21:0.0063966792 22:0.13495217 23:0.072917603 24:0.1921709 25:0.24107669 26:0.24107669 27:0.24107669 28:0.23721005 29:0.054516103 30:0.0035910709 31:0.022123795 32:0.1690814 33:0.24107669 34:0.24107669 35:0.24107669 36:0.24107669 37:0.076935224 38:0.02674455 39:0.0013757275 40:7.8066616e-05 41:0.19681978 42:0.17728508 43:0.22185829 44:0.23739953 45:0.10746608 46:0.047256444 47:0.0065491712 48:0.0030266005 49:0.00017174656 50:0.01182746 51:0.026576683 52:0.055346232 53:0.069785856 54:0.084148228 55:0.27513942 56:0.070157737 57:0.026298212 58:0.0081964303 59:0.10145904 60:0.28158787 61:0.28158787 62:0.28158787 63:0.28158787 64:0.22044912 65:0.034732167 66:0.070788279 67:0.032361805 68:0.05687657 69:0.28158787 70:0.28158787 71:0.28158787 72:0.28158787 73:0.022194929 74:0 75:0.002016156 76:0.00011440818 77:0.0045840084 78:0.013201665 79:0.010968701 80:0.038041409 81:0.061491139 82:0.00041598798 83:0 84:0 85:0 86:0.00064728188 87:0 88:0 89:0 90:0.0014126147 91:0.34963635 92:0.086794794 93:0.096741647 94:0.056719851 95:0.11542679 96:0.34963635 97:0.34963635 98:0.34963635 99:0.34963635 100:0.28407255 101:0.029943582 102:0.036140442 103:0.0072796256 104:0.015535791 105:0.16005814 106:0.30687517 107:0.14342982 108:0.34963635 109:0.27814817 110:0.032834265 111:0 112:0.11775964 113:0.034587704 114:0.1936436 115:0.27814817 116:0.27814817 117:0.27814817 118:0.27814817 119:0.078449726 120:0.029322432 121:0.043735661 122:0.062344775 123:0.27814817 124:0.27814817 125:0.27814817 126:0.27814817 127:0.074183747 128:0.0090095429 129:0 130:0.0045874924 131:0.0054242513 132:0.031127954 133:0.062021829 134:0.056493022 135:0.10091056 136:0.15519372 137:0.026433507 138:0.027863743 139:0.020473318 140:0.039736327 141:0.1688308 142:0.18857311 143:0.20409815 144:0.27814817 145:0.16329019 146:0.02742538 147:0.036388885 148:0.016838634 149:0.030180657 150:0.19720799 151:0.25058761 152:0.23548089 153:0.25058761 154:0.18795328 155:0.03423715 156:0.04313967 157:0.021898394 158:0.032825343 159:0.22807525 160:0.25058761 161:0.25058761 162:0.25058761 163:0.11749443 164:0.018862501 165:0.029634207 166:0.01233559 167:0.023709172 168:0.14358635 169:0.17478089 170:0.20128141 171:0.25058761 172:0.24756718 173:0.05111162 174:0.023085602 175:0.018377081 176:0.03673847 177:0.20635313 178:0.25058761 179:0.25058761 180:0.25058761 181:0.18185942 182:0.03754659 183:0.028476246 184:0.014465802 185:0.021178309 186:0.16566144 187:0.2593779 188:0.14519815 189:0.2593779 190:0.15776141 191:0.017476423 192:0.039235778 193:0.014849584 194:0.010281704 195:0.17701627 196:0.17722312 197:0.14894868 198:0.2593779 199:0.21506731 200:0.035645567 201:0.03585913 202:0.027578996 203:0.047255263 204:0.20910969 205:0.2593779 206:0.22196543 207:0.2593779 208:0.24273315 209:0.042491097 210:0.051371705 211:0.027801149 212:0.079697341 213:0.2593779 214:0.2593779 215:0.21780509 216:0.2593779 
0 4.447478682252834 1:0.21074994 2:0.073029153 3:0.10013741 4:0.069240905 5:0.1621466 6:0.13470764 7:0.095181957 8:0.083542265 9:0.15668546 10:0.14585851 11:0.037192658 12:0.056929398 13:0.048213381 14:0.24270666 15:0.24270666 16:0.17828466 17:0.16552207 18:0.20882131 19:0.21131976 20:0.036045056 21:0.0091629112 22:0.038645972 23:0.080301143 24:0.23837318 25:0.2323371 26:0.24270666 27:0.24270666 28:0.24270666 29:0.017769614 30:0.02706966 31:0.063150853 32:0.13032822 33:0.24270666 34:0.24270666 35:0.24270666 36:0.24270666 37:0.14926286 38:0.014124595 39:0.0229466 40:0.035001468 41:0.16755375 42:0.18032885 43:0.11409556 44:0.11661594 45:0.2603026 46:0.082371309 47:0.0048024883 48:0.00021424278 49:0.0071439357 50:0.034436367 51:0.04214092 52:0.04420501 53:0.038108159 54:0.13019916 55:0.28379104 56:0.035055097 57:0.021732818 58:0.063102044 59:0.17771502 60:0.28379104 61:0.27209982 62:0.28124464 63:0.28379104 64:0.28379104 65:0.079088405 66:0.0047344998 67:0.040653866 68:0.13517092 69:0.1810967 70:0.28379104 71:0.2348683 72:0.28379104 73:0.058923852 74:0.0026747088 75:0.00011932087 76:0.0024132403 77:0.012251955 78:0.0097688539 79:0.031398334 80:0.017469365 81:0.093520157 82:0.0050272183 83:0 84:0 85:0 86:0.000981363 87:0.0011975474 88:0.0056539909 89:0.00043761803 90:0.010352199 91:0.33015451 92:0.057720441 93:0.0034332585 94:0.062837206 95:0.15935545 96:0.33015451 97:0.33015451 98:0.33015451 99:0.33015451 100:0.27553576 101:0.0011733203 102:0.024651682 103:0.026453542 104:0.081225261 105:0.22616228 106:0.26510945 107:0.30134651 108:0.33015451 109:0.21424705 110:0.041060645 111:0.0036195398 112:0.037776496 113:0.070016973 114:0.23832586 115:0.280489 116:0.280489 117:0.280489 118:0.280489 119:0.021590849 120:0.04878249 121:0.06956327 122:0.1059603 123:0.280489 124:0.280489 125:0.280489 126:0.280489 127:0.041697383 128:0.0025090198 129:0.001565155 130:0.0061088628 131:0.017964527 132:0.044451043 133:0.05444571 134:0.048630524 135:0.10615527 136:0.22515252 137:0.0036675476 138:0.035759624 139:0.033771317 140:0.027397823 141:0.14458643 142:0.15823035 143:0.19745311 144:0.280489 145:0.26418272 146:0.015613257 147:0.040552095 148:0.044030856 149:0.064750515 150:0.18985178 151:0.18151386 152:0.22849824 153:0.26418272 154:0.26418272 155:0.039386958 156:0.01293145 157:0.031665068 158:0.082527995 159:0.18084267 160:0.20402317 161:0.18728663 162:0.26418272 163:0.23941945 164:0.0009327908 165:0.036730468 166:0.033283986 167:0.044890638 168:0.14698158 169:0.1270691 170:0.16480376 171:0.26418272 172:0.26418272 173:0.039294854 174:0.014529909 175:0.029645139 176:0.12619492 177:0.19503334 178:0.20312639 179:0.18997346 180:0.26418272 181:0.23299894 182:0.01514324 183:0.0023014653 184:0.026767997 185:0.065869384 186:0.16537607 187:0.17435612 188:0.17782594 189:0.2454211 190:0.19569398 191:0.001028124 192:0.030087434 193:0.029690849 194:0.041239548 195:0.15615098 196:0.19228357 197:0.24147564 198:0.2454211 199:0.2454211 200:0.069040358 201:0.010813386 202:0.028525788 203:0.094375193 204:0.15160203 205:0.2454211 206:0.18804704 207:0.2454211 208:0.2454211 209:0.038996078 210:0.041499496 211:0.046160843 212:0.10457157 213:0.23623066 214:0.2454211 215:0.2454211 216:0.2454211 
0.1957433393766402 0.1949813838225537 1:0.23490055 2:0.03457782 3:0.038429055 4:0.039031863 5:0.021846915 6:0.046736561 7:0.0078966543 8:0.053249478 9:0.22648057 10:0.19360289 11:0.073674381 12:0.032007556 13:0.065224804 14:0.051674113 15:0.061463412 16:0.028019156 17:0.071223862 18:0.18590373 19:0.2767646 20:0.10798497 21:0.25313956 22:0.15020508 23:0.045412399 24:0.17898411 25:0.098322034 26:0.12609054 27:0.2767646 28:0.2767646 29:0.22738671 30:0.2403333 31:0.2367678 32:0.07698416 33:0.21847054 34:0.24821165 35:0.20199876 36:0.2767646 37:0.20385282 38:0.080538191 39:0.068343244 40:0.098896451 41:0.047545947 42:0.0076781306 43:0.019902799 44:0.011577896 45:0.14349742 46:0.26934317 47:0.13011451 48:0.13169213 49:0.1835808 50:0.14135636 51:0.019319525 52:0.0089482069 53:0.01617489 54:0.26934317 55:0.26934317 56:0.22841132 57:0.18967989 58:0.26203617 59:0.062377907 60:0.029063607 61:0.097190641 62:0.060629655 63:0.26934317 64:0.26934317 65:0.26369256 66:0.22038388 67:0.26934317 68:0.11270983 69:0.029491959 70:0.062129255 71:0.068375878 72:0.26934317 73:0.24547628 74:0.15438992 75:0.11934014 76:0.17538416 77:0.1600087 78:0.024022022 79:0.008313112 80:0.016642446 81:0.24547628 82:0.24547628 83:0.19440907 84:0.15003404 85:0.22701038 86:0.16406102 87:0.024960082 88:0.031069152 89:0.022537414 90:0.24547628 91:0.24547628 92:0.18671259 93:0.19326039 94:0.24493855 95:0.082449213 96:0.036961466 97:0.060669292 98:0.053718138 99:0.24547628 100:0.24547628 101:0.19613564 102:0.18804093 103:0.21661693 104:0.091670476 105:0.020650154 106:0.040935896 107:0.032701649 108:0.24547628 109:0.21103625 110:0.071133949 111:0.15105458 112:0.12777938 113:0.050804995 114:0.075005025 115:0.056435376 116:0.042954523 117:0.22167328 118:0.26858768 119:0.15092623 120:0.17471088 121:0.17162105 122:0.077376485 123:0.10099328 124:0.12974876 125:0.077023387 126:0.26858768 127:0.26858768 128:0.12108497 129:0.12714854 130:0.20918454 131:0.20771857 132:0.032283109 133:0.014276089 134:0.036530662 135:0.26858768 136:0.26858768 137:0.20558634 138:0.16126315 139:0.24298462 140:0.2068501 141:0.029463008 142:0.012722792 143:0.014425345 144:0.26858768 145:0.25632831 146:0.19503647 147:0.20829791 148:0.25052395 149:0.097647868 150:0.034793682 151:0.065920182 152:0.040674213 153:0.25632831 154:0.25632831 155:0.237937 156:0.17242709 157:0.25632831 158:0.073143952 159:0.02207285 160:0.071485564 161:0.056099396 162:0.25632831 163:0.25632831 164:0.17627995 165:0.14721441 166:0.23375176 167:0.15737683 168:0.026350575 169:0.014459595 170:0.0033194225 171:0.25632831 172:0.25632831 173:0.11097965 174:0.089802243 175:0.15247659 176:0.073435448 177:0.012784751 178:0.01984556 179:0.0073781256 180:0.16651453 181:0.29867592 182:0.29867592 183:0.29867592 184:0.29867592 185:0.094351485 186:0.03129217 187:0.16385493 188:0.11380933 189:0.29867592 190:0.29867592 191:0.202959 192:0.27720493 193:0.25390396 194:0.067610063 195:0.016410334 196:0.063030675 197:0.037670452 198:0.29867592 199:0.24861789 200:0.1129427 201:0.053719565 202:0.13941535 203:0.056586899 204:0.0030387475 205:0.018015042 206:0.015333927 207:0.15953891 208:0.044323534 209:0.015990987 210:0.018363049 211:0.025887184 212:0.012010381 213:0 214:0.0017045547 215:0.0010961124 216:0.025660353 
0 0.8065199776874831 1:0.085051402 2:0.15821345 3:0.26463819 4:0.26268044 5:0.2955474 6:0.037556622 7:0.051019397 8:0.037242066 9:0.053485185 10:0.078044981 11:0.060860418 12:0.079391778 13:0.1229627 14:0.2955474 15:0.045178082 16:0.048084196 17:0.030984543 18:0.049306162 19:0.074266471 20:0.10401332 21:0.15166485 22:0.12130302 23:0.2955474 24:0.088527314 25:0.18087557 26:0.088287264 27:0.12564261 28:0.26454592 29:0.071001701 30:0.048827849 31:0.057627492 32:0.2955474 33:0.1641598 34:0.2955474 35:0.16902734 36:0.2955474 37:0.034075208 38:0.0048501971 39:0.012910402 40:0.040762439 41:0.16367191 42:0.021980761 43:0.014135626 44:0.0089346608 45:0.035742477 46:0.01225015 47:0 48:0 49:0 50:0 51:0 52:0 53:0 54:0.01225015 55:0.43088689 56:0.058701303 57:0.017729005 58:0.044819981 59:0.15988469 60:0.15999092 61:0.21823189 62:0.16173418 63:0.43088689 64:0.43088689 65:0.0087421844 66:0 67:0 68:0.075296283 69:0.247631 70:0.12313582 71:0.089208156 72:0.43088689 73:0.005139763 74:0 75:0 76:0 77:0 78:0 79:0 80:0 81:0.005139763 82:0 83:0 84:0 85:0 86:0 87:0 88:0 89:0 90:0 91:0.45595071 92:0.011636619 93:0 94:0 95:0.074615449 96:0.29481491 97:0.15069653 98:0.11179701 99:0.45595071 100:0.45595071 101:0 102:0.046260823 103:0.005418024 104:0.0014580885 105:0.030951463 106:0.084037036 107:0.16065575 108:0.45595071 109:0.15207227 110:0.031172846 111:0.040850233 112:0.037442457 113:0.14832062 114:0.095382862 115:0.17113814 116:0.080104105 117:0.23491 118:0.30997992 119:0.056771182 120:0.021792224 121:0.042042144 122:0.12034949 123:0.11528829 124:0.25747579 125:0.16851978 126:0.30997992 127:0.30997992 128:0.0091720987 129:0.0031163215 130:0.037912223 131:0.078607365 132:0.15151517 133:0.18154806 134:0.15340659 135:0.30997992 136:0.30997992 137:0.0097470181 138:0.0089828046 139:0.031743012 140:0.045119591 141:0.093050808 142:0.15009674 143:0.14739063 144:0.30997992 145:0.33392608 146:0.018937178 147:0.0033116906 148:0.018020784 149:0.046549972 150:0.049725141 151:0.077503264 152:0.07257022 153:0.33392608 154:0.33392608 155:0.0075648511 156:0 157:0 158:0.046639137 159:0.16145831 160:0.093717694 161:0.052334767 162:0.33392608 163:0.33392608 164:0.001458095 165:0.0129104 166:0.031916875 167:0.029413693 168:0.065343454 169:0.13082631 170:0.075270802 171:0.33392608 172:0.33392608 173:0.0034385684 174:0.0029625234 175:0.0096236244 176:0.03313015 177:0.092627451 178:0.083316155 179:0.048418168 180:0.33392608 181:0.33417392 182:0.0048073148 183:0 184:0 185:0.019929735 186:0.090286426 187:0.049435556 188:0.037534282 189:0.33417392 190:0.33417392 191:0 192:0.031509127 193:0.012283638 194:0.01274209 195:0.035098217 196:0.07087592 197:0.12306193 198:0.33417392 199:0.33417392 200:0.0021851431 201:0 202:0 203:0.055750754 204:0.06994655 205:0.054310698 206:0.052396566 207:0.33417392 208:0.33417392 209:0 210:0.03350861 211:0.022107475 212:0.11585703 213:0.082271263 214:0.11910048 215:0.13588502 216:0.33417392 
0 1.42437836757611 1:0.22171678 2:0.10268623 3:0.092858113 4:0.13932128 5:0.29179251 6:0.01155853 7:0.021313727 8:0.0069451556 9:0.090294063 10:0.24413615 11:0.10662746 12:0.052992892 13:0.13000584 14:0.29179251 15:0.013861004 16:0.024797577 17:0.0089294855 18:0.14313336 19:0.179988 20:0.15721796 21:0.12859143 22:0.10467622 23:0.29179251 24:0.071086168 25:0.089262865 26:0 27:0.13184917 28:0.29179251 29:0.2632474 30:0.15873502 31:0.2378553 32:0.29179251 33:0.076397069 34:0.075679719 35:0 36:0.29179251 37:0.2120427 38:0.078581743 39:0.040850937 40:0.0750513 41:0.19089863 42:0.0019173638 43:0.0032356915 44:0.0013885914 45:0.17932326 46:0.28623918 47:0.094786711 48:0.124551 49:0.074815311 50:0.11548464 51:0 52:0 53:0 54:0.27521193 55:0.28623918 56:0.22929604 57:0.15819962 58:0.20437974 59:0.22056977 60:0.0083085764 61:0.0024613545 62:0 63:0.28623918 64:0.28623918 65:0.16701889 66:0.26509675 67:0.14550127 68:0.23195946 69:0 70:0 71:0 72:0.28623918 73:0.26659384 74:0.095699355 75:0.14110114 76:0.099779271 77:0.12352977 78:0 79:0 80:0 81:0.26659384 82:0.26659384 83:0.14547834 84:0.22689193 85:0.084138051 86:0.26659384 87:0.010452447 88:0 89:0.012758852 90:0.26659384 91:0.26659384 92:0.11354909 93:0.20314682 94:0.12048639 95:0.17017674 96:0 97:0 98:0 99:0.26659384 100:0.26659384 101:0.13861571 102:0.16197257 103:0.095273145 104:0.26659384 105:0.0083926767 106:0 107:0.0099235512 108:0.26659384 109:0.199396 110:0.12748364 111:0.081241444 112:0.11195137 113:0.26160935 114:0.067357063 115:0.10299479 116:0 117:0.15973166 118:0.26160935 119:0.21440977 120:0.13049556 121:0.18841027 122:0.26160935 123:0.067559034 124:0.084734268 125:0 126:0.26160935 127:0.26160935 128:0.044393227 129:0.10591412 130:0.03283605 131:0.26160935 132:0.015669744 133:0.005474946 134:0.012170999 135:0.26160935 136:0.26160935 137:0.085197352 138:0.25494269 139:0 140:0.26160935 141:0 142:0 143:0 144:0.26160935 145:0.29491067 146:0.10723977 147:0.077532582 148:0.088800333 149:0.095404841 150:0.0039948868 151:0.0011834557 152:0 153:0.2697129 154:0.27831846 155:0.049775615 156:0.093236379 157:0.042286206 158:0.073970638 159:0 160:0 161:0 162:0.22629552 163:0.29491067 164:0.080706447 165:0.24150409 166:0 167:0.22901277 168:0 169:0 170:0 171:0.29491067 172:0.29491067 173:0.12883855 174:0.29491067 175:0 176:0.29491067 177:0 178:0 179:0 180:0.29491067 181:0.17166632 182:0.028656898 183:0.06712044 184:0.019065091 185:0.054254215 186:0 187:0 188:0 189:0.14200032 190:0.20577373 191:0.068627462 192:0.091899551 193:0.017059898 194:0.2038451 195:0.00085769081 196:0 197:0 198:0.19655366 199:0.30762467 200:0.13171373 201:0.30762467 202:0.010954411 203:0.30762467 204:0 205:0 206:0 207:0.30762467 208:0.30762467 209:0.16604392 210:0.30762467 211:0.024099704 212:0.30762467 213:0 214:0 215:0 216:0.30762467 
0.01630830598081798 0.3136861724961971 1:0.27595589 2:0.08641921 3:0.052658319 4:0.088490784 5:0.31252384 6:0.078248493 7:0.057494264 8:0.043378871 9:0.17220479 10:0.11159144 11:0.04813293 12:0.051785801 13:0.033381596 14:0.24054749 15:0.038024645 16:0.029553099 17:0.016173262 18:0.064719535 19:0.22029538 20:0.088102497 21:0.024414904 22:0.062693641 23:0.31252384 24:0.078509189 25:0.14247288 26:0.14417136 27:0.18344909 28:0.31252384 29:0.25665036 30:0.27154228 31:0.064824767 32:0.31252384 33:0.09738981 34:0.16140194 35:0.12300421 36:0.22718765 37:0.13349105 38:0.061814338 39:0.047374103 40:0.0095057078 41:0.019151848 42:0.0034719708 43:0.0063482448 44:0 45:0.035128273 46:0.2734265 47:0.19716556 48:0.15785049 49:0.069706321 50:0.0015038027 51:0.015310006 52:0.043600816 53:0.001255683 54:0.11036205 55:0.29590163 56:0.29590163 57:0.29590163 58:0.085341588 59:0.21482013 60:0.03830146 61:0.041986965 62:0.016606458 63:0.27301192 64:0.29590163 65:0.29590163 66:0.29590163 67:0.2374485 68:0.024578867 69:0.036673512 70:0.10456728 71:0.0064571314 72:0.29590163 73:0.2443497 74:0.19760889 75:0.18721634 76:0.069949821 77:1.4206534e-05 78:0.0066086682 79:0.039101832 80:0.0025169661 81:0.15602605 82:0.25679663 83:0.21059321 84:0.25679663 85:0.032570068 86:0.0044047413 87:0.012073644 88:0.068637975 89:0.051458202 90:0.25679663 91:0.25679663 92:0.25679663 93:0.25679663 94:0.17992657 95:0.0075366441 96:0.023863262 97:0.068518698 98:0.0091236681 99:0.25679663 100:0.25679663 101:0.25679663 102:0.25679663 103:0.099908426 104:0.029360956 105:0.044151366 106:0.055756003 107:0.028418902 108:0.25679663 109:0.15091529 110:0.080645427 111:0.038620714 112:0.027349735 113:0.2593258 114:0.015802249 115:0.081235036 116:0.10340549 117:0.1379848 118:0.2593258 119:0.22537479 120:0.24616005 121:0.066871777 122:0.2593258 123:0.031692486 124:0.10077807 125:0.13493104 126:0.2593258 127:0.2593258 128:0.21964729 129:0.2593258 130:0.055138491 131:0.15228707 132:0.03597058 133:0.016830586 134:0.094111778 135:0.1788719 136:0.2593258 137:0.16962993 138:0.2593258 139:0.045315105 140:0.076492466 141:0.0023617228 142:0.014679536 143:0.1581971 144:0.2593258 145:0.26446107 146:0.18520607 147:0.26446107 148:0.052085061 149:0.12552746 150:0.015877476 151:0.017519262 152:0.023021283 153:0.26446107 154:0.26446107 155:0.24612589 156:0.26446107 157:0.098031253 158:0.010766614 159:0.0063087856 160:0.021451104 161:0.041286413 162:0.26446107 163:0.26446107 164:0.072146438 165:0.26446107 166:0.025065273 167:0.014151599 168:0.00017646882 169:0.0018365136 170:0.034719884 171:0.26446107 172:0.26446107 173:0.14495687 174:0.26446107 175:0.037275288 176:0.0001248038 177:0 178:0.0021162077 179:0.045424726 180:0.26446107 181:0.2699863 182:0.2699863 183:0.2699863 184:0.17034812 185:0.015492233 186:0.036039341 187:0.036440134 188:0.056807205 189:0.2699863 190:0.2699863 191:0.2699863 192:0.2699863 193:0.12166107 194:0.041189943 195:0.097830683 196:0.026225355 197:0.0084026726 198:0.2699863 199:0.2699863 200:0.24994093 201:0.2699863 202:0.065537751 203:0.0034803872 204:0.01442144 205:0.011679958 206:0.055120956 207:0.17070004 208:0.23556206 209:0.13631985 210:0.13142432 211:0.03485743 212:0.0083580483 213:0.031704605 214:0.0098766405 215:0.0060759322 216:0.11561953 
0.5573112563312352 0.8812936389064904 1:0.21029001 2:0.035785258 3:0.011710279 4:0.049407054 5:0.29308879 6:0.024356067 7:0.14016569 8:0.045262422 9:0.1818088 10:0.15147392 11:0.037762862 12:0.035564791 13:0.030073654 14:0.29308879 15:0.016411861 16:0.20806175 17:0.060378563 18:0.14270784 19:0.11246533 20:0.066011794 21:0.025615629 22:0.035055008 23:0.29308879 24:0.03952143 25:0.29308879 26:0.12637633 27:0.10171176 28:0.26049873 29:0.14766082 30:0.19823687 31:0.031943362 32:0.29308879 33:0.068343773 34:0.29308879 35:0.19333197 36:0.25560302 37:0.11487124 38:0.063491873 39:0.070323937 40:0.076604985 41:0.096134961 42:0.0013914177 43:0.045056552 44:0.06958577 45:0.11815771 46:0.24717782 47:0.095677711 48:0.20197439 49:0.14879864 50:0.17586918 51:0 52:0.013879981 53:0.10795514 54:0.21700028 55:0.24717782 56:0.19378865 57:0.24717782 58:0.15548308 59:0.24717782 60:0.020871265 61:0.13710162 62:0.13727368 63:0.24717782 64:0.24717782 65:0.19246702 66:0.24717782 67:0.24717782 68:0.24717782 69:0 70:0.017845687 71:0.17123315 72:0.24717782 73:0.24216636 74:0.10557584 75:0.24216636 76:0.053475063 77:0.24216636 78:0 79:0.0024296548 80:0.01645395 81:0.20333464 82:0.24216636 83:0.11560725 84:0.24216636 85:0.0094708679 86:0.24216636 87:0 88:0 89:0.022120152 90:0.24216636 91:0.24216636 92:0.13910601 93:0.24216636 94:0.080420516 95:0.24216636 96:0 97:0.0031238424 98:0.024598612 99:0.24216636 100:0.24216636 101:0.14732152 102:0.24216636 103:0.010125037 104:0.24216636 105:0 106:0 107:0.010054615 108:0.24216636 109:0.071721703 110:0.048525929 111:0.02815271 112:0.0067394958 113:0.18673386 114:0.012796574 115:0.12397937 116:0.051302802 117:0.073814474 118:0.24639909 119:0.085883349 120:0.16687964 121:0.012526363 122:0.22696161 123:0.041547205 124:0.23173158 125:0.088344827 126:0.25341931 127:0.28796065 128:0.092425317 129:0.21545318 130:0.032236263 131:0.28796065 132:0.01472347 133:0.0034220011 134:0.017629255 135:0.28796065 136:0.28796065 137:0.11747679 138:0.28796065 139:0.065813251 140:0.28796065 141:0.010187387 142:0.00078969268 143:0.0040682894 144:0.28796065 145:0.2336504 146:0.077098466 147:0.16325423 148:0.031866033 149:0.18114068 150:0.010024117 151:0.03678764 152:0.026695259 153:0.23616996 154:0.25622514 155:0.10282058 156:0.24215208 157:0.047290042 158:0.24723224 159:0 160:0.0019124449 161:0.023775948 162:0.25622514 163:0.25622514 164:0.10768121 165:0.25622514 166:0.016526975 167:0.25622514 168:0.00049943116 169:0 170:0 171:0.25622514 172:0.25622514 173:0.13023053 174:0.25622514 175:0 176:0.25622514 177:0 178:0 179:0 180:0.25622514 181:0.2522597 182:0.12951189 183:0.2522597 184:0.015063168 185:0.2522597 186:0 187:0.00047669513 188:0.0045739906 189:0.2522597 190:0.2522597 191:0.16323948 192:0.2522597 193:0.0010656336 194:0.2522597 195:0 196:0 197:0 198:0.2522597 199:0.2522597 200:0.11844856 201:0.2522597 202:0 203:0.2522597 204:0 205:0 206:0 207:0.2522597 208:0.21940091 209:0.070419237 210:0.21072067 211:0 212:0.17471194 213:0 214:0 215:0 216:0.21940091 
0 3.67558944503697 1:0.093039528 2:0.07920485 3:0.14966801 4:0.099683203 5:0.25137839 6:0.064691059 7:0.15915118 8:0.14154094 9:0.19179234 10:0.074290983 11:0.038756903 12:0.085280396 13:0.12745458 14:0.25137839 15:0.076876901 16:0.18869671 17:0.17792639 18:0.18644151 19:0.17045712 20:0.04115143 21:0.026210921 22:0.052802049 23:0.18851846 24:0.12949757 25:0.25137839 26:0.23725261 27:0.25137839 28:0.20274428 29:0.077782795 30:0.064680628 31:0.11194111 32:0.20018755 33:0.19055431 34:0.25137839 35:0.25137839 36:0.25137839 37:0.062207799 38:0.014376907 39:0.038668461 40:0.065022953 41:0.14895652 42:0.053665001 43:0.17096938 44:0.1492832 45:0.18269613 46:0.023023829 47:0 48:0.0027322539 49:0.0026113843 50:0.0069799931 51:0.0089302883 52:0.045154739 53:0.023261981 54:0.039537057 55:0.17474383 56:0.040952813 57:0.13122582 58:0.16097228 59:0.23839486 60:0.26165816 61:0.31690297 62:0.31690297 63:0.31690297 64:0.15902032 65:0.0082116695 66:0.079234064 67:0.042894192 68:0.087609842 69:0.16703518 70:0.31690297 71:0.31690297 72:0.31690297 73:0.012062421 74:0 75:0 76:0 77:0.00022902279 78:0 79:0.014314876 80:0.013104664 81:0.014628236 82:2.6645605e-05 83:0 84:0 85:0 86:0 87:0 88:0 89:0 90:2.6645605e-05 91:0.36792964 92:0.022601685 93:0.17792886 94:0.062379196 95:0.34687027 96:0.2339163 97:0.36792964 98:0.36792964 99:0.36792964 100:0.17807914 101:0 102:0.044897091 103:0.0037938775 104:0.11526427 105:0.08837577 106:0.26258361 107:0.066982001 108:0.33871424 109:0.22518963 110:0.050109882 111:0.0068394002 112:0.02969873 113:0.081338406 114:0.13321872 115:0.31635085 116:0.21538658 117:0.31889015 118:0.31889015 119:0.11570054 120:0.10908298 121:0.1364737 122:0.19934978 123:0.31889015 124:0.31889015 125:0.31889015 126:0.31889015 127:0.014807527 128:0.00089515839 129:7.9961472e-05 130:0 131:0.0001285422 132:0.0054303044 133:0.015648477 134:0.0036502455 135:0.025074208 136:0.060959779 137:0.0038790195 138:0.014085836 139:0.016261304 140:0.062403671 141:0.058873933 142:0.15983123 143:0.070819095 144:0.1864997 145:0.10112552 146:0.017861584 147:0.063398063 148:0.069187954 149:0.12223538 150:0.19637312 151:0.26969472 152:0.26969472 153:0.26969472 154:0.18904942 155:0.041205127 156:0.068131343 157:0.042828374 158:0.11972131 159:0.21155362 160:0.26969472 161:0.26969472 162:0.26969472 163:0.059575491 164:0.0045179017 165:0.0073207286 166:0.009196315 167:0.046860818 168:0.07463593 169:0.15160859 170:0.13063672 171:0.1762356 172:0.2050949 173:0.058383863 174:0.024555463 175:0.038653709 176:0.072147764 177:0.17740034 178:0.26969472 179:0.26969472 180:0.26969472 181:0.14709978 182:0.023234271 183:0.063039213 184:0.038708244 185:0.11412994 186:0.10070162 187:0.25664744 188:0.24214658 189:0.25664744 190:0.13437261 191:0.01796015 192:0.034277089 193:0.020389389 194:0.037070572 195:0.081188522 196:0.20160501 197:0.10641847 198:0.20705298 199:0.20221978 200:0.040709957 201:0.068516947 202:0.0858448 203:0.11789245 204:0.17394032 205:0.25664744 206:0.25664744 207:0.25664744 208:0.25664744 209:0.074505575 210:0.073527053 211:0.079684712 212:0.080759406 213:0.22315876 214:0.25664744 215:0.25664744 216:0.25664744 
0 1.067378044798148 1:0.10537198 2:0.073014967 3:0.17803407 4:0.022855729 5:0.15282372 6:0.044824407 7:0.13833426 8:0.082921803 9:0.11143087 10:0.062240902 11:0.033786297 12:0.030336965 13:0.059829589 14:0.27524516 15:0.13421604 16:0.27524516 17:0.21934745 18:0.19367847 19:0.27524516 20:0.046658743 21:0.042763945 22:0.00211815 23:0.056050781 24:0.10543585 25:0.27524516 26:0.18947899 27:0.27524516 28:0.19126147 29:0.045323569 30:0.027077911 31:0.0090953084 32:0.17740452 33:0.20118454 34:0.27524516 35:0.27524516 36:0.27524516 37:0.054007165 38:0.02932726 39:0.024853421 40:0.034372594 41:0.17084682 42:0.15528844 43:0.23912604 44:0.18395208 45:0.22271946 46:0.058877505 47:0.013905357 48:0.0090989796 49:0 50:0.0064294059 51:0.051042169 52:0.10976477 53:0.0436977 54:0.099648863 55:0.1652725 56:0.065343998 57:0.045625713 58:0.01156425 59:0.11644194 60:0.28785172 61:0.29600644 62:0.29600644 63:0.29600644 64:0.29600644 65:0.077207483 66:0.042222161 67:0.0031651696 68:0.01473063 69:0.16212004 70:0.29600644 71:0.27761886 72:0.29600644 73:0.048318859 74:0.0031403515 75:0.0026385158 76:0 77:0 78:0.0063938787 79:0.074034177 80:0.0085284933 81:0.054658189 82:0.0029701851 83:0 84:0 85:0 86:0 87:0 88:0.0030256321 89:0.00086457381 90:0.0029701851 91:0.35764802 92:0.11081982 93:0.080619067 94:0.02642756 95:0.013382051 96:0.16641295 97:0.35764802 98:0.35764802 99:0.35764802 100:0.16656542 101:0.022257306 102:0.047585204 103:0.05401095 104:0.057366658 105:0.13143949 106:0.35764802 107:0.34154576 108:0.35764802 109:0.30332139 110:0.051600277 111:0.028122617 112:0 113:0.0014366244 114:0.098710299 115:0.30332139 116:0.19443083 117:0.30332139 118:0.28657421 119:0.077893838 120:0.074718192 121:0.021269787 122:0.059730269 123:0.29870787 124:0.30332139 125:0.30332139 126:0.30332139 127:0.043847572 128:0.0064770309 129:0.0039277049 130:0 131:0.00038594214 132:0.018033924 133:0.070539862 134:0.021162111 135:0.049181096 136:0.1174878 137:0.018746223 138:0.028449358 139:0.019830551 140:0.03974814 141:0.15322411 142:0.2478904 143:0.16073397 144:0.2628192 145:0.12450456 146:0.022828443 147:0.03151764 148:0.045860261 149:0.092914246 150:0.16444908 151:0.26596829 152:0.26596829 153:0.26596829 154:0.23899622 155:0.04186834 156:0.026118752 157:0.039729487 158:0.065706529 159:0.11718846 160:0.26596829 161:0.23552591 162:0.26596829 163:0.086422265 164:0.0035689173 165:0.017112039 166:0.054948516 167:0.088525958 168:0.11019187 169:0.21556573 170:0.17852104 171:0.26596829 172:0.18679045 173:0.041036181 174:0.023929821 175:0.061817512 176:0.072923817 177:0.12586014 178:0.26596829 179:0.26596829 180:0.26596829 181:0.17432298 182:0.038399398 183:0.035717741 184:0.021370616 185:0.019487521 186:0.10211871 187:0.26186129 188:0.19147013 189:0.26186129 190:0.13169937 191:0.0089624701 192:0.027924983 193:0.064936914 194:0.1019945 195:0.10924457 196:0.26186129 197:0.21501012 198:0.26186129 199:0.22372487 200:0.053838458 201:0.019041156 202:0.016387656 203:0.017787272 204:0.11500452 205:0.26186129 206:0.21770658 207:0.26186129 208:0.22219039 209:0.026690416 210:0.025511306 211:0.076483384 212:0.13566369 213:0.13667947 214:0.26186129 215:0.26186129 216:0.26186129 
0 1.580991411557736 1:0.27371332 2:0.075235307 3:0.053123977 4:0.10583087 5:0.27371332 6:0.003161625 7:0.0084049683 8:0.015062656 9:0.16458662 10:0.27290979 11:0.1162532 12:0.10501642 13:0.053541366 14:0.27371332 15:0.012823952 16:0.0097411685 17:0.012009047 18:0.1435179 19:0.27371332 20:0.17486709 21:0.097988255 22:0.10212467 23:0.27371332 24:0.051035486 25:0.00390484 26:0.0086717634 27:0.1626794 28:0.27371332 29:0.27371332 30:0.2577506 31:0.12492999 32:0.24852702 33:0.062886715 34:0.016920976 35:0.011149409 36:0.27371332 37:0.23545325 38:0.098093785 39:0.18942606 40:0.039837182 41:0.19225447 42:0.01101373 43:0.001502396 44:0.00010520764 45:0.1323669 46:0.23545325 47:0.1981539 48:0.23545325 49:0.14350016 50:0.231745 51:0.00778651 52:0 53:0 54:0.23545325 55:0.23545325 56:0.23545325 57:0.23545325 58:0.10453234 59:0.23545325 60:0.03044139 61:0.0065103825 62:0.0015781147 63:0.23545325 64:0.23545325 65:0.18531166 66:0.23545325 67:0.12386665 68:0.23545325 69:0.0068028816 70:0 71:0 72:0.23545325 73:0.25144795 74:0.25144795 75:0.25144795 76:0.20424128 77:0.13519524 78:0.035877228 79:0.0077468497 80:0 81:0.24659513 82:0.25144795 83:0.25144795 84:0.24970831 85:0.10110776 86:0.096589752 87:0.045973122 88:0.061801914 89:0.021597879 90:0.22638775 91:0.25144795 92:0.18993621 93:0.17050172 94:0.13012323 95:0.11523113 96:0.012761873 97:0.0017877345 98:0 99:0.19390041 100:0.25144795 101:0.21838127 102:0.16410153 103:0.068600357 104:0.20581105 105:0.019541021 106:0.014182341 107:0.0037186034 108:0.19441587 109:0.20509906 110:0.1475493 111:0.10289389 112:0.074223138 113:0.23353367 114:0.066201463 115:0.0024261849 116:0.0088833198 117:0.13032095 118:0.27276093 119:0.27276093 120:0.18812689 121:0.091815323 122:0.070599154 123:0.055982403 124:0.011446776 125:0.011421411 126:0.24300176 127:0.27276093 128:0.25564292 129:0.2401472 130:0.0962165 131:0.19667125 132:0.01984828 133:0 134:0.023047836 135:0.19966871 136:0.27276093 137:0.27276093 138:0.27276093 139:0.046925526 140:0.022564057 141:0.033998236 142:0.010391749 143:0.032608502 144:0.25868499 145:0.23201796 146:0.18124017 147:0.12590265 148:0.050166298 149:0.059694149 150:0.023545535 151:0.004516107 152:0.0011675964 153:0.15921396 154:0.26780811 155:0.16277483 156:0.21663265 157:0.058995292 158:0.1580853 159:0.020255234 160:0.00092056597 161:0 162:0.22556119 163:0.26780811 164:0.26780811 165:0.24010575 166:0.075310171 167:0.025195649 168:0.058006655 169:0.011704414 170:0.0047017462 171:0.24909121 172:0.26780811 173:0.26780811 174:0.26780811 175:0.13275269 176:0.23860326 177:0.058752142 178:0.0043087639 179:0 180:0.26780811 181:0.23606758 182:0.16696058 183:0.23606758 184:0.094392247 185:0.22116439 186:0.0035950385 187:0 188:0 189:0.22023278 190:0.23606758 191:0.22353055 192:0.23606758 193:0.1146481 194:0.23606758 195:0.015523597 196:0.0051288819 197:0.0035178876 198:0.23606758 199:0.23606758 200:0.19594707 201:0.23606758 202:0.10229201 203:0.23606758 204:0.0079090847 205:0 206:0 207:0.23606758 208:0.23606758 209:0.12697275 210:0.21593915 211:0.071982592 212:0.18147968 213:0.0070561804 214:0.0011835881 215:0.00081182021 216:0.19284098 
0 0.3478939350075431 1:0.25688475 2:0.043558411 3:0.07832171 4:0.021832729 5:0.27976084 6:0.007295493 7:0.044979502 8:0.006073473 9:0.21698219 10:0.27574036 11:0.10089872 12:0.16335413 13:0.022048889 14:0.27976084 15:0.0028090966 16:0.046811216 17:0.00780875 18:0.23879282 19:0.21906824 20:0.034980748 21:0.080326967 22:0.026219312 23:0.27976084 24:0.0054790871 25:0.14523709 26:0.013361639 27:0.16564892 28:0.27976084 29:0.16716048 30:0.27976084 31:0.01707756 32:0.27976084 33:0.006395652 34:0.13898194 35:0.017179251 36:0.27976084 37:0.26006171 38:0.22716422 39:0.2221514 40:0.052136086 41:0.22769585 42:0.0059152921 43:0.011954187 44:0.0013550607 45:0.2049402 46:0.26006171 47:0.26006171 48:0.19762544 49:0.059743211 50:0.083552055 51:0.0048629879 52:0.015301622 53:0.011358867 54:0.17013903 55:0.26006171 56:0.23722503 57:0.26006171 58:0.048295196 59:0.26006171 60:0.0071003176 61:0.01668627 62:0.0029811335 63:0.26006171 64:0.26006171 65:0.26006171 66:0.16593714 67:0.040014636 68:0.065530337 69:0.004847711 70:0.011761754 71:0.0051631224 72:0.1396732 73:0.2588467 74:0.2588467 75:0.2437811 76:0.14028561 77:0.19326459 78:0.0006629976 79:0.004329463 80:0.020121533 81:0.23731782 82:0.2588467 83:0.2588467 84:0.2588467 85:0.23298495 86:0.2588467 87:0.013928501 88:0.0061673704 89:0.035464179 90:0.2588467 91:0.25304997 92:0.18761589 93:0.097610645 94:0.038632773 95:0.056394324 96:0.00089163042 97:0.0031202319 98:0.0091461511 99:0.12085554 100:0.21133423 101:0.12269181 102:0.11984449 103:0.040938612 104:0.2588467 105:0.0035207004 106:0.00047959352 107:0.0041653672 108:0.16883491 109:0.13363956 110:0.02039553 111:0.045278642 112:0.049202077 113:0.2332821 114:0.0038472398 115:0.087827928 116:0.0056905411 117:0.10689003 118:0.26636276 119:0.097887523 120:0.16942623 121:0.014516289 122:0.24947576 123:0.0037353029 124:0.079392076 125:0.0073164105 126:0.24792224 127:0.26636276 128:0.26636276 129:0.14542739 130:0.064636379 131:0.2030938 132:0.025099367 133:0.0004978067 134:0.015387408 135:0.20816481 136:0.26636276 137:0.26636276 138:0.26636276 139:0.26636276 140:0.22982591 141:0.035014857 142:0 143:0 144:0.26636276 145:0.17034189 146:0.074031524 147:0.11809541 148:0.021648189 149:0.115492 150:0.00087338028 151:0.0025521016 152:0.00066567754 153:0.15161906 154:0.21858738 155:0.18105592 156:0.1340577 157:0.035275463 158:0.068012297 159:0.01238208 160:0.0054762261 161:0.0040432252 162:0.16560797 163:0.27126059 164:0.27126059 165:0.27126059 166:0.18635938 167:0.27126059 168:0.0083749006 169:0 170:0 171:0.27126059 172:0.27126059 173:0.27126059 174:0.27126059 175:0.092301294 176:0.27126059 177:0.026437052 178:0.012047698 179:0.0051984321 180:0.27126059 181:0.24943984 182:0.24943984 183:0.13742182 184:0.035746474 185:0.025903048 186:0.01392835 187:0.0056141182 188:0.018576751 189:0.17115484 190:0.24943984 191:0.24943984 192:0.24943984 193:0.065289795 194:0.24943984 195:0.007793298 196:0.0003742745 197:0.014448584 198:0.24943984 199:0.24943984 200:0.24943984 201:0.22562085 202:0.055679489 203:0.049612164 204:0.028354123 205:0.012351059 206:0.023884393 207:0.24943984 208:0.24943984 209:0.24943984 210:0.21492252 211:0.073616691 212:0.15300708 213:0.0072295177 214:0.000823404 215:0.018576751 216:0.24943984 
0 7.42823583391322 1:0.15303636 2:0.037133332 3:0.078159094 4:0.035119813 5:0.13257287 6:0.086011827 7:0.18176718 8:0.18725565 9:0.2465481 10:0.12865484 11:0.0062648249 12:0.030204546 13:0.04512506 14:0.2465481 15:0.16631739 16:0.19382869 17:0.23874655 18:0.2465481 19:0.096540004 20:0.016125089 21:0.032033339 22:0.0090297684 23:0.16496898 24:0.12160104 25:0.2465481 26:0.2465481 27:0.2465481 28:0.19751792 29:0.033200096 30:0.06204278 31:0.024615193 32:0.18888772 33:0.22479795 34:0.2465481 35:0.2465481 36:0.2465481 37:0.083002076 38:0.0023185071 39:0.041634228 40:0.032691784 41:0.20218208 42:0.14484996 43:0.16640198 44:0.20651378 45:0.20687814 46:0.026684813 47:0.0019373216 48:0.0074523622 49:0.0078174341 50:0.029757759 51:0.030476563 52:0.073872715 53:0.038031749 54:0.066236585 55:0.20636509 56:0.031004768 57:0.10169937 58:0.06338156 59:0.25995612 60:0.28151354 61:0.28151354 62:0.28151354 63:0.28151354 64:0.2139751 65:0.054186035 66:0.051381707 67:0.048566259 68:0.10406828 69:0.23188919 70:0.28151354 71:0.28151354 72:0.28151354 73:0.028592009 74:0.0020580194 75:0 76:0 77:0.00090189779 78:0.017724602 79:0.042148899 80:0.0035157404 81:0.03380182 82:0.00036175002 83:0 84:0 85:0 86:0 87:0 88:0 89:0 90:0.00036175002 91:0.36208537 92:0.085599139 93:0.10933112 94:0.085588172 95:0.22225496 96:0.36208537 97:0.36208537 98:0.36208537 99:0.36208537 100:0.16379693 101:0.013785192 102:0.03392503 103:0.0082837483 104:0.10400064 105:0.14754573 106:0.25165078 107:0.16064881 108:0.3328976 109:0.1409117 110:0.028811578 111:0.019542791 112:0.0049881334 113:0.10123359 114:0.085568696 115:0.32347211 116:0.24674463 117:0.32347211 118:0.32347211 119:0.072465643 120:0.10784833 121:0.070605576 122:0.23263679 123:0.32347211 124:0.32347211 125:0.32347211 126:0.32347211 127:0.016094362 128:0.00077486044 129:0 130:0 131:0.00038478462 132:0.0036531796 133:0.019480674 134:0.0015031042 135:0.018857474 136:0.074003056 137:0.0033577285 138:0.027185621 139:0.018186094 140:0.080450118 141:0.065662667 142:0.17086133 143:0.11347993 144:0.16843897 145:0.1454445 146:0.023932535 147:0.065108985 148:0.040426981 149:0.15100166 150:0.1747385 151:0.26656562 152:0.26656562 153:0.26656562 154:0.23118594 155:0.056934517 156:0.053482872 157:0.039419793 158:0.10705001 159:0.23362799 160:0.26656562 161:0.26656562 162:0.26656562 163:0.074887469 164:0.011721749 165:0.027705941 166:0.010805249 167:0.057110947 168:0.074410416 169:0.19365594 170:0.12154315 171:0.15009709 172:0.18420748 173:0.060180072 174:0.023084641 175:0.029456105 176:0.080417357 177:0.19761954 178:0.26656562 179:0.21468642 180:0.26656562 181:0.13289894 182:0.027345221 183:0.035149887 184:0.028019512 185:0.096944854 186:0.14723638 187:0.25901303 188:0.2245187 189:0.25901303 190:0.11183721 191:0.028844409 192:0.023214171 193:0.0040665185 194:0.041684322 195:0.10770568 196:0.24557941 197:0.12622903 198:0.21726763 199:0.13943802 200:0.051619709 201:0.02319089 202:0.045204088 203:0.10453559 204:0.18439242 205:0.25901303 206:0.25901303 207:0.25901303 208:0.23826963 209:0.080708697 210:0.043437473 211:0.021179533 212:0.076064132 213:0.25901303 214:0.25901303 215:0.25901303 216:0.25901303 
0.5383955198674494 1.820434971197372 1:0.06417501 2:0.096233316 3:0.25618845 4:0.27179375 5:0.28487405 6:0.12126478 7:0.077588268 8:0.014906057 9:0.059368689 10:0.06987977 11:0.015202485 12:0.25528127 13:0.1279925 14:0.28487405 15:0.050614558 16:0.091568537 17:0.017565878 18:0.066388905 19:0.04883825 20:0.1266697 21:0.14193468 22:0.13954268 23:0.28487405 24:0.17418601 25:0.2013234 26:0.082260594 27:0.069638059 28:0.28487405 29:0.03059704 30:0.081354238 31:0.074550577 32:0.28487405 33:0.1421687 34:0.24476445 35:0.11467534 36:0.2545259 37:0.12013794 38:0.027562557 39:0.091941163 40:0.021253265 41:0.20037325 42:0.02094732 43:0.039031621 44:0.004446358 45:0.095377035 46:0.10252836 47:0.095556758 48:0.047601081 49:0.0072294706 50:0.038654797 51:0 52:0.005634788 53:0.038245019 54:0.11124044 55:0.35057625 56:0.17567153 57:0.11253532 58:0.017423023 59:0.093809925 60:0.053817563 61:0.10563206 62:0.0450284 63:0.35057625 64:0.35057625 65:0.35057625 66:0.35057625 67:0.10844207 68:0.2423254 69:0 70:0.012396532 71:0.084139034 72:0.35057625 73:0.099915154 74:0.09509898 75:0.061682206 76:0.012937695 77:0.13749933 78:0 79:0.01662552 80:0.11284245 81:0.1214791 82:0.063317038 83:2.3629855e-05 84:0.01479366 85:0.011939321 86:0.12940322 87:0.002304428 88:0.0011083679 89:0.0075228293 90:0.063317038 91:0.34566736 92:0.34566736 93:0.34566736 94:0.19406542 95:0.34566736 96:0 97:0.036576137 98:0.24825338 99:0.34566736 100:0.14393583 101:0.00035444784 102:0.082550436 103:0.051737063 104:0.34566736 105:0.14528124 106:0.10725184 107:0.024617536 108:0.14393583 109:0.076619901 110:0.06357073 111:0.16513428 112:0.072676525 113:0.29739594 114:0.10489633 115:0.14598203 116:0.14172724 117:0.12841952 118:0.29739594 119:0.10380113 120:0.0021653695 121:0.0049294028 122:0.18841046 123:0.11221672 124:0.17824438 125:0.2313143 126:0.29739594 127:0.29739594 128:0.094282717 129:0.074181184 130:0.053682666 131:0.21064216 132:0.021785501 133:0.0077088932 134:0.074323013 135:0.29739594 136:0.29739594 137:0.19974327 138:0.035370473 139:0 140:0.065463319 141:0.017180055 142:0.01356062 143:0.093677551 144:0.29739594 145:0.30998963 146:0.13168651 147:0.046174075 148:0.0025199316 149:0.018685883 150:0.014732054 151:0.027694518 152:0.044314314 153:0.30998963 154:0.30998963 155:0.20530014 156:0.25475022 157:0.037798978 158:0.075519398 159:0 160:0.0044657877 161:0.014775969 162:0.30998963 163:0.30998963 164:0.17802452 165:0.061524846 166:0 167:0.030906582 168:0.0079065375 169:0.019865613 170:0.025915815 171:0.30998963 172:0.30998963 173:0.19126014 174:0.11944892 175:0 176:0.011975609 177:0.0015019302 178:0.032525308 179:0.03670425 180:0.30998963 181:0.19174236 182:0.14094578 183:0.21845721 184:0.033993687 185:0.11876789 186:0 187:0.013949466 188:0.032066558 189:0.15910184 190:0.19109806 191:0.020422176 192:0.041854277 193:0.0070039839 194:0.20992628 195:0.04552741 196:0.064422555 197:0.012507278 198:0.18387352 199:0.36330476 200:0.32624495 201:0.16226418 202:0 203:0.0058779153 204:0 205:0.054124072 206:0.12198263 207:0.36330476 208:0.36330476 209:0.16260307 210:0.10678253 211:0.0033159542 212:0.058051288 213:0.0072324481 214:0.041617401 215:0.075138815 216:0.36330476 
0 3.668111695594699 1:0.050362341 2:0.057211 3:0.049384851 4:0.097352013 5:0.26255926 6:0.19292724 7:0.18225589 8:0.23222592 9:0.21732332 10:0.16271971 11:0.011391869 12:0.0091579324 13:0.012436376 14:0.17461188 15:0.12394812 16:0.14230676 17:0.18273473 18:0.25861776 19:0.13811614 20:0.085966751 21:0.076875634 22:0.12757787 23:0.26255926 24:0.163091 25:0.094030499 26:0.15886474 27:0.17712648 28:0.26255926 29:0.11636422 30:0.067101762 31:0.066756055 32:0.26255926 33:0.17401014 34:0.15100288 35:0.23207036 36:0.26255926 37:0.17812273 38:0.0075890538 39:0.015087286 40:0.003674903 41:0.01526578 42:0.047306139 43:0.06928122 44:0.093333028 45:0.23330282 46:0.13235869 47:0.0018297142 48:0.0032666959 49:0.00062270538 50:0.0034115668 51:0.015855495 52:0.024695735 53:0.023491954 54:0.15117227 55:0.39859626 56:0.069004081 57:0.075057268 58:0.037949204 59:0.063608214 60:0.18150572 61:0.2214129 62:0.3010318 63:0.39859626 64:0.39859626 65:0.020628935 66:0.014155683 67:0.0093405796 68:0.022823645 69:0.071533971 70:0.092393026 71:0.11355768 72:0.39859626 73:0.14333139 74:0 75:0 76:0 77:0 78:0 79:0 80:0 81:0.14333139 82:0.1362367 83:0 84:0 85:0 86:0.0017976199 87:0.0036395667 88:0.0036131954 89:0.0072326609 90:0.15405668 91:0.46888575 92:0 93:0 94:0 95:0 96:0 97:0 98:0 99:0.46888575 100:0.46888575 101:0.0044017336 102:0.008086402 103:0.030648239 104:0.0083356639 105:0.073059388 106:0.13171306 107:0.093050115 108:0.46888575 109:0.19763014 110:0.048451606 111:0.039771374 112:0.06766478 113:0.32016417 114:0.092295274 115:0.035129856 116:0.048518274 117:0.16803326 118:0.32016417 119:0.091479205 120:0.049482502 121:0.05940076 122:0.15180168 123:0.099962078 124:0.069546133 125:0.0909179 126:0.3198778 127:0.32016417 128:0.0011285768 129:0.00097095157 130:0.04345426 131:0.15255547 132:0.17891227 133:0.16744556 134:0.15714361 135:0.32016417 136:0.32016417 137:0.0014510273 138:0.0011524722 139:0.01260608 140:0.040626943 141:0.077128381 142:0.091277793 143:0.071122035 144:0.32016417 145:0.32649946 146:0.028479313 147:0.023817154 148:0.019166753 149:0.032852545 150:0.073617823 151:0.084092841 152:0.1136101 153:0.34977305 154:0.34977305 155:0.0087620066 156:0.003850156 157:0.0041885977 158:0.010742793 159:0.028424375 160:0.034071553 161:0.054543454 162:0.34977305 163:0.34977305 164:0.00016847918 165:0.00020251182 166:0.00060768687 167:0.0030727049 168:0.0033151074 169:0.0039065029 170:0.0080247298 171:0.34977305 172:0.34977305 173:0 174:0 175:0 176:0.00054664107 177:0.0011951475 178:0.0014574077 179:0.0043647732 180:0.34977305 181:0.34335443 182:0 183:0 184:0 185:0 186:0 187:0 188:0 189:0.34335443 190:0.34335443 191:0.0027101242 192:0.004978755 193:0.020614102 194:0.048817351 195:0.064747036 196:0.10889343 197:0.058184348 198:0.34335443 199:0.34335443 200:0 201:0 202:0 203:0 204:0 205:0 206:0 207:0.34335443 208:0.34335443 209:0.01868833 210:0.00044740635 211:0.021663165 212:0.15939079 213:0.031280152 214:0.045247965 215:0.043653626 216:0.34335443 
0 1.644652031361609 1:0.057090167 2:0.1014874 3:0.28984046 4:0.29680693 5:0.29680693 6:0.051916618 7:0.091243163 8:0.041285835 9:0.028204251 10:0.033760022 11:0.030492129 12:0.2103802 13:0.14074628 14:0.29291445 15:0.045186725 16:0.092504062 17:0.031323012 18:0.029123988 19:0.12345101 20:0.073000841 21:0.20758599 22:0.21652992 23:0.29680693 24:0.095984228 25:0.068787284 26:0.085914597 27:0.17970589 28:0.29680693 29:0.012117268 30:0.093624443 31:0.058100402 32:0.29680693 33:0.081673622 34:0.053215832 35:0.084011413 36:0.29680693 37:0.048083019 38:0.0091463998 39:0.049563359 40:0.036269333 41:0.088461637 42:0.010675795 43:0.025894247 44:0.010241076 45:0.054701481 46:0.028827168 47:0.0037662026 48:0 49:0 50:0.0043517104 51:0.00078096316 52:0.0023056599 53:0.0028493535 54:0.037603218 55:0.35478398 56:0.059544209 57:0.070333332 58:0.083337575 59:0.10996716 60:0.18467814 61:0.12513566 62:0.099381328 63:0.35478398 64:0.35478398 65:0.11400536 66:0.15508169 67:0.23627412 68:0.18130529 69:0.29421115 70:0.29587591 71:0.29288661 72:0.35478398 73:0.015005965 74:0.0022922771 75:0 76:0 77:0.0024359932 78:0.00017486361 79:0.0038146363 80:0.0020874904 81:0.020908102 82:0.00013298226 83:0 84:0 85:0 86:0.00028311776 87:0 88:0.0002543091 89:0.00013916602 90:0.00013298226 91:0.4261097 92:0.048850395 93:0.079580471 94:0.14382489 95:0.11994157 96:0.20678046 97:0.25248423 98:0.33377117 99:0.4261097 100:0.4261097 101:0 102:0 103:0.0054590669 104:0.030305851 105:0.024592988 106:0.01465571 107:0.072831117 108:0.4261097 109:0.20371553 110:0.021703279 111:0.052694246 112:0.079785883 113:0.31905732 114:0.085531235 115:0.099294476 116:0.089720324 117:0.31905732 118:0.31905732 119:0.0067863888 120:0 121:0.011595758 122:0.13586852 123:0.072089732 124:0.076217704 125:0.086987652 126:0.31905732 127:0.3122457 128:0.0070703723 129:0.0089018503 130:0.018913118 131:0.21295647 132:0.10838062 133:0.076404423 134:0.085158318 135:0.31905732 136:0.31905732 137:0.0031940304 138:0.0016619479 139:0.0014696579 140:0.019036448 141:0.026797792 142:0.027912006 143:0.025132474 144:0.31905732 145:0.28368959 146:0.054946676 147:0.033014499 148:0.058402937 149:0.091688603 150:0.1218245 151:0.099665292 152:0.087320812 153:0.28368959 154:0.28368959 155:0.095585302 156:0.11241494 157:0.20149367 158:0.19108877 159:0.20609258 160:0.20200168 161:0.28368959 162:0.28368959 163:0.28368959 164:0.023393625 165:0.0071154349 166:0.019239135 167:0.041646272 168:0.031045506 169:0.028990641 170:0.041425306 171:0.28368959 172:0.28368959 173:0.043638483 174:0.028790358 175:0.072107717 176:0.085587777 177:0.054083671 178:0.050415281 179:0.12412166 180:0.28368959 181:0.3370955 182:0.018584264 183:0.033478208 184:0.074526124 185:0.072560549 186:0.079727307 187:0.084199063 188:0.16383569 189:0.3370955 190:0.3370955 191:0 192:0 193:0.0041726632 194:0.047623336 195:0.034791742 196:0.007255015 197:0.032307453 198:0.3370955 199:0.3370955 200:0.0081391251 201:0.0093629016 202:0.028942063 203:0.032268975 204:0.020087026 205:0.01898543 206:0.063536659 207:0.3370955 208:0.3370955 209:0 210:0.0083910571 211:0.017822696 212:0.14828126 213:0.031932767 214:0.0030376059 215:0.012691476 216:0.3370955 
